digraph Tree {
node [shape=box, style="filled, rounded", color="black", fontname=helvetica] ;
edge [fontname=helvetica] ;
0 [label="BasePolicy <= 1.5\nentropy = 0.32\nsamples = 3500\nvalue = [3295, 205]\nclass = 0", fillcolor="#e78945"] ;
1 [label="Fault <= 0.5\nentropy = 0.42\nsamples = 2370\nvalue = [2171, 199]\nclass = 0", fillcolor="#e78d4b"] ;
0 -> 1 [labeldistance=2.5, labelangle=45, headlabel="True"] ;
2 [label="Month <= 8.5\nentropy = 0.53\nsamples = 1587\nvalue = [1397, 190]\nclass = 0", fillcolor="#e99254"] ;
1 -> 2 ;
3 [label="BasePolicy <= 0.5\nentropy = 0.68\nsamples = 982\nvalue = [805, 177]\nclass = 0", fillcolor="#eb9d65"] ;
2 -> 3 ;
4 [label="Month <= 1.5\nentropy = 0.78\nsamples = 408\nvalue = [314, 94]\nclass = 0", fillcolor="#eda774"] ;
3 -> 4 ;
5 [label="Age <= 38.5\nentropy = 0.96\nsamples = 85\nvalue = [53, 32]\nclass = 0", fillcolor="#f5cdb1"] ;
4 -> 5 ;
6 [label="PastNumberOfClaims <= 0.5\nentropy = 1.0\nsamples = 43\nvalue = [21, 22]\nclass = 1", fillcolor="#f6fbfe"] ;
5 -> 6 ;
7 [label="AgeOfPolicyHolder <= 4.5\nentropy = 0.54\nsamples = 8\nvalue = [1, 7]\nclass = 1", fillcolor="#55abe9"] ;
6 -> 7 ;
8 [label="entropy = 0.0\nsamples = 6\nvalue = [0, 6]\nclass = 1", fillcolor="#399de5"] ;
7 -> 8 ;
9 [label="WeekOfMonth <= 1.5\nentropy = 1.0\nsamples = 2\nvalue = [1, 1]\nclass = 0", fillcolor="#ffffff"] ;
7 -> 9 ;
10 [label="entropy = 0.0\nsamples = 1\nvalue = [0, 1]\nclass = 1", fillcolor="#399de5"] ;
9 -> 10 ;
11 [label="entropy = 0.0\nsamples = 1\nvalue = [1, 0]\nclass = 0", fillcolor="#e58139"] ;
9 -> 11 ;
12 [label="AccidentArea <= 0.5\nentropy = 0.99\nsamples = 35\nvalue = [20, 15]\nclass = 0", fillcolor="#f8e0ce"] ;
6 -> 12 ;
13 [label="entropy = 0.0\nsamples = 2\nvalue = [0, 2]\nclass = 1", fillcolor="#399de5"] ;
12 -> 13 ;
14 [label="Age <= 37.5\nentropy = 0.97\nsamples = 33\nvalue = [20, 13]\nclass = 0", fillcolor="#f6d3ba"] ;
12 -> 14 ;
15 [label="Deductible <= 600.0\nentropy = 0.94\nsamples = 31\nvalue = [20, 11]\nclass = 0", fillcolor="#f3c6a6"] ;
14 -> 15 ;
16 [label="WeekOfMonth <= 2.5\nentropy = 0.89\nsamples = 29\nvalue = [20, 9]\nclass = 0", fillcolor="#f1ba92"] ;
15 -> 16 ;
17 [label="DayOfWeekClaimed <= 4.5\nentropy = 0.57\nsamples = 15\nvalue = [13, 2]\nclass = 0", fillcolor="#e99457"] ;
16 -> 17 ;
18 [label="DayOfWeekClaimed <= 2.0\nentropy = 0.81\nsamples = 8\nvalue = [6, 2]\nclass = 0", fillcolor="#eeab7b"] ;
17 -> 18 ;
19 [label="entropy = 0.0\nsamples = 6\nvalue = [6, 0]\nclass = 0", fillcolor="#e58139"] ;
18 -> 19 ;
20 [label="entropy = 0.0\nsamples = 2\nvalue = [0, 2]\nclass = 1", fillcolor="#399de5"] ;
18 -> 20 ;
21 [label="entropy = 0.0\nsamples = 7\nvalue = [7, 0]\nclass = 0", fillcolor="#e58139"] ;
17 -> 21 ;
22 [label="AgeOfVehicle <= 4.5\nentropy = 1.0\nsamples = 14\nvalue = [7, 7]\nclass = 0", fillcolor="#ffffff"] ;
16 -> 22 ;
23 [label="DayOfWeek <= 0.5\nentropy = 0.81\nsamples = 8\nvalue = [2, 6]\nclass = 1", fillcolor="#7bbeee"] ;
22 -> 23 ;
24 [label="entropy = 0.0\nsamples = 2\nvalue = [2, 0]\nclass = 0", fillcolor="#e58139"] ;
23 -> 24 ;
25 [label="entropy = 0.0\nsamples = 6\nvalue = [0, 6]\nclass = 1", fillcolor="#399de5"] ;
23 -> 25 ;
26 [label="DayOfWeek <= 0.5\nentropy = 0.65\nsamples = 6\nvalue = [5, 1]\nclass = 0", fillcolor="#ea9a61"] ;
22 -> 26 ;
27 [label="entropy = 0.0\nsamples = 1\nvalue = [0, 1]\nclass = 1", fillcolor="#399de5"] ;
26 -> 27 ;
28 [label="entropy = 0.0\nsamples = 5\nvalue = [5, 0]\nclass = 0", fillcolor="#e58139"] ;
26 -> 28 ;
29 [label="entropy = 0.0\nsamples = 2\nvalue = [0, 2]\nclass = 1", fillcolor="#399de5"] ;
15 -> 29 ;
30 [label="entropy = 0.0\nsamples = 2\nvalue = [0, 2]\nclass = 1", fillcolor="#399de5"] ;
14 -> 30 ;
31 [label="WeekOfMonth <= 3.5\nentropy = 0.79\nsamples = 42\nvalue = [32, 10]\nclass = 0", fillcolor="#eda877"] ;
5 -> 31 ;
32 [label="AgeOfVehicle <= 3.5\nentropy = 0.43\nsamples = 23\nvalue = [21, 2]\nclass = 0", fillcolor="#e78d4c"] ;
31 -> 32 ;
33 [label="entropy = 0.0\nsamples = 1\nvalue = [0, 1]\nclass = 1", fillcolor="#399de5"] ;
32 -> 33 ;
34 [label="Make <= 16.5\nentropy = 0.27\nsamples = 22\nvalue = [21, 1]\nclass = 0", fillcolor="#e68742"] ;
32 -> 34 ;
35 [label="entropy = 0.0\nsamples = 18\nvalue = [18, 0]\nclass = 0", fillcolor="#e58139"] ;
34 -> 35 ;
36 [label="PastNumberOfClaims <= 0.5\nentropy = 0.81\nsamples = 4\nvalue = [3, 1]\nclass = 0", fillcolor="#eeab7b"] ;
34 -> 36 ;
37 [label="entropy = 0.0\nsamples = 1\nvalue = [0, 1]\nclass = 1", fillcolor="#399de5"] ;
36 -> 37 ;
38 [label="entropy = 0.0\nsamples = 3\nvalue = [3, 0]\nclass = 0", fillcolor="#e58139"] ;
36 -> 38 ;
39 [label="AgeOfPolicyHolder <= 6.5\nentropy = 0.98\nsamples = 19\nvalue = [11, 8]\nclass = 0", fillcolor="#f8ddc9"] ;
31 -> 39 ;
40 [label="Make <= 8.5\nentropy = 0.9\nsamples = 16\nvalue = [11, 5]\nclass = 0", fillcolor="#f1ba93"] ;
39 -> 40 ;
41 [label="entropy = 0.0\nsamples = 7\nvalue = [7, 0]\nclass = 0", fillcolor="#e58139"] ;
40 -> 41 ;
42 [label="Age <= 43.5\nentropy = 0.99\nsamples = 9\nvalue = [4, 5]\nclass = 1", fillcolor="#d7ebfa"] ;
40 -> 42 ;
43 [label="entropy = 0.0\nsamples = 3\nvalue = [0, 3]\nclass = 1", fillcolor="#399de5"] ;
42 -> 43 ;
44 [label="WeekOfMonth <= 4.5\nentropy = 0.92\nsamples = 6\nvalue = [4, 2]\nclass = 0", fillcolor="#f2c09c"] ;
42 -> 44 ;
45 [label="entropy = 0.0\nsamples = 3\nvalue = [3, 0]\nclass = 0", fillcolor="#e58139"] ;
44 -> 45 ;
46 [label="WeekOfMonthClaimed <= 3.0\nentropy = 0.92\nsamples = 3\nvalue = [1, 2]\nclass = 1", fillcolor="#9ccef2"] ;
44 -> 46 ;
47 [label="entropy = 0.0\nsamples = 1\nvalue = [1, 0]\nclass = 0", fillcolor="#e58139"] ;
46 -> 47 ;
48 [label="entropy = 0.0\nsamples = 2\nvalue = [0, 2]\nclass = 1", fillcolor="#399de5"] ;
46 -> 48 ;
49 [label="entropy = 0.0\nsamples = 3\nvalue = [0, 3]\nclass = 1", fillcolor="#399de5"] ;
39 -> 49 ;
50 [label="MonthClaimed <= 2.5\nentropy = 0.71\nsamples = 323\nvalue = [261, 62]\nclass = 0", fillcolor="#eb9f68"] ;
4 -> 50 ;
51 [label="Age <= 9.0\nentropy = 0.37\nsamples = 56\nvalue = [52, 4]\nclass = 0", fillcolor="#e78b48"] ;
50 -> 51 ;
52 [label="entropy = 0.0\nsamples = 2\nvalue = [0, 2]\nclass = 1", fillcolor="#399de5"] ;
51 -> 52 ;
53 [label="Month <= 4.5\nentropy = 0.23\nsamples = 54\nvalue = [52, 2]\nclass = 0", fillcolor="#e68641"] ;
51 -> 53 ;
54 [label="entropy = 0.0\nsamples = 46\nvalue = [46, 0]\nclass = 0", fillcolor="#e58139"] ;
53 -> 54 ;
55 [label="AgeOfVehicle <= 4.5\nentropy = 0.81\nsamples = 8\nvalue = [6, 2]\nclass = 0", fillcolor="#eeab7b"] ;
53 -> 55 ;
56 [label="entropy = 0.0\nsamples = 4\nvalue = [4, 0]\nclass = 0", fillcolor="#e58139"] ;
55 -> 56 ;
57 [label="Age <= 34.5\nentropy = 1.0\nsamples = 4\nvalue = [2, 2]\nclass = 0", fillcolor="#ffffff"] ;
55 -> 57 ;
58 [label="entropy = 0.0\nsamples = 1\nvalue = [0, 1]\nclass = 1", fillcolor="#399de5"] ;
57 -> 58 ;
59 [label="DriverRating <= 1.5\nentropy = 0.92\nsamples = 3\nvalue = [2, 1]\nclass = 0", fillcolor="#f2c09c"] ;
57 -> 59 ;
60 [label="entropy = 0.0\nsamples = 1\nvalue = [0, 1]\nclass = 1", fillcolor="#399de5"] ;
59 -> 60 ;
61 [label="entropy = 0.0\nsamples = 2\nvalue = [2, 0]\nclass = 0", fillcolor="#e58139"] ;
59 -> 61 ;
62 [label="Make <= 14.0\nentropy = 0.76\nsamples = 267\nvalue = [209, 58]\nclass = 0", fillcolor="#eca470"] ;
50 -> 62 ;
63 [label="WeekOfMonthClaimed <= 4.5\nentropy = 0.82\nsamples = 190\nvalue = [142, 48]\nclass = 0", fillcolor="#eeac7c"] ;
62 -> 63 ;
64 [label="WeekOfMonth <= 2.5\nentropy = 0.83\nsamples = 184\nvalue = [136, 48]\nclass = 0", fillcolor="#eead7f"] ;
63 -> 64 ;
65 [label="Age <= 52.5\nentropy = 0.7\nsamples = 80\nvalue = [65, 15]\nclass = 0", fillcolor="#eb9e67"] ;
64 -> 65 ;
66 [label="Month <= 5.5\nentropy = 0.77\nsamples = 66\nvalue = [51, 15]\nclass = 0", fillcolor="#eda673"] ;
65 -> 66 ;
67 [label="Month <= 4.5\nentropy = 0.88\nsamples = 47\nvalue = [33, 14]\nclass = 0", fillcolor="#f0b68d"] ;
66 -> 67 ;
68 [label="Age <= 49.5\nentropy = 0.84\nsamples = 45\nvalue = [33, 12]\nclass = 0", fillcolor="#eeaf81"] ;
67 -> 68 ;
69 [label="Make <= 1.0\nentropy = 0.76\nsamples = 41\nvalue = [32, 9]\nclass = 0", fillcolor="#eca471"] ;
68 -> 69 ;
70 [label="entropy = 0.0\nsamples = 4\nvalue = [4, 0]\nclass = 0", fillcolor="#e58139"] ;
69 -> 70 ;
71 [label="Age <= 20.0\nentropy = 0.8\nsamples = 37\nvalue = [28, 9]\nclass = 0", fillcolor="#edaa79"] ;
69 -> 71 ;
72 [label="entropy = 0.0\nsamples = 4\nvalue = [4, 0]\nclass = 0", fillcolor="#e58139"] ;
71 -> 72 ;
73 [label="Age <= 45.0\nentropy = 0.85\nsamples = 33\nvalue = [24, 9]\nclass = 0", fillcolor="#efb083"] ;
71 -> 73 ;
74 [label="AgeOfVehicle <= 5.5\nentropy = 0.89\nsamples = 29\nvalue = [20, 9]\nclass = 0", fillcolor="#f1ba92"] ;
73 -> 74 ;
75 [label="Make <= 11.0\nentropy = 0.83\nsamples = 27\nvalue = [20, 7]\nclass = 0", fillcolor="#eead7e"] ;
74 -> 75 ;
76 [label="NumberOfSuppliments <= 0.5\nentropy = 0.97\nsamples = 15\nvalue = [9, 6]\nclass = 0", fillcolor="#f6d5bd"] ;
75 -> 76 ;
77 [label="entropy = 0.0\nsamples = 3\nvalue = [3, 0]\nclass = 0", fillcolor="#e58139"] ;
76 -> 77 ;
78 [label="WeekOfMonth <= 1.5\nentropy = 1.0\nsamples = 12\nvalue = [6, 6]\nclass = 0", fillcolor="#ffffff"] ;
76 -> 78 ;
79 [label="DayOfWeekClaimed <= 0.5\nentropy = 0.72\nsamples = 5\nvalue = [1, 4]\nclass = 1", fillcolor="#6ab6ec"] ;
78 -> 79 ;
80 [label="entropy = 0.0\nsamples = 1\nvalue = [1, 0]\nclass = 0", fillcolor="#e58139"] ;
79 -> 80 ;
81 [label="entropy = 0.0\nsamples = 4\nvalue = [0, 4]\nclass = 1", fillcolor="#399de5"] ;
79 -> 81 ;
82 [label="DayOfWeekClaimed <= 3.5\nentropy = 0.86\nsamples = 7\nvalue = [5, 2]\nclass = 0", fillcolor="#efb388"] ;
78 -> 82 ;
83 [label="WeekOfMonthClaimed <= 2.5\nentropy = 0.92\nsamples = 3\nvalue = [1, 2]\nclass = 1", fillcolor="#9ccef2"] ;
82 -> 83 ;
84 [label="entropy = 0.0\nsamples = 1\nvalue = [1, 0]\nclass = 0", fillcolor="#e58139"] ;
83 -> 84 ;
85 [label="entropy = 0.0\nsamples = 2\nvalue = [0, 2]\nclass = 1", fillcolor="#399de5"] ;
83 -> 85 ;
86 [label="entropy = 0.0\nsamples = 4\nvalue = [4, 0]\nclass = 0", fillcolor="#e58139"] ;
82 -> 86 ;
87 [label="DayOfWeekClaimed <= 0.5\nentropy = 0.41\nsamples = 12\nvalue = [11, 1]\nclass = 0", fillcolor="#e78c4b"] ;
75 -> 87 ;
88 [label="Month <= 3.5\nentropy = 1.0\nsamples = 2\nvalue = [1, 1]\nclass = 0", fillcolor="#ffffff"] ;
87 -> 88 ;
89 [label="entropy = 0.0\nsamples = 1\nvalue = [1, 0]\nclass = 0", fillcolor="#e58139"] ;
88 -> 89 ;
90 [label="entropy = 0.0\nsamples = 1\nvalue = [0, 1]\nclass = 1", fillcolor="#399de5"] ;
88 -> 90 ;
91 [label="entropy = 0.0\nsamples = 10\nvalue = [10, 0]\nclass = 0", fillcolor="#e58139"] ;
87 -> 91 ;
92 [label="entropy = 0.0\nsamples = 2\nvalue = [0, 2]\nclass = 1", fillcolor="#399de5"] ;
74 -> 92 ;
93 [label="entropy = 0.0\nsamples = 4\nvalue = [4, 0]\nclass = 0", fillcolor="#e58139"] ;
73 -> 93 ;
94 [label="NumberOfSuppliments <= 2.0\nentropy = 0.81\nsamples = 4\nvalue = [1, 3]\nclass = 1", fillcolor="#7bbeee"] ;
68 -> 94 ;
95 [label="entropy = 0.0\nsamples = 1\nvalue = [1, 0]\nclass = 0", fillcolor="#e58139"] ;
94 -> 95 ;
96 [label="entropy = 0.0\nsamples = 3\nvalue = [0, 3]\nclass = 1", fillcolor="#399de5"] ;
94 -> 96 ;
97 [label="entropy = 0.0\nsamples = 2\nvalue = [0, 2]\nclass = 1", fillcolor="#399de5"] ;
67 -> 97 ;
98 [label="Make <= 1.0\nentropy = 0.3\nsamples = 19\nvalue = [18, 1]\nclass = 0", fillcolor="#e68844"] ;
66 -> 98 ;
99 [label="WeekOfMonth <= 1.5\nentropy = 1.0\nsamples = 2\nvalue = [1, 1]\nclass = 0", fillcolor="#ffffff"] ;
98 -> 99 ;
100 [label="entropy = 0.0\nsamples = 1\nvalue = [1, 0]\nclass = 0", fillcolor="#e58139"] ;
99 -> 100 ;
101 [label="entropy = 0.0\nsamples = 1\nvalue = [0, 1]\nclass = 1", fillcolor="#399de5"] ;
99 -> 101 ;
102 [label="entropy = 0.0\nsamples = 17\nvalue = [17, 0]\nclass = 0", fillcolor="#e58139"] ;
98 -> 102 ;
103 [label="entropy = 0.0\nsamples = 14\nvalue = [14, 0]\nclass = 0", fillcolor="#e58139"] ;
65 -> 103 ;
104 [label="WeekOfMonth <= 3.5\nentropy = 0.9\nsamples = 104\nvalue = [71, 33]\nclass = 0", fillcolor="#f1bc95"] ;
64 -> 104 ;
105 [label="Sex <= 0.5\nentropy = 0.98\nsamples = 52\nvalue = [30, 22]\nclass = 0", fillcolor="#f8ddca"] ;
104 -> 105 ;
106 [label="entropy = 0.0\nsamples = 4\nvalue = [4, 0]\nclass = 0", fillcolor="#e58139"] ;
105 -> 106 ;
107 [label="MonthClaimed <= 3.5\nentropy = 0.99\nsamples = 48\nvalue = [26, 22]\nclass = 0", fillcolor="#fbece1"] ;
105 -> 107 ;
108 [label="VehiclePrice <= 3.0\nentropy = 0.92\nsamples = 12\nvalue = [4, 8]\nclass = 1", fillcolor="#9ccef2"] ;
107 -> 108 ;
109 [label="entropy = 0.0\nsamples = 6\nvalue = [0, 6]\nclass = 1", fillcolor="#399de5"] ;
108 -> 109 ;
110 [label="MaritalStatus <= 1.5\nentropy = 0.92\nsamples = 6\nvalue = [4, 2]\nclass = 0", fillcolor="#f2c09c"] ;
108 -> 110 ;
111 [label="entropy = 0.0\nsamples = 4\nvalue = [4, 0]\nclass = 0", fillcolor="#e58139"] ;
110 -> 111 ;
112 [label="entropy = 0.0\nsamples = 2\nvalue = [0, 2]\nclass = 1", fillcolor="#399de5"] ;
110 -> 112 ;
113 [label="Age <= 25.5\nentropy = 0.96\nsamples = 36\nvalue = [22, 14]\nclass = 0", fillcolor="#f6d1b7"] ;
107 -> 113 ;
114 [label="entropy = 0.0\nsamples = 4\nvalue = [4, 0]\nclass = 0", fillcolor="#e58139"] ;
113 -> 114 ;
115 [label="NumberOfSuppliments <= 1.5\nentropy = 0.99\nsamples = 32\nvalue = [18, 14]\nclass = 0", fillcolor="#f9e3d3"] ;
113 -> 115 ;
116 [label="Make <= 8.5\nentropy = 0.72\nsamples = 10\nvalue = [8, 2]\nclass = 0", fillcolor="#eca06a"] ;
115 -> 116 ;
117 [label="DayOfWeek <= 3.5\nentropy = 1.0\nsamples = 4\nvalue = [2, 2]\nclass = 0", fillcolor="#ffffff"] ;
116 -> 117 ;
118 [label="entropy = 0.0\nsamples = 2\nvalue = [0, 2]\nclass = 1", fillcolor="#399de5"] ;
117 -> 118 ;
119 [label="entropy = 0.0\nsamples = 2\nvalue = [2, 0]\nclass = 0", fillcolor="#e58139"] ;
117 -> 119 ;
120 [label="entropy = 0.0\nsamples = 6\nvalue = [6, 0]\nclass = 0", fillcolor="#e58139"] ;
116 -> 120 ;
121 [label="Year <= 1994.5\nentropy = 0.99\nsamples = 22\nvalue = [10, 12]\nclass = 1", fillcolor="#deeffb"] ;
115 -> 121 ;
122 [label="entropy = 0.0\nsamples = 3\nvalue = [0, 3]\nclass = 1", fillcolor="#399de5"] ;
121 -> 122 ;
123 [label="DayOfWeek <= 5.5\nentropy = 1.0\nsamples = 19\nvalue = [10, 9]\nclass = 0", fillcolor="#fcf2eb"] ;
121 -> 123 ;
124 [label="Age <= 57.0\nentropy = 0.98\nsamples = 17\nvalue = [10, 7]\nclass = 0", fillcolor="#f7d9c4"] ;
123 -> 124 ;
125 [label="DayOfWeek <= 1.5\nentropy = 1.0\nsamples = 15\nvalue = [8, 7]\nclass = 0", fillcolor="#fcefe6"] ;
124 -> 125 ;
126 [label="entropy = 0.0\nsamples = 2\nvalue = [0, 2]\nclass = 1", fillcolor="#399de5"] ;
125 -> 126 ;
127 [label="NumberOfSuppliments <= 2.5\nentropy = 0.96\nsamples = 13\nvalue = [8, 5]\nclass = 0", fillcolor="#f5d0b5"] ;
125 -> 127 ;
128 [label="entropy = 0.0\nsamples = 3\nvalue = [3, 0]\nclass = 0", fillcolor="#e58139"] ;
127 -> 128 ;
129 [label="Make <= 11.0\nentropy = 1.0\nsamples = 10\nvalue = [5, 5]\nclass = 0", fillcolor="#ffffff"] ;
127 -> 129 ;
130 [label="Age <= 28.0\nentropy = 0.86\nsamples = 7\nvalue = [5, 2]\nclass = 0", fillcolor="#efb388"] ;
129 -> 130 ;
131 [label="entropy = 0.0\nsamples = 1\nvalue = [0, 1]\nclass = 1", fillcolor="#399de5"] ;
130 -> 131 ;
132 [label="Month <= 5.5\nentropy = 0.65\nsamples = 6\nvalue = [5, 1]\nclass = 0", fillcolor="#ea9a61"] ;
130 -> 132 ;
133 [label="NumberOfCars <= 0.5\nentropy = 1.0\nsamples = 2\nvalue = [1, 1]\nclass = 0", fillcolor="#ffffff"] ;
132 -> 133 ;
134 [label="entropy = 0.0\nsamples = 1\nvalue = [0, 1]\nclass = 1", fillcolor="#399de5"] ;
133 -> 134 ;
135 [label="entropy = 0.0\nsamples = 1\nvalue = [1, 0]\nclass = 0", fillcolor="#e58139"] ;
133 -> 135 ;
136 [label="entropy = 0.0\nsamples = 4\nvalue = [4, 0]\nclass = 0", fillcolor="#e58139"] ;
132 -> 136 ;
137 [label="entropy = 0.0\nsamples = 3\nvalue = [0, 3]\nclass = 1", fillcolor="#399de5"] ;
129 -> 137 ;
138 [label="entropy = 0.0\nsamples = 2\nvalue = [2, 0]\nclass = 0", fillcolor="#e58139"] ;
124 -> 138 ;
139 [label="entropy = 0.0\nsamples = 2\nvalue = [0, 2]\nclass = 1", fillcolor="#399de5"] ;
123 -> 139 ;
140 [label="Month <= 3.5\nentropy = 0.74\nsamples = 52\nvalue = [41, 11]\nclass = 0", fillcolor="#eca36e"] ;
104 -> 140 ;
141 [label="Age <= 31.5\nentropy = 0.93\nsamples = 29\nvalue = [19, 10]\nclass = 0", fillcolor="#f3c3a1"] ;
140 -> 141 ;
142 [label="entropy = 0.0\nsamples = 8\nvalue = [8, 0]\nclass = 0", fillcolor="#e58139"] ;
141 -> 142 ;
143 [label="Make <= 5.5\nentropy = 1.0\nsamples = 21\nvalue = [11, 10]\nclass = 0", fillcolor="#fdf4ed"] ;
141 -> 143 ;
144 [label="entropy = 0.0\nsamples = 5\nvalue = [5, 0]\nclass = 0", fillcolor="#e58139"] ;
143 -> 144 ;
145 [label="Make <= 7.5\nentropy = 0.95\nsamples = 16\nvalue = [6, 10]\nclass = 1", fillcolor="#b0d8f5"] ;
143 -> 145 ;
146 [label="entropy = 0.0\nsamples = 5\nvalue = [0, 5]\nclass = 1", fillcolor="#399de5"] ;
145 -> 146 ;
147 [label="PastNumberOfClaims <= 0.5\nentropy = 0.99\nsamples = 11\nvalue = [6, 5]\nclass = 0", fillcolor="#fbeade"] ;
145 -> 147 ;
148 [label="entropy = 0.0\nsamples = 2\nvalue = [0, 2]\nclass = 1", fillcolor="#399de5"] ;
147 -> 148 ;
149 [label="Age <= 62.0\nentropy = 0.92\nsamples = 9\nvalue = [6, 3]\nclass = 0", fillcolor="#f2c09c"] ;
147 -> 149 ;
150 [label="Age <= 44.5\nentropy = 0.81\nsamples = 8\nvalue = [6, 2]\nclass = 0", fillcolor="#eeab7b"] ;
149 -> 150 ;
151 [label="AgeOfPolicyHolder <= 4.5\nentropy = 1.0\nsamples = 4\nvalue = [2, 2]\nclass = 0", fillcolor="#ffffff"] ;
150 -> 151 ;
152 [label="entropy = 0.0\nsamples = 2\nvalue = [2, 0]\nclass = 0", fillcolor="#e58139"] ;
151 -> 152 ;
153 [label="entropy = 0.0\nsamples = 2\nvalue = [0, 2]\nclass = 1", fillcolor="#399de5"] ;
151 -> 153 ;
154 [label="entropy = 0.0\nsamples = 4\nvalue = [4, 0]\nclass = 0", fillcolor="#e58139"] ;
150 -> 154 ;
155 [label="entropy = 0.0\nsamples = 1\nvalue = [0, 1]\nclass = 1", fillcolor="#399de5"] ;
149 -> 155 ;
156 [label="Age <= 27.5\nentropy = 0.26\nsamples = 23\nvalue = [22, 1]\nclass = 0", fillcolor="#e68742"] ;
140 -> 156 ;
157 [label="Age <= 24.5\nentropy = 0.81\nsamples = 4\nvalue = [3, 1]\nclass = 0", fillcolor="#eeab7b"] ;
156 -> 157 ;
158 [label="entropy = 0.0\nsamples = 3\nvalue = [3, 0]\nclass = 0", fillcolor="#e58139"] ;
157 -> 158 ;
159 [label="entropy = 0.0\nsamples = 1\nvalue = [0, 1]\nclass = 1", fillcolor="#399de5"] ;
157 -> 159 ;
160 [label="entropy = 0.0\nsamples = 19\nvalue = [19, 0]\nclass = 0", fillcolor="#e58139"] ;
156 -> 160 ;
161 [label="entropy = 0.0\nsamples = 6\nvalue = [6, 0]\nclass = 0", fillcolor="#e58139"] ;
63 -> 161 ;
162 [label="Days_Policy_Accident <= 3.5\nentropy = 0.56\nsamples = 77\nvalue = [67, 10]\nclass = 0", fillcolor="#e99457"] ;
62 -> 162 ;
163 [label="Sex <= 0.5\nentropy = 0.49\nsamples = 75\nvalue = [67, 8]\nclass = 0", fillcolor="#e89051"] ;
162 -> 163 ;
164 [label="Age <= 41.0\nentropy = 0.78\nsamples = 13\nvalue = [10, 3]\nclass = 0", fillcolor="#eda774"] ;
163 -> 164 ;
165 [label="WeekOfMonth <= 2.5\nentropy = 0.99\nsamples = 7\nvalue = [4, 3]\nclass = 0", fillcolor="#f8e0ce"] ;
164 -> 165 ;
166 [label="WeekOfMonthClaimed <= 1.5\nentropy = 0.81\nsamples = 4\nvalue = [1, 3]\nclass = 1", fillcolor="#7bbeee"] ;
165 -> 166 ;
167 [label="entropy = 0.0\nsamples = 1\nvalue = [1, 0]\nclass = 0", fillcolor="#e58139"] ;
166 -> 167 ;
168 [label="entropy = 0.0\nsamples = 3\nvalue = [0, 3]\nclass = 1", fillcolor="#399de5"] ;
166 -> 168 ;
169 [label="entropy = 0.0\nsamples = 3\nvalue = [3, 0]\nclass = 0", fillcolor="#e58139"] ;
165 -> 169 ;
170 [label="entropy = 0.0\nsamples = 6\nvalue = [6, 0]\nclass = 0", fillcolor="#e58139"] ;
164 -> 170 ;
171 [label="NumberOfSuppliments <= 1.5\nentropy = 0.4\nsamples = 62\nvalue = [57, 5]\nclass = 0", fillcolor="#e78c4a"] ;
163 -> 171 ;
172 [label="entropy = 0.0\nsamples = 19\nvalue = [19, 0]\nclass = 0", fillcolor="#e58139"] ;
171 -> 172 ;
173 [label="VehiclePrice <= 2.5\nentropy = 0.52\nsamples = 43\nvalue = [38, 5]\nclass = 0", fillcolor="#e89253"] ;
171 -> 173 ;
174 [label="Age <= 64.5\nentropy = 0.26\nsamples = 23\nvalue = [22, 1]\nclass = 0", fillcolor="#e68742"] ;
173 -> 174 ;
175 [label="entropy = 0.0\nsamples = 21\nvalue = [21, 0]\nclass = 0", fillcolor="#e58139"] ;
174 -> 175 ;
176 [label="PastNumberOfClaims <= 2.5\nentropy = 1.0\nsamples = 2\nvalue = [1, 1]\nclass = 0", fillcolor="#ffffff"] ;
174 -> 176 ;
177 [label="entropy = 0.0\nsamples = 1\nvalue = [0, 1]\nclass = 1", fillcolor="#399de5"] ;
176 -> 177 ;
178 [label="entropy = 0.0\nsamples = 1\nvalue = [1, 0]\nclass = 0", fillcolor="#e58139"] ;
176 -> 178 ;
179 [label="WeekOfMonthClaimed <= 2.5\nentropy = 0.72\nsamples = 20\nvalue = [16, 4]\nclass = 0", fillcolor="#eca06a"] ;
173 -> 179 ;
180 [label="DayOfWeekClaimed <= 4.5\nentropy = 0.97\nsamples = 10\nvalue = [6, 4]\nclass = 0", fillcolor="#f6d5bd"] ;
179 -> 180 ;
181 [label="entropy = 0.0\nsamples = 3\nvalue = [0, 3]\nclass = 1", fillcolor="#399de5"] ;
180 -> 181 ;
182 [label="DayOfWeek <= 5.5\nentropy = 0.59\nsamples = 7\nvalue = [6, 1]\nclass = 0", fillcolor="#e9965a"] ;
180 -> 182 ;
183 [label="entropy = 0.0\nsamples = 6\nvalue = [6, 0]\nclass = 0", fillcolor="#e58139"] ;
182 -> 183 ;
184 [label="entropy = 0.0\nsamples = 1\nvalue = [0, 1]\nclass = 1", fillcolor="#399de5"] ;
182 -> 184 ;
185 [label="entropy = 0.0\nsamples = 10\nvalue = [10, 0]\nclass = 0", fillcolor="#e58139"] ;
179 -> 185 ;
186 [label="entropy = 0.0\nsamples = 2\nvalue = [0, 2]\nclass = 1", fillcolor="#399de5"] ;
162 -> 186 ;
187 [label="PolicyType <= 2.5\nentropy = 0.6\nsamples = 574\nvalue = [491, 83]\nclass = 0", fillcolor="#e9965a"] ;
3 -> 187 ;
188 [label="Year <= 1994.5\nentropy = 0.55\nsamples = 540\nvalue = [472, 68]\nclass = 0", fillcolor="#e99356"] ;
187 -> 188 ;
189 [label="MonthClaimed <= 1.5\nentropy = 0.37\nsamples = 242\nvalue = [225, 17]\nclass = 0", fillcolor="#e78b48"] ;
188 -> 189 ;
190 [label="Make <= 1.0\nentropy = 0.6\nsamples = 104\nvalue = [89, 15]\nclass = 0", fillcolor="#e9965a"] ;
189 -> 190 ;
191 [label="Days_Policy_Accident <= 2.0\nentropy = 0.81\nsamples = 4\nvalue = [1, 3]\nclass = 1", fillcolor="#7bbeee"] ;
190 -> 191 ;
192 [label="entropy = 0.0\nsamples = 1\nvalue = [1, 0]\nclass = 0", fillcolor="#e58139"] ;
191 -> 192 ;
193 [label="entropy = 0.0\nsamples = 3\nvalue = [0, 3]\nclass = 1", fillcolor="#399de5"] ;
191 -> 193 ;
194 [label="DriverRating <= 3.5\nentropy = 0.53\nsamples = 100\nvalue = [88, 12]\nclass = 0", fillcolor="#e99254"] ;
190 -> 194 ;
195 [label="NumberOfCars <= 0.5\nentropy = 0.62\nsamples = 78\nvalue = [66, 12]\nclass = 0", fillcolor="#ea985d"] ;
194 -> 195 ;
196 [label="NumberOfSuppliments <= 2.5\nentropy = 0.56\nsamples = 76\nvalue = [66, 10]\nclass = 0", fillcolor="#e99457"] ;
195 -> 196 ;
197 [label="WeekOfMonth <= 3.5\nentropy = 0.28\nsamples = 41\nvalue = [39, 2]\nclass = 0", fillcolor="#e68743"] ;
196 -> 197 ;
198 [label="entropy = 0.0\nsamples = 29\nvalue = [29, 0]\nclass = 0", fillcolor="#e58139"] ;
197 -> 198 ;
199 [label="DriverRating <= 1.5\nentropy = 0.65\nsamples = 12\nvalue = [10, 2]\nclass = 0", fillcolor="#ea9a61"] ;
197 -> 199 ;
200 [label="entropy = 0.0\nsamples = 2\nvalue = [0, 2]\nclass = 1", fillcolor="#399de5"] ;
199 -> 200 ;
201 [label="entropy = 0.0\nsamples = 10\nvalue = [10, 0]\nclass = 0", fillcolor="#e58139"] ;
199 -> 201 ;
202 [label="WeekOfMonth <= 1.5\nentropy = 0.78\nsamples = 35\nvalue = [27, 8]\nclass = 0", fillcolor="#eda674"] ;
196 -> 202 ;
203 [label="Make <= 3.5\nentropy = 0.81\nsamples = 4\nvalue = [1, 3]\nclass = 1", fillcolor="#7bbeee"] ;
202 -> 203 ;
204 [label="entropy = 0.0\nsamples = 1\nvalue = [1, 0]\nclass = 0", fillcolor="#e58139"] ;
203 -> 204 ;
205 [label="entropy = 0.0\nsamples = 3\nvalue = [0, 3]\nclass = 1", fillcolor="#399de5"] ;
203 -> 205 ;
206 [label="Age <= 34.5\nentropy = 0.64\nsamples = 31\nvalue = [26, 5]\nclass = 0", fillcolor="#ea995f"] ;
202 -> 206 ;
207 [label="entropy = 0.0\nsamples = 11\nvalue = [11, 0]\nclass = 0", fillcolor="#e58139"] ;
206 -> 207 ;
208 [label="AgeOfVehicle <= 5.5\nentropy = 0.81\nsamples = 20\nvalue = [15, 5]\nclass = 0", fillcolor="#eeab7b"] ;
206 -> 208 ;
209 [label="AccidentArea <= 0.5\nentropy = 0.96\nsamples = 13\nvalue = [8, 5]\nclass = 0", fillcolor="#f5d0b5"] ;
208 -> 209 ;
210 [label="entropy = 0.0\nsamples = 2\nvalue = [0, 2]\nclass = 1", fillcolor="#399de5"] ;
209 -> 210 ;
211 [label="DayOfWeek <= 5.5\nentropy = 0.85\nsamples = 11\nvalue = [8, 3]\nclass = 0", fillcolor="#efb083"] ;
209 -> 211 ;
212 [label="AgeOfPolicyHolder <= 4.5\nentropy = 0.54\nsamples = 8\nvalue = [7, 1]\nclass = 0", fillcolor="#e99355"] ;
211 -> 212 ;
213 [label="entropy = 0.0\nsamples = 1\nvalue = [0, 1]\nclass = 1", fillcolor="#399de5"] ;
212 -> 213 ;
214 [label="entropy = 0.0\nsamples = 7\nvalue = [7, 0]\nclass = 0", fillcolor="#e58139"] ;
212 -> 214 ;
215 [label="Age <= 36.5\nentropy = 0.92\nsamples = 3\nvalue = [1, 2]\nclass = 1", fillcolor="#9ccef2"] ;
211 -> 215 ;
216 [label="entropy = 0.0\nsamples = 1\nvalue = [1, 0]\nclass = 0", fillcolor="#e58139"] ;
215 -> 216 ;
217 [label="entropy = 0.0\nsamples = 2\nvalue = [0, 2]\nclass = 1", fillcolor="#399de5"] ;
215 -> 217 ;
218 [label="entropy = 0.0\nsamples = 7\nvalue = [7, 0]\nclass = 0", fillcolor="#e58139"] ;
208 -> 218 ;
219 [label="entropy = 0.0\nsamples = 2\nvalue = [0, 2]\nclass = 1", fillcolor="#399de5"] ;
195 -> 219 ;
220 [label="entropy = 0.0\nsamples = 22\nvalue = [22, 0]\nclass = 0", fillcolor="#e58139"] ;
194 -> 220 ;
221 [label="AddressChange_Claim <= 2.5\nentropy = 0.11\nsamples = 138\nvalue = [136, 2]\nclass = 0", fillcolor="#e5833c"] ;
189 -> 221 ;
222 [label="Month <= 1.5\nentropy = 0.65\nsamples = 12\nvalue = [10, 2]\nclass = 0", fillcolor="#ea9a61"] ;
221 -> 222 ;
223 [label="Age <= 34.5\nentropy = 1.0\nsamples = 4\nvalue = [2, 2]\nclass = 0", fillcolor="#ffffff"] ;
222 -> 223 ;
224 [label="entropy = 0.0\nsamples = 2\nvalue = [2, 0]\nclass = 0", fillcolor="#e58139"] ;
223 -> 224 ;
225 [label="entropy = 0.0\nsamples = 2\nvalue = [0, 2]\nclass = 1", fillcolor="#399de5"] ;
223 -> 225 ;
226 [label="entropy = 0.0\nsamples = 8\nvalue = [8, 0]\nclass = 0", fillcolor="#e58139"] ;
222 -> 226 ;
227 [label="entropy = 0.0\nsamples = 126\nvalue = [126, 0]\nclass = 0", fillcolor="#e58139"] ;
221 -> 227 ;
228 [label="Age <= 24.5\nentropy = 0.66\nsamples = 298\nvalue = [247, 51]\nclass = 0", fillcolor="#ea9b62"] ;
188 -> 228 ;
229 [label="entropy = 0.0\nsamples = 19\nvalue = [19, 0]\nclass = 0", fillcolor="#e58139"] ;
228 -> 229 ;
230 [label="VehiclePrice <= 4.5\nentropy = 0.69\nsamples = 279\nvalue = [228, 51]\nclass = 0", fillcolor="#eb9d65"] ;
228 -> 230 ;
231 [label="VehiclePrice <= 0.5\nentropy = 0.67\nsamples = 271\nvalue = [224, 47]\nclass = 0", fillcolor="#ea9b63"] ;
230 -> 231 ;
232 [label="NumberOfSuppliments <= 1.5\nentropy = 0.73\nsamples = 180\nvalue = [143, 37]\nclass = 0", fillcolor="#eca26c"] ;
231 -> 232 ;
233 [label="Age <= 35.5\nentropy = 0.91\nsamples = 56\nvalue = [38, 18]\nclass = 0", fillcolor="#f1bd97"] ;
232 -> 233 ;
234 [label="Age <= 34.5\nentropy = 0.99\nsamples = 31\nvalue = [17, 14]\nclass = 0", fillcolor="#fae9dc"] ;
233 -> 234 ;
235 [label="Make <= 7.5\nentropy = 0.95\nsamples = 27\nvalue = [17, 10]\nclass = 0", fillcolor="#f4cbad"] ;
234 -> 235 ;
236 [label="entropy = 0.0\nsamples = 4\nvalue = [4, 0]\nclass = 0", fillcolor="#e58139"] ;
235 -> 236 ;
237 [label="NumberOfSuppliments <= 0.5\nentropy = 0.99\nsamples = 23\nvalue = [13, 10]\nclass = 0", fillcolor="#f9e2d1"] ;
235 -> 237 ;
238 [label="AgeOfVehicle <= 4.5\nentropy = 0.99\nsamples = 16\nvalue = [7, 9]\nclass = 1", fillcolor="#d3e9f9"] ;
237 -> 238 ;
239 [label="Make <= 15.0\nentropy = 0.76\nsamples = 9\nvalue = [2, 7]\nclass = 1", fillcolor="#72b9ec"] ;
238 -> 239 ;
240 [label="entropy = 0.0\nsamples = 5\nvalue = [0, 5]\nclass = 1", fillcolor="#399de5"] ;
239 -> 240 ;
241 [label="DayOfWeekClaimed <= 2.5\nentropy = 1.0\nsamples = 4\nvalue = [2, 2]\nclass = 0", fillcolor="#ffffff"] ;
239 -> 241 ;
242 [label="entropy = 0.0\nsamples = 1\nvalue = [1, 0]\nclass = 0", fillcolor="#e58139"] ;
241 -> 242 ;
243 [label="AccidentArea <= 0.5\nentropy = 0.92\nsamples = 3\nvalue = [1, 2]\nclass = 1", fillcolor="#9ccef2"] ;
241 -> 243 ;
244 [label="entropy = 0.0\nsamples = 1\nvalue = [1, 0]\nclass = 0", fillcolor="#e58139"] ;
243 -> 244 ;
245 [label="entropy = 0.0\nsamples = 2\nvalue = [0, 2]\nclass = 1", fillcolor="#399de5"] ;
243 -> 245 ;
246 [label="WeekOfMonthClaimed <= 1.5\nentropy = 0.86\nsamples = 7\nvalue = [5, 2]\nclass = 0", fillcolor="#efb388"] ;
238 -> 246 ;
247 [label="Age <= 30.0\nentropy = 0.92\nsamples = 3\nvalue = [1, 2]\nclass = 1", fillcolor="#9ccef2"] ;
246 -> 247 ;
248 [label="entropy = 0.0\nsamples = 2\nvalue = [0, 2]\nclass = 1", fillcolor="#399de5"] ;
247 -> 248 ;
249 [label="entropy = 0.0\nsamples = 1\nvalue = [1, 0]\nclass = 0", fillcolor="#e58139"] ;
247 -> 249 ;
250 [label="entropy = 0.0\nsamples = 4\nvalue = [4, 0]\nclass = 0", fillcolor="#e58139"] ;
246 -> 250 ;
251 [label="DayOfWeekClaimed <= 2.0\nentropy = 0.59\nsamples = 7\nvalue = [6, 1]\nclass = 0", fillcolor="#e9965a"] ;
237 -> 251 ;
252 [label="entropy = 0.0\nsamples = 1\nvalue = [0, 1]\nclass = 1", fillcolor="#399de5"] ;
251 -> 252 ;
253 [label="entropy = 0.0\nsamples = 6\nvalue = [6, 0]\nclass = 0", fillcolor="#e58139"] ;
251 -> 253 ;
254 [label="entropy = 0.0\nsamples = 4\nvalue = [0, 4]\nclass = 1", fillcolor="#399de5"] ;
234 -> 254 ;
255 [label="PastNumberOfClaims <= 1.5\nentropy = 0.63\nsamples = 25\nvalue = [21, 4]\nclass = 0", fillcolor="#ea995f"] ;
233 -> 255 ;
256 [label="Make <= 16.0\nentropy = 0.81\nsamples = 16\nvalue = [12, 4]\nclass = 0", fillcolor="#eeab7b"] ;
255 -> 256 ;
257 [label="DayOfWeek <= 2.5\nentropy = 0.59\nsamples = 14\nvalue = [12, 2]\nclass = 0", fillcolor="#e9965a"] ;
256 -> 257 ;
258 [label="DayOfWeek <= 1.5\nentropy = 0.97\nsamples = 5\nvalue = [3, 2]\nclass = 0", fillcolor="#f6d5bd"] ;
257 -> 258 ;
259 [label="entropy = 0.0\nsamples = 3\nvalue = [3, 0]\nclass = 0", fillcolor="#e58139"] ;
258 -> 259 ;
260 [label="entropy = 0.0\nsamples = 2\nvalue = [0, 2]\nclass = 1", fillcolor="#399de5"] ;
258 -> 260 ;
261 [label="entropy = 0.0\nsamples = 9\nvalue = [9, 0]\nclass = 0", fillcolor="#e58139"] ;
257 -> 261 ;
262 [label="entropy = 0.0\nsamples = 2\nvalue = [0, 2]\nclass = 1", fillcolor="#399de5"] ;
256 -> 262 ;
263 [label="entropy = 0.0\nsamples = 9\nvalue = [9, 0]\nclass = 0", fillcolor="#e58139"] ;
255 -> 263 ;
264 [label="PastNumberOfClaims <= 0.5\nentropy = 0.62\nsamples = 124\nvalue = [105, 19]\nclass = 0", fillcolor="#ea985d"] ;
232 -> 264 ;
265 [label="NumberOfCars <= 0.5\nentropy = 0.2\nsamples = 32\nvalue = [31, 1]\nclass = 0", fillcolor="#e6853f"] ;
264 -> 265 ;
266 [label="entropy = 0.0\nsamples = 30\nvalue = [30, 0]\nclass = 0", fillcolor="#e58139"] ;
265 -> 266 ;
267 [label="DayOfWeek <= 2.0\nentropy = 1.0\nsamples = 2\nvalue = [1, 1]\nclass = 0", fillcolor="#ffffff"] ;
265 -> 267 ;
268 [label="entropy = 0.0\nsamples = 1\nvalue = [0, 1]\nclass = 1", fillcolor="#399de5"] ;
267 -> 268 ;
269 [label="entropy = 0.0\nsamples = 1\nvalue = [1, 0]\nclass = 0", fillcolor="#e58139"] ;
267 -> 269 ;
270 [label="WeekOfMonth <= 4.5\nentropy = 0.71\nsamples = 92\nvalue = [74, 18]\nclass = 0", fillcolor="#eba069"] ;
264 -> 270 ;
271 [label="AddressChange_Claim <= 1.5\nentropy = 0.75\nsamples = 84\nvalue = [66, 18]\nclass = 0", fillcolor="#eca36f"] ;
270 -> 271 ;
272 [label="entropy = 0.0\nsamples = 1\nvalue = [0, 1]\nclass = 1", fillcolor="#399de5"] ;
271 -> 272 ;
273 [label="Days_Policy_Accident <= 3.5\nentropy = 0.73\nsamples = 83\nvalue = [66, 17]\nclass = 0", fillcolor="#eca16c"] ;
271 -> 273 ;
274 [label="NumberOfCars <= 0.5\nentropy = 0.71\nsamples = 82\nvalue = [66, 16]\nclass = 0", fillcolor="#eba069"] ;
273 -> 274 ;
275 [label="AccidentArea <= 0.5\nentropy = 0.75\nsamples = 75\nvalue = [59, 16]\nclass = 0", fillcolor="#eca36f"] ;
274 -> 275 ;
276 [label="AgeOfPolicyHolder <= 5.5\nentropy = 0.96\nsamples = 13\nvalue = [8, 5]\nclass = 0", fillcolor="#f5d0b5"] ;
275 -> 276 ;
277 [label="WeekOfMonth <= 2.5\nentropy = 0.85\nsamples = 11\nvalue = [8, 3]\nclass = 0", fillcolor="#efb083"] ;
276 -> 277 ;
278 [label="entropy = 0.0\nsamples = 5\nvalue = [5, 0]\nclass = 0", fillcolor="#e58139"] ;
277 -> 278 ;
279 [label="AgeOfPolicyHolder <= 4.5\nentropy = 1.0\nsamples = 6\nvalue = [3, 3]\nclass = 0", fillcolor="#ffffff"] ;
277 -> 279 ;
280 [label="AgeOfVehicle <= 3.5\nentropy = 0.81\nsamples = 4\nvalue = [1, 3]\nclass = 1", fillcolor="#7bbeee"] ;
279 -> 280 ;
281 [label="entropy = 0.0\nsamples = 1\nvalue = [1, 0]\nclass = 0", fillcolor="#e58139"] ;
280 -> 281 ;
282 [label="entropy = 0.0\nsamples = 3\nvalue = [0, 3]\nclass = 1", fillcolor="#399de5"] ;
280 -> 282 ;
283 [label="entropy = 0.0\nsamples = 2\nvalue = [2, 0]\nclass = 0", fillcolor="#e58139"] ;
279 -> 283 ;
284 [label="entropy = 0.0\nsamples = 2\nvalue = [0, 2]\nclass = 1", fillcolor="#399de5"] ;
276 -> 284 ;
285 [label="Age <= 49.5\nentropy = 0.67\nsamples = 62\nvalue = [51, 11]\nclass = 0", fillcolor="#eb9c64"] ;
275 -> 285 ;
286 [label="AgeOfPolicyHolder <= 5.5\nentropy = 0.76\nsamples = 45\nvalue = [35, 10]\nclass = 0", fillcolor="#eca572"] ;
285 -> 286 ;
287 [label="DriverRating <= 2.5\nentropy = 0.66\nsamples = 41\nvalue = [34, 7]\nclass = 0", fillcolor="#ea9b62"] ;
286 -> 287 ;
288 [label="Make <= 15.0\nentropy = 0.41\nsamples = 24\nvalue = [22, 2]\nclass = 0", fillcolor="#e78c4b"] ;
287 -> 288 ;
289 [label="entropy = 0.0\nsamples = 16\nvalue = [16, 0]\nclass = 0", fillcolor="#e58139"] ;
288 -> 289 ;
290 [label="MonthClaimed <= 3.5\nentropy = 0.81\nsamples = 8\nvalue = [6, 2]\nclass = 0", fillcolor="#eeab7b"] ;
288 -> 290 ;
291 [label="NumberOfSuppliments <= 2.5\nentropy = 1.0\nsamples = 4\nvalue = [2, 2]\nclass = 0", fillcolor="#ffffff"] ;
290 -> 291 ;
292 [label="entropy = 0.0\nsamples = 2\nvalue = [2, 0]\nclass = 0", fillcolor="#e58139"] ;
291 -> 292 ;
293 [label="entropy = 0.0\nsamples = 2\nvalue = [0, 2]\nclass = 1", fillcolor="#399de5"] ;
291 -> 293 ;
294 [label="entropy = 0.0\nsamples = 4\nvalue = [4, 0]\nclass = 0", fillcolor="#e58139"] ;
290 -> 294 ;
295 [label="Month <= 5.5\nentropy = 0.87\nsamples = 17\nvalue = [12, 5]\nclass = 0", fillcolor="#f0b58b"] ;
287 -> 295 ;
296 [label="WeekOfMonth <= 1.5\nentropy = 0.44\nsamples = 11\nvalue = [10, 1]\nclass = 0", fillcolor="#e88e4d"] ;
295 -> 296 ;
297 [label="entropy = 0.0\nsamples = 1\nvalue = [0, 1]\nclass = 1", fillcolor="#399de5"] ;
296 -> 297 ;
298 [label="entropy = 0.0\nsamples = 10\nvalue = [10, 0]\nclass = 0", fillcolor="#e58139"] ;
296 -> 298 ;
299 [label="DayOfWeek <= 2.5\nentropy = 0.92\nsamples = 6\nvalue = [2, 4]\nclass = 1", fillcolor="#9ccef2"] ;
295 -> 299 ;
300 [label="entropy = 0.0\nsamples = 3\nvalue = [0, 3]\nclass = 1", fillcolor="#399de5"] ;
299 -> 300 ;
301 [label="DriverRating <= 3.5\nentropy = 0.92\nsamples = 3\nvalue = [2, 1]\nclass = 0", fillcolor="#f2c09c"] ;
299 -> 301 ;
302 [label="entropy = 0.0\nsamples = 1\nvalue = [0, 1]\nclass = 1", fillcolor="#399de5"] ;
301 -> 302 ;
303 [label="entropy = 0.0\nsamples = 2\nvalue = [2, 0]\nclass = 0", fillcolor="#e58139"] ;
301 -> 303 ;
304 [label="DayOfWeek <= 1.5\nentropy = 0.81\nsamples = 4\nvalue = [1, 3]\nclass = 1", fillcolor="#7bbeee"] ;
286 -> 304 ;
305 [label="entropy = 0.0\nsamples = 1\nvalue = [1, 0]\nclass = 0", fillcolor="#e58139"] ;
304 -> 305 ;
306 [label="entropy = 0.0\nsamples = 3\nvalue = [0, 3]\nclass = 1", fillcolor="#399de5"] ;
304 -> 306 ;
307 [label="Month <= 5.5\nentropy = 0.32\nsamples = 17\nvalue = [16, 1]\nclass = 0", fillcolor="#e78945"] ;
285 -> 307 ;
308 [label="entropy = 0.0\nsamples = 13\nvalue = [13, 0]\nclass = 0", fillcolor="#e58139"] ;
307 -> 308 ;
309 [label="WeekOfMonth <= 3.0\nentropy = 0.81\nsamples = 4\nvalue = [3, 1]\nclass = 0", fillcolor="#eeab7b"] ;
307 -> 309 ;
310 [label="entropy = 0.0\nsamples = 3\nvalue = [3, 0]\nclass = 0", fillcolor="#e58139"] ;
309 -> 310 ;
311 [label="entropy = 0.0\nsamples = 1\nvalue = [0, 1]\nclass = 1", fillcolor="#399de5"] ;
309 -> 311 ;
312 [label="entropy = 0.0\nsamples = 7\nvalue = [7, 0]\nclass = 0", fillcolor="#e58139"] ;
274 -> 312 ;
313 [label="entropy = 0.0\nsamples = 1\nvalue = [0, 1]\nclass = 1", fillcolor="#399de5"] ;
273 -> 313 ;
314 [label="entropy = 0.0\nsamples = 8\nvalue = [8, 0]\nclass = 0", fillcolor="#e58139"] ;
270 -> 314 ;
315 [label="MaritalStatus <= 1.5\nentropy = 0.5\nsamples = 91\nvalue = [81, 10]\nclass = 0", fillcolor="#e89151"] ;
231 -> 315 ;
316 [label="NumberOfSuppliments <= 2.5\nentropy = 0.58\nsamples = 72\nvalue = [62, 10]\nclass = 0", fillcolor="#e99559"] ;
315 -> 316 ;
317 [label="WeekOfMonth <= 2.5\nentropy = 0.37\nsamples = 43\nvalue = [40, 3]\nclass = 0", fillcolor="#e78a48"] ;
316 -> 317 ;
318 [label="MonthClaimed <= 3.5\nentropy = 0.56\nsamples = 23\nvalue = [20, 3]\nclass = 0", fillcolor="#e99457"] ;
317 -> 318 ;
319 [label="entropy = 0.0\nsamples = 11\nvalue = [11, 0]\nclass = 0", fillcolor="#e58139"] ;
318 -> 319 ;
320 [label="Month <= 5.5\nentropy = 0.81\nsamples = 12\nvalue = [9, 3]\nclass = 0", fillcolor="#eeab7b"] ;
318 -> 320 ;
321 [label="AgeOfVehicle <= 5.5\nentropy = 1.0\nsamples = 6\nvalue = [3, 3]\nclass = 0", fillcolor="#ffffff"] ;
320 -> 321 ;
322 [label="Make <= 11.0\nentropy = 0.81\nsamples = 4\nvalue = [3, 1]\nclass = 0", fillcolor="#eeab7b"] ;
321 -> 322 ;
323 [label="entropy = 0.0\nsamples = 3\nvalue = [3, 0]\nclass = 0", fillcolor="#e58139"] ;
322 -> 323 ;
324 [label="entropy = 0.0\nsamples = 1\nvalue = [0, 1]\nclass = 1", fillcolor="#399de5"] ;
322 -> 324 ;
325 [label="entropy = 0.0\nsamples = 2\nvalue = [0, 2]\nclass = 1", fillcolor="#399de5"] ;
321 -> 325 ;
326 [label="entropy = 0.0\nsamples = 6\nvalue = [6, 0]\nclass = 0", fillcolor="#e58139"] ;
320 -> 326 ;
327 [label="entropy = 0.0\nsamples = 20\nvalue = [20, 0]\nclass = 0", fillcolor="#e58139"] ;
317 -> 327 ;
328 [label="Make <= 9.5\nentropy = 0.8\nsamples = 29\nvalue = [22, 7]\nclass = 0", fillcolor="#eda978"] ;
316 -> 328 ;
329 [label="Age <= 29.5\nentropy = 0.95\nsamples = 19\nvalue = [12, 7]\nclass = 0", fillcolor="#f4caac"] ;
328 -> 329 ;
330 [label="Month <= 5.5\nentropy = 0.81\nsamples = 4\nvalue = [1, 3]\nclass = 1", fillcolor="#7bbeee"] ;
329 -> 330 ;
331 [label="entropy = 0.0\nsamples = 3\nvalue = [0, 3]\nclass = 1", fillcolor="#399de5"] ;
330 -> 331 ;
332 [label="entropy = 0.0\nsamples = 1\nvalue = [1, 0]\nclass = 0", fillcolor="#e58139"] ;
330 -> 332 ;
333 [label="PastNumberOfClaims <= 1.5\nentropy = 0.84\nsamples = 15\nvalue = [11, 4]\nclass = 0", fillcolor="#eeaf81"] ;
329 -> 333 ;
334 [label="DayOfWeek <= 1.5\nentropy = 0.47\nsamples = 10\nvalue = [9, 1]\nclass = 0", fillcolor="#e88f4f"] ;
333 -> 334 ;
335 [label="Age <= 33.5\nentropy = 1.0\nsamples = 2\nvalue = [1, 1]\nclass = 0", fillcolor="#ffffff"] ;
334 -> 335 ;
336 [label="entropy = 0.0\nsamples = 1\nvalue = [1, 0]\nclass = 0", fillcolor="#e58139"] ;
335 -> 336 ;
337 [label="entropy = 0.0\nsamples = 1\nvalue = [0, 1]\nclass = 1", fillcolor="#399de5"] ;
335 -> 337 ;
338 [label="entropy = 0.0\nsamples = 8\nvalue = [8, 0]\nclass = 0", fillcolor="#e58139"] ;
334 -> 338 ;
339 [label="AgeOfPolicyHolder <= 5.5\nentropy = 0.97\nsamples = 5\nvalue = [2, 3]\nclass = 1", fillcolor="#bddef6"] ;
333 -> 339 ;
340 [label="entropy = 0.0\nsamples = 2\nvalue = [2, 0]\nclass = 0", fillcolor="#e58139"] ;
339 -> 340 ;
341 [label="entropy = 0.0\nsamples = 3\nvalue = [0, 3]\nclass = 1", fillcolor="#399de5"] ;
339 -> 341 ;
342 [label="entropy = 0.0\nsamples = 10\nvalue = [10, 0]\nclass = 0", fillcolor="#e58139"] ;
328 -> 342 ;
343 [label="entropy = 0.0\nsamples = 19\nvalue = [19, 0]\nclass = 0", fillcolor="#e58139"] ;
315 -> 343 ;
344 [label="DayOfWeekClaimed <= 2.5\nentropy = 1.0\nsamples = 8\nvalue = [4, 4]\nclass = 0", fillcolor="#ffffff"] ;
230 -> 344 ;
345 [label="entropy = 0.0\nsamples = 3\nvalue = [3, 0]\nclass = 0", fillcolor="#e58139"] ;
344 -> 345 ;
346 [label="NumberOfSuppliments <= 0.5\nentropy = 0.72\nsamples = 5\nvalue = [1, 4]\nclass = 1", fillcolor="#6ab6ec"] ;
344 -> 346 ;
347 [label="entropy = 0.0\nsamples = 1\nvalue = [1, 0]\nclass = 0", fillcolor="#e58139"] ;
346 -> 347 ;
348 [label="entropy = 0.0\nsamples = 4\nvalue = [0, 4]\nclass = 1", fillcolor="#399de5"] ;
346 -> 348 ;
349 [label="Month <= 2.5\nentropy = 0.99\nsamples = 34\nvalue = [19, 15]\nclass = 0", fillcolor="#fae4d5"] ;
187 -> 349 ;
350 [label="WeekOfMonth <= 3.5\nentropy = 0.62\nsamples = 13\nvalue = [11, 2]\nclass = 0", fillcolor="#ea985d"] ;
349 -> 350 ;
351 [label="entropy = 0.0\nsamples = 8\nvalue = [8, 0]\nclass = 0", fillcolor="#e58139"] ;
350 -> 351 ;
352 [label="MonthClaimed <= 7.5\nentropy = 0.97\nsamples = 5\nvalue = [3, 2]\nclass = 0", fillcolor="#f6d5bd"] ;
350 -> 352 ;
353 [label="WitnessPresent <= 0.5\nentropy = 0.92\nsamples = 3\nvalue = [1, 2]\nclass = 1", fillcolor="#9ccef2"] ;
352 -> 353 ;
354 [label="entropy = 0.0\nsamples = 2\nvalue = [0, 2]\nclass = 1", fillcolor="#399de5"] ;
353 -> 354 ;
355 [label="entropy = 0.0\nsamples = 1\nvalue = [1, 0]\nclass = 0", fillcolor="#e58139"] ;
353 -> 355 ;
356 [label="entropy = 0.0\nsamples = 2\nvalue = [2, 0]\nclass = 0", fillcolor="#e58139"] ;
352 -> 356 ;
357 [label="Month <= 3.5\nentropy = 0.96\nsamples = 21\nvalue = [8, 13]\nclass = 1", fillcolor="#b3d9f5"] ;
349 -> 357 ;
358 [label="entropy = 0.0\nsamples = 5\nvalue = [0, 5]\nclass = 1", fillcolor="#399de5"] ;
357 -> 358 ;
359 [label="Age <= 49.0\nentropy = 1.0\nsamples = 16\nvalue = [8, 8]\nclass = 0", fillcolor="#ffffff"] ;
357 -> 359 ;
360 [label="NumberOfSuppliments <= 1.0\nentropy = 0.96\nsamples = 13\nvalue = [5, 8]\nclass = 1", fillcolor="#b5daf5"] ;
359 -> 360 ;
361 [label="entropy = 0.0\nsamples = 2\nvalue = [2, 0]\nclass = 0", fillcolor="#e58139"] ;
360 -> 361 ;
362 [label="Age <= 30.0\nentropy = 0.85\nsamples = 11\nvalue = [3, 8]\nclass = 1", fillcolor="#83c2ef"] ;
360 -> 362 ;
363 [label="Age <= 24.5\nentropy = 0.92\nsamples = 3\nvalue = [2, 1]\nclass = 0", fillcolor="#f2c09c"] ;
362 -> 363 ;
364 [label="entropy = 0.0\nsamples = 1\nvalue = [0, 1]\nclass = 1", fillcolor="#399de5"] ;
363 -> 364 ;
365 [label="entropy = 0.0\nsamples = 2\nvalue = [2, 0]\nclass = 0", fillcolor="#e58139"] ;
363 -> 365 ;
366 [label="DayOfWeek <= 5.5\nentropy = 0.54\nsamples = 8\nvalue = [1, 7]\nclass = 1", fillcolor="#55abe9"] ;
362 -> 366 ;
367 [label="entropy = 0.0\nsamples = 7\nvalue = [0, 7]\nclass = 1", fillcolor="#399de5"] ;
366 -> 367 ;
368 [label="entropy = 0.0\nsamples = 1\nvalue = [1, 0]\nclass = 0", fillcolor="#e58139"] ;
366 -> 368 ;
369 [label="entropy = 0.0\nsamples = 3\nvalue = [3, 0]\nclass = 0", fillcolor="#e58139"] ;
359 -> 369 ;
370 [label="WeekOfMonth <= 1.5\nentropy = 0.15\nsamples = 605\nvalue = [592, 13]\nclass = 0", fillcolor="#e6843d"] ;
2 -> 370 ;
371 [label="Month <= 10.5\nentropy = 0.35\nsamples = 137\nvalue = [128, 9]\nclass = 0", fillcolor="#e78a47"] ;
370 -> 371 ;
372 [label="entropy = 0.0\nsamples = 103\nvalue = [103, 0]\nclass = 0", fillcolor="#e58139"] ;
371 -> 372 ;
373 [label="DriverRating <= 2.5\nentropy = 0.83\nsamples = 34\nvalue = [25, 9]\nclass = 0", fillcolor="#eeae80"] ;
371 -> 373 ;
374 [label="DayOfWeekClaimed <= 0.5\nentropy = 0.34\nsamples = 16\nvalue = [15, 1]\nclass = 0", fillcolor="#e78946"] ;
373 -> 374 ;
375 [label="entropy = 0.0\nsamples = 1\nvalue = [0, 1]\nclass = 1", fillcolor="#399de5"] ;
374 -> 375 ;
376 [label="entropy = 0.0\nsamples = 15\nvalue = [15, 0]\nclass = 0", fillcolor="#e58139"] ;
374 -> 376 ;
377 [label="NumberOfSuppliments <= 2.5\nentropy = 0.99\nsamples = 18\nvalue = [10, 8]\nclass = 0", fillcolor="#fae6d7"] ;
373 -> 377 ;
378 [label="DriverRating <= 3.5\nentropy = 0.72\nsamples = 10\nvalue = [8, 2]\nclass = 0", fillcolor="#eca06a"] ;
377 -> 378 ;
379 [label="DayOfWeekClaimed <= 2.5\nentropy = 1.0\nsamples = 4\nvalue = [2, 2]\nclass = 0", fillcolor="#ffffff"] ;
378 -> 379 ;
380 [label="entropy = 0.0\nsamples = 2\nvalue = [0, 2]\nclass = 1", fillcolor="#399de5"] ;
379 -> 380 ;
381 [label="entropy = 0.0\nsamples = 2\nvalue = [2, 0]\nclass = 0", fillcolor="#e58139"] ;
379 -> 381 ;
382 [label="entropy = 0.0\nsamples = 6\nvalue = [6, 0]\nclass = 0", fillcolor="#e58139"] ;
378 -> 382 ;
383 [label="WeekOfMonthClaimed <= 1.5\nentropy = 0.81\nsamples = 8\nvalue = [2, 6]\nclass = 1", fillcolor="#7bbeee"] ;
377 -> 383 ;
384 [label="PastNumberOfClaims <= 1.5\nentropy = 1.0\nsamples = 4\nvalue = [2, 2]\nclass = 0", fillcolor="#ffffff"] ;
383 -> 384 ;
385 [label="entropy = 0.0\nsamples = 2\nvalue = [2, 0]\nclass = 0", fillcolor="#e58139"] ;
384 -> 385 ;
386 [label="entropy = 0.0\nsamples = 2\nvalue = [0, 2]\nclass = 1", fillcolor="#399de5"] ;
384 -> 386 ;
387 [label="entropy = 0.0\nsamples = 4\nvalue = [0, 4]\nclass = 1", fillcolor="#399de5"] ;
383 -> 387 ;
388 [label="MonthClaimed <= 8.0\nentropy = 0.07\nsamples = 468\nvalue = [464, 4]\nclass = 0", fillcolor="#e5823b"] ;
370 -> 388 ;
389 [label="Age <= 62.0\nentropy = 0.37\nsamples = 56\nvalue = [52, 4]\nclass = 0", fillcolor="#e78b48"] ;
388 -> 389 ;
390 [label="MonthClaimed <= 3.0\nentropy = 0.23\nsamples = 53\nvalue = [51, 2]\nclass = 0", fillcolor="#e68641"] ;
389 -> 390 ;
391 [label="entropy = 0.0\nsamples = 38\nvalue = [38, 0]\nclass = 0", fillcolor="#e58139"] ;
390 -> 391 ;
392 [label="AgeOfPolicyHolder <= 5.5\nentropy = 0.57\nsamples = 15\nvalue = [13, 2]\nclass = 0", fillcolor="#e99457"] ;
390 -> 392 ;
393 [label="Make <= 11.0\nentropy = 0.81\nsamples = 8\nvalue = [6, 2]\nclass = 0", fillcolor="#eeab7b"] ;
392 -> 393 ;
394 [label="entropy = 0.0\nsamples = 5\nvalue = [5, 0]\nclass = 0", fillcolor="#e58139"] ;
393 -> 394 ;
395 [label="WeekOfMonth <= 2.5\nentropy = 0.92\nsamples = 3\nvalue = [1, 2]\nclass = 1", fillcolor="#9ccef2"] ;
393 -> 395 ;
396 [label="entropy = 0.0\nsamples = 1\nvalue = [1, 0]\nclass = 0", fillcolor="#e58139"] ;
395 -> 396 ;
397 [label="entropy = 0.0\nsamples = 2\nvalue = [0, 2]\nclass = 1", fillcolor="#399de5"] ;
395 -> 397 ;
398 [label="entropy = 0.0\nsamples = 7\nvalue = [7, 0]\nclass = 0", fillcolor="#e58139"] ;
392 -> 398 ;
399 [label="Make <= 2.5\nentropy = 0.92\nsamples = 3\nvalue = [1, 2]\nclass = 1", fillcolor="#9ccef2"] ;
389 -> 399 ;
400 [label="entropy = 0.0\nsamples = 1\nvalue = [1, 0]\nclass = 0", fillcolor="#e58139"] ;
399 -> 400 ;
401 [label="entropy = 0.0\nsamples = 2\nvalue = [0, 2]\nclass = 1", fillcolor="#399de5"] ;
399 -> 401 ;
402 [label="entropy = 0.0\nsamples = 412\nvalue = [412, 0]\nclass = 0", fillcolor="#e58139"] ;
388 -> 402 ;
403 [label="AddressChange_Claim <= 1.5\nentropy = 0.09\nsamples = 783\nvalue = [774, 9]\nclass = 0", fillcolor="#e5823b"] ;
1 -> 403 ;
404 [label="Deductible <= 450.0\nentropy = 0.94\nsamples = 25\nvalue = [16, 9]\nclass = 0", fillcolor="#f4c8a8"] ;
403 -> 404 ;
405 [label="entropy = 0.0\nsamples = 13\nvalue = [13, 0]\nclass = 0", fillcolor="#e58139"] ;
404 -> 405 ;
406 [label="AgeOfPolicyHolder <= 5.5\nentropy = 0.81\nsamples = 12\nvalue = [3, 9]\nclass = 1", fillcolor="#7bbeee"] ;
404 -> 406 ;
407 [label="entropy = 0.0\nsamples = 9\nvalue = [0, 9]\nclass = 1", fillcolor="#399de5"] ;
406 -> 407 ;
408 [label="entropy = 0.0\nsamples = 3\nvalue = [3, 0]\nclass = 0", fillcolor="#e58139"] ;
406 -> 408 ;
409 [label="entropy = 0.0\nsamples = 758\nvalue = [758, 0]\nclass = 0", fillcolor="#e58139"] ;
403 -> 409 ;
410 [label="DriverRating <= 2.5\nentropy = 0.05\nsamples = 1130\nvalue = [1124, 6]\nclass = 0", fillcolor="#e5823a"] ;
0 -> 410 [labeldistance=2.5, labelangle=-45, headlabel="False"] ;
411 [label="DayOfWeek <= 3.5\nentropy = 0.08\nsamples = 575\nvalue = [569, 6]\nclass = 0", fillcolor="#e5823b"] ;
410 -> 411 ;
412 [label="Month <= 7.5\nentropy = 0.13\nsamples = 321\nvalue = [315, 6]\nclass = 0", fillcolor="#e5833d"] ;
411 -> 412 ;
413 [label="Age <= 26.5\nentropy = 0.2\nsamples = 192\nvalue = [186, 6]\nclass = 0", fillcolor="#e6853f"] ;
412 -> 413 ;
414 [label="Make <= 5.5\nentropy = 0.53\nsamples = 25\nvalue = [22, 3]\nclass = 0", fillcolor="#e99254"] ;
413 -> 414 ;
415 [label="entropy = 0.0\nsamples = 2\nvalue = [0, 2]\nclass = 1", fillcolor="#399de5"] ;
414 -> 415 ;
416 [label="AccidentArea <= 0.5\nentropy = 0.26\nsamples = 23\nvalue = [22, 1]\nclass = 0", fillcolor="#e68742"] ;
414 -> 416 ;
417 [label="Make <= 8.5\nentropy = 1.0\nsamples = 2\nvalue = [1, 1]\nclass = 0", fillcolor="#ffffff"] ;
416 -> 417 ;
418 [label="entropy = 0.0\nsamples = 1\nvalue = [1, 0]\nclass = 0", fillcolor="#e58139"] ;
417 -> 418 ;
419 [label="entropy = 0.0\nsamples = 1\nvalue = [0, 1]\nclass = 1", fillcolor="#399de5"] ;
417 -> 419 ;
420 [label="entropy = 0.0\nsamples = 21\nvalue = [21, 0]\nclass = 0", fillcolor="#e58139"] ;
416 -> 420 ;
421 [label="DriverRating <= 1.5\nentropy = 0.13\nsamples = 167\nvalue = [164, 3]\nclass = 0", fillcolor="#e5833d"] ;
413 -> 421 ;
422 [label="entropy = 0.0\nsamples = 82\nvalue = [82, 0]\nclass = 0", fillcolor="#e58139"] ;
421 -> 422 ;
423 [label="Make <= 11.0\nentropy = 0.22\nsamples = 85\nvalue = [82, 3]\nclass = 0", fillcolor="#e68640"] ;
421 -> 423 ;
424 [label="entropy = 0.0\nsamples = 38\nvalue = [38, 0]\nclass = 0", fillcolor="#e58139"] ;
423 -> 424 ;
425 [label="AgeOfPolicyHolder <= 4.5\nentropy = 0.34\nsamples = 47\nvalue = [44, 3]\nclass = 0", fillcolor="#e78a46"] ;
423 -> 425 ;
426 [label="entropy = 0.0\nsamples = 18\nvalue = [18, 0]\nclass = 0", fillcolor="#e58139"] ;
425 -> 426 ;
427 [label="DayOfWeek <= 1.5\nentropy = 0.48\nsamples = 29\nvalue = [26, 3]\nclass = 0", fillcolor="#e89050"] ;
425 -> 427 ;
428 [label="Age <= 36.5\nentropy = 0.27\nsamples = 22\nvalue = [21, 1]\nclass = 0", fillcolor="#e68742"] ;
427 -> 428 ;
429 [label="DayOfWeekClaimed <= 2.5\nentropy = 1.0\nsamples = 2\nvalue = [1, 1]\nclass = 0", fillcolor="#ffffff"] ;
428 -> 429 ;
430 [label="entropy = 0.0\nsamples = 1\nvalue = [1, 0]\nclass = 0", fillcolor="#e58139"] ;
429 -> 430 ;
431 [label="entropy = 0.0\nsamples = 1\nvalue = [0, 1]\nclass = 1", fillcolor="#399de5"] ;
429 -> 431 ;
432 [label="entropy = 0.0\nsamples = 20\nvalue = [20, 0]\nclass = 0", fillcolor="#e58139"] ;
428 -> 432 ;
433 [label="WeekOfMonth <= 3.0\nentropy = 0.86\nsamples = 7\nvalue = [5, 2]\nclass = 0", fillcolor="#efb388"] ;
427 -> 433 ;
434 [label="DayOfWeekClaimed <= 2.5\nentropy = 0.65\nsamples = 6\nvalue = [5, 1]\nclass = 0", fillcolor="#ea9a61"] ;
433 -> 434 ;
435 [label="entropy = 0.0\nsamples = 4\nvalue = [4, 0]\nclass = 0", fillcolor="#e58139"] ;
434 -> 435 ;
436 [label="Month <= 4.0\nentropy = 1.0\nsamples = 2\nvalue = [1, 1]\nclass = 0", fillcolor="#ffffff"] ;
434 -> 436 ;
437 [label="entropy = 0.0\nsamples = 1\nvalue = [1, 0]\nclass = 0", fillcolor="#e58139"] ;
436 -> 437 ;
438 [label="entropy = 0.0\nsamples = 1\nvalue = [0, 1]\nclass = 1", fillcolor="#399de5"] ;
436 -> 438 ;
439 [label="entropy = 0.0\nsamples = 1\nvalue = [0, 1]\nclass = 1", fillcolor="#399de5"] ;
433 -> 439 ;
440 [label="entropy = 0.0\nsamples = 129\nvalue = [129, 0]\nclass = 0", fillcolor="#e58139"] ;
412 -> 440 ;
441 [label="entropy = 0.0\nsamples = 254\nvalue = [254, 0]\nclass = 0", fillcolor="#e58139"] ;
411 -> 441 ;
442 [label="entropy = 0.0\nsamples = 555\nvalue = [555, 0]\nclass = 0", fillcolor="#e58139"] ;
410 -> 442 ;
}