digraph Tree {
node [shape=box, style="filled, rounded", color="black", fontname=helvetica] ;
edge [fontname=helvetica] ;
0 [label="BasePolicy <= 1.5\nentropy = 0.27\nsamples = 3500\nvalue = [3337, 163]\nclass = 0", fillcolor="#e68743"] ;
1 [label="Fault <= 0.5\nentropy = 0.36\nsamples = 2276\nvalue = [2119, 157]\nclass = 0", fillcolor="#e78a48"] ;
0 -> 1 [labeldistance=2.5, labelangle=45, headlabel="True"] ;
2 [label="Month <= 6.5\nentropy = 0.47\nsamples = 1529\nvalue = [1377, 152]\nclass = 0", fillcolor="#e88f4f"] ;
1 -> 2 ;
3 [label="Month <= 4.5\nentropy = 0.23\nsamples = 784\nvalue = [754, 30]\nclass = 0", fillcolor="#e68641"] ;
2 -> 3 ;
4 [label="Month <= 2.5\nentropy = 0.35\nsamples = 455\nvalue = [425, 30]\nclass = 0", fillcolor="#e78a47"] ;
3 -> 4 ;
5 [label="WeekOfMonth <= 1.5\nentropy = 0.19\nsamples = 352\nvalue = [342, 10]\nclass = 0", fillcolor="#e6853f"] ;
4 -> 5 ;
6 [label="Month <= 0.5\nentropy = 0.57\nsamples = 74\nvalue = [64, 10]\nclass = 0", fillcolor="#e99558"] ;
5 -> 6 ;
7 [label="AccidentArea <= 0.5\nentropy = 0.74\nsamples = 48\nvalue = [38, 10]\nclass = 0", fillcolor="#eca26d"] ;
6 -> 7 ;
8 [label="entropy = 0.0\nsamples = 2\nvalue = [0, 2]\nclass = 1", fillcolor="#399de5"] ;
7 -> 8 ;
9 [label="BasePolicy <= 0.5\nentropy = 0.67\nsamples = 46\nvalue = [38, 8]\nclass = 0", fillcolor="#ea9c63"] ;
7 -> 9 ;
10 [label="DayOfWeek <= 2.5\nentropy = 0.9\nsamples = 19\nvalue = [13, 6]\nclass = 0", fillcolor="#f1bb94"] ;
9 -> 10 ;
11 [label="NumberOfSuppliments <= 2.5\nentropy = 0.92\nsamples = 6\nvalue = [2, 4]\nclass = 1", fillcolor="#9ccef2"] ;
10 -> 11 ;
12 [label="entropy = 0.0\nsamples = 4\nvalue = [0, 4]\nclass = 1", fillcolor="#399de5"] ;
11 -> 12 ;
13 [label="entropy = 0.0\nsamples = 2\nvalue = [2, 0]\nclass = 0", fillcolor="#e58139"] ;
11 -> 13 ;
14 [label="VehiclePrice <= 4.5\nentropy = 0.62\nsamples = 13\nvalue = [11, 2]\nclass = 0", fillcolor="#ea985d"] ;
10 -> 14 ;
15 [label="entropy = 0.0\nsamples = 10\nvalue = [10, 0]\nclass = 0", fillcolor="#e58139"] ;
14 -> 15 ;
16 [label="MaritalStatus <= 1.5\nentropy = 0.92\nsamples = 3\nvalue = [1, 2]\nclass = 1", fillcolor="#9ccef2"] ;
14 -> 16 ;
17 [label="entropy = 0.0\nsamples = 2\nvalue = [0, 2]\nclass = 1", fillcolor="#399de5"] ;
16 -> 17 ;
18 [label="entropy = 0.0\nsamples = 1\nvalue = [1, 0]\nclass = 0", fillcolor="#e58139"] ;
16 -> 18 ;
19 [label="VehicleCategory <= 0.5\nentropy = 0.38\nsamples = 27\nvalue = [25, 2]\nclass = 0", fillcolor="#e78b49"] ;
9 -> 19 ;
20 [label="DayOfWeekClaimed <= 1.5\nentropy = 0.24\nsamples = 26\nvalue = [25, 1]\nclass = 0", fillcolor="#e68641"] ;
19 -> 20 ;
21 [label="DriverRating <= 1.5\nentropy = 0.81\nsamples = 4\nvalue = [3, 1]\nclass = 0", fillcolor="#eeab7b"] ;
20 -> 21 ;
22 [label="entropy = 0.0\nsamples = 1\nvalue = [0, 1]\nclass = 1", fillcolor="#399de5"] ;
21 -> 22 ;
23 [label="entropy = 0.0\nsamples = 3\nvalue = [3, 0]\nclass = 0", fillcolor="#e58139"] ;
21 -> 23 ;
24 [label="entropy = 0.0\nsamples = 22\nvalue = [22, 0]\nclass = 0", fillcolor="#e58139"] ;
20 -> 24 ;
25 [label="entropy = 0.0\nsamples = 1\nvalue = [0, 1]\nclass = 1", fillcolor="#399de5"] ;
19 -> 25 ;
26 [label="entropy = 0.0\nsamples = 26\nvalue = [26, 0]\nclass = 0", fillcolor="#e58139"] ;
6 -> 26 ;
27 [label="entropy = 0.0\nsamples = 278\nvalue = [278, 0]\nclass = 0", fillcolor="#e58139"] ;
5 -> 27 ;
28 [label="DayOfWeek <= 5.5\nentropy = 0.71\nsamples = 103\nvalue = [83, 20]\nclass = 0", fillcolor="#eb9f69"] ;
4 -> 28 ;
29 [label="Make <= 10.0\nentropy = 0.77\nsamples = 88\nvalue = [68, 20]\nclass = 0", fillcolor="#eda673"] ;
28 -> 29 ;
30 [label="WeekOfMonthClaimed <= 1.5\nentropy = 0.92\nsamples = 45\nvalue = [30, 15]\nclass = 0", fillcolor="#f2c09c"] ;
29 -> 30 ;
31 [label="DayOfWeekClaimed <= 5.5\nentropy = 0.97\nsamples = 15\nvalue = [6, 9]\nclass = 1", fillcolor="#bddef6"] ;
30 -> 31 ;
32 [label="PolicyType <= 0.5\nentropy = 0.97\nsamples = 10\nvalue = [6, 4]\nclass = 0", fillcolor="#f6d5bd"] ;
31 -> 32 ;
33 [label="entropy = 0.0\nsamples = 2\nvalue = [0, 2]\nclass = 1", fillcolor="#399de5"] ;
32 -> 33 ;
34 [label="AgeOfVehicle <= 4.5\nentropy = 0.81\nsamples = 8\nvalue = [6, 2]\nclass = 0", fillcolor="#eeab7b"] ;
32 -> 34 ;
35 [label="entropy = 0.0\nsamples = 4\nvalue = [4, 0]\nclass = 0", fillcolor="#e58139"] ;
34 -> 35 ;
36 [label="DayOfWeek <= 0.5\nentropy = 1.0\nsamples = 4\nvalue = [2, 2]\nclass = 0", fillcolor="#ffffff"] ;
34 -> 36 ;
37 [label="entropy = 0.0\nsamples = 2\nvalue = [2, 0]\nclass = 0", fillcolor="#e58139"] ;
36 -> 37 ;
38 [label="entropy = 0.0\nsamples = 2\nvalue = [0, 2]\nclass = 1", fillcolor="#399de5"] ;
36 -> 38 ;
39 [label="entropy = 0.0\nsamples = 5\nvalue = [0, 5]\nclass = 1", fillcolor="#399de5"] ;
31 -> 39 ;
40 [label="DayOfWeekClaimed <= 0.5\nentropy = 0.72\nsamples = 30\nvalue = [24, 6]\nclass = 0", fillcolor="#eca06a"] ;
30 -> 40 ;
41 [label="entropy = 0.0\nsamples = 2\nvalue = [0, 2]\nclass = 1", fillcolor="#399de5"] ;
40 -> 41 ;
42 [label="WeekOfMonthClaimed <= 2.5\nentropy = 0.59\nsamples = 28\nvalue = [24, 4]\nclass = 0", fillcolor="#e9965a"] ;
40 -> 42 ;
43 [label="entropy = 0.0\nsamples = 11\nvalue = [11, 0]\nclass = 0", fillcolor="#e58139"] ;
42 -> 43 ;
44 [label="WeekOfMonth <= 3.5\nentropy = 0.79\nsamples = 17\nvalue = [13, 4]\nclass = 0", fillcolor="#eda876"] ;
42 -> 44 ;
45 [label="DayOfWeek <= 1.5\nentropy = 0.97\nsamples = 5\nvalue = [2, 3]\nclass = 1", fillcolor="#bddef6"] ;
44 -> 45 ;
46 [label="entropy = 0.0\nsamples = 2\nvalue = [2, 0]\nclass = 0", fillcolor="#e58139"] ;
45 -> 46 ;
47 [label="entropy = 0.0\nsamples = 3\nvalue = [0, 3]\nclass = 1", fillcolor="#399de5"] ;
45 -> 47 ;
48 [label="WeekOfMonthClaimed <= 3.5\nentropy = 0.41\nsamples = 12\nvalue = [11, 1]\nclass = 0", fillcolor="#e78c4b"] ;
44 -> 48 ;
49 [label="PolicyType <= 0.5\nentropy = 1.0\nsamples = 2\nvalue = [1, 1]\nclass = 0", fillcolor="#ffffff"] ;
48 -> 49 ;
50 [label="entropy = 0.0\nsamples = 1\nvalue = [0, 1]\nclass = 1", fillcolor="#399de5"] ;
49 -> 50 ;
51 [label="entropy = 0.0\nsamples = 1\nvalue = [1, 0]\nclass = 0", fillcolor="#e58139"] ;
49 -> 51 ;
52 [label="entropy = 0.0\nsamples = 10\nvalue = [10, 0]\nclass = 0", fillcolor="#e58139"] ;
48 -> 52 ;
53 [label="Age <= 41.5\nentropy = 0.52\nsamples = 43\nvalue = [38, 5]\nclass = 0", fillcolor="#e89253"] ;
29 -> 53 ;
54 [label="Age <= 40.5\nentropy = 0.76\nsamples = 23\nvalue = [18, 5]\nclass = 0", fillcolor="#eca470"] ;
53 -> 54 ;
55 [label="MonthClaimed <= 4.5\nentropy = 0.59\nsamples = 21\nvalue = [18, 3]\nclass = 0", fillcolor="#e9965a"] ;
54 -> 55 ;
56 [label="NumberOfSuppliments <= 2.5\nentropy = 0.92\nsamples = 9\nvalue = [6, 3]\nclass = 0", fillcolor="#f2c09c"] ;
55 -> 56 ;
57 [label="AccidentArea <= 0.5\nentropy = 1.0\nsamples = 6\nvalue = [3, 3]\nclass = 0", fillcolor="#ffffff"] ;
56 -> 57 ;
58 [label="entropy = 0.0\nsamples = 2\nvalue = [0, 2]\nclass = 1", fillcolor="#399de5"] ;
57 -> 58 ;
59 [label="PastNumberOfClaims <= 0.5\nentropy = 0.81\nsamples = 4\nvalue = [3, 1]\nclass = 0", fillcolor="#eeab7b"] ;
57 -> 59 ;
60 [label="entropy = 0.0\nsamples = 1\nvalue = [0, 1]\nclass = 1", fillcolor="#399de5"] ;
59 -> 60 ;
61 [label="entropy = 0.0\nsamples = 3\nvalue = [3, 0]\nclass = 0", fillcolor="#e58139"] ;
59 -> 61 ;
62 [label="entropy = 0.0\nsamples = 3\nvalue = [3, 0]\nclass = 0", fillcolor="#e58139"] ;
56 -> 62 ;
63 [label="entropy = 0.0\nsamples = 12\nvalue = [12, 0]\nclass = 0", fillcolor="#e58139"] ;
55 -> 63 ;
64 [label="entropy = 0.0\nsamples = 2\nvalue = [0, 2]\nclass = 1", fillcolor="#399de5"] ;
54 -> 64 ;
65 [label="entropy = 0.0\nsamples = 20\nvalue = [20, 0]\nclass = 0", fillcolor="#e58139"] ;
53 -> 65 ;
66 [label="entropy = 0.0\nsamples = 15\nvalue = [15, 0]\nclass = 0", fillcolor="#e58139"] ;
28 -> 66 ;
67 [label="entropy = 0.0\nsamples = 329\nvalue = [329, 0]\nclass = 0", fillcolor="#e58139"] ;
3 -> 67 ;
68 [label="DayOfWeekClaimed <= 5.5\nentropy = 0.64\nsamples = 745\nvalue = [623, 122]\nclass = 0", fillcolor="#ea9a60"] ;
2 -> 68 ;
69 [label="MonthClaimed <= 9.5\nentropy = 0.59\nsamples = 599\nvalue = [514, 85]\nclass = 0", fillcolor="#e9965a"] ;
68 -> 69 ;
70 [label="Month <= 7.5\nentropy = 0.45\nsamples = 316\nvalue = [286, 30]\nclass = 0", fillcolor="#e88e4e"] ;
69 -> 70 ;
71 [label="MonthClaimed <= 2.5\nentropy = 0.67\nsamples = 159\nvalue = [131, 28]\nclass = 0", fillcolor="#eb9c63"] ;
70 -> 71 ;
72 [label="VehiclePrice <= 4.5\nentropy = 0.21\nsamples = 30\nvalue = [29, 1]\nclass = 0", fillcolor="#e68540"] ;
71 -> 72 ;
73 [label="entropy = 0.0\nsamples = 24\nvalue = [24, 0]\nclass = 0", fillcolor="#e58139"] ;
72 -> 73 ;
74 [label="WeekOfMonthClaimed <= 1.5\nentropy = 0.65\nsamples = 6\nvalue = [5, 1]\nclass = 0", fillcolor="#ea9a61"] ;
72 -> 74 ;
75 [label="entropy = 0.0\nsamples = 5\nvalue = [5, 0]\nclass = 0", fillcolor="#e58139"] ;
74 -> 75 ;
76 [label="entropy = 0.0\nsamples = 1\nvalue = [0, 1]\nclass = 1", fillcolor="#399de5"] ;
74 -> 76 ;
77 [label="PastNumberOfClaims <= 0.5\nentropy = 0.74\nsamples = 129\nvalue = [102, 27]\nclass = 0", fillcolor="#eca26d"] ;
71 -> 77 ;
78 [label="PolicyType <= 2.5\nentropy = 0.38\nsamples = 41\nvalue = [38, 3]\nclass = 0", fillcolor="#e78b49"] ;
77 -> 78 ;
79 [label="VehiclePrice <= 0.5\nentropy = 0.29\nsamples = 40\nvalue = [38, 2]\nclass = 0", fillcolor="#e68843"] ;
78 -> 79 ;
80 [label="entropy = 0.0\nsamples = 23\nvalue = [23, 0]\nclass = 0", fillcolor="#e58139"] ;
79 -> 80 ;
81 [label="PolicyType <= 0.5\nentropy = 0.52\nsamples = 17\nvalue = [15, 2]\nclass = 0", fillcolor="#e89253"] ;
79 -> 81 ;
82 [label="entropy = 0.0\nsamples = 10\nvalue = [10, 0]\nclass = 0", fillcolor="#e58139"] ;
81 -> 82 ;
83 [label="DriverRating <= 2.5\nentropy = 0.86\nsamples = 7\nvalue = [5, 2]\nclass = 0", fillcolor="#efb388"] ;
81 -> 83 ;
84 [label="entropy = 0.0\nsamples = 4\nvalue = [4, 0]\nclass = 0", fillcolor="#e58139"] ;
83 -> 84 ;
85 [label="AgeOfPolicyHolder <= 4.5\nentropy = 0.92\nsamples = 3\nvalue = [1, 2]\nclass = 1", fillcolor="#9ccef2"] ;
83 -> 85 ;
86 [label="entropy = 0.0\nsamples = 1\nvalue = [1, 0]\nclass = 0", fillcolor="#e58139"] ;
85 -> 86 ;
87 [label="entropy = 0.0\nsamples = 2\nvalue = [0, 2]\nclass = 1", fillcolor="#399de5"] ;
85 -> 87 ;
88 [label="entropy = 0.0\nsamples = 1\nvalue = [0, 1]\nclass = 1", fillcolor="#399de5"] ;
78 -> 88 ;
89 [label="AgeOfPolicyHolder <= 4.5\nentropy = 0.85\nsamples = 88\nvalue = [64, 24]\nclass = 0", fillcolor="#efb083"] ;
77 -> 89 ;
90 [label="VehiclePrice <= 0.5\nentropy = 0.65\nsamples = 42\nvalue = [35, 7]\nclass = 0", fillcolor="#ea9a61"] ;
89 -> 90 ;
91 [label="Age <= 33.5\nentropy = 0.86\nsamples = 21\nvalue = [15, 6]\nclass = 0", fillcolor="#efb388"] ;
90 -> 91 ;
92 [label="Age <= 32.5\nentropy = 0.95\nsamples = 16\nvalue = [10, 6]\nclass = 0", fillcolor="#f5cdb0"] ;
91 -> 92 ;
93 [label="PoliceReportFiled <= 0.5\nentropy = 0.92\nsamples = 15\nvalue = [10, 5]\nclass = 0", fillcolor="#f2c09c"] ;
92 -> 93 ;
94 [label="AgeOfVehicle <= 4.5\nentropy = 0.86\nsamples = 14\nvalue = [10, 4]\nclass = 0", fillcolor="#efb388"] ;
93 -> 94 ;
95 [label="Make <= 7.5\nentropy = 0.78\nsamples = 13\nvalue = [10, 3]\nclass = 0", fillcolor="#eda774"] ;
94 -> 95 ;
96 [label="entropy = 0.0\nsamples = 6\nvalue = [6, 0]\nclass = 0", fillcolor="#e58139"] ;
95 -> 96 ;
97 [label="DayOfWeekClaimed <= 4.5\nentropy = 0.99\nsamples = 7\nvalue = [4, 3]\nclass = 0", fillcolor="#f8e0ce"] ;
95 -> 97 ;
98 [label="WeekOfMonthClaimed <= 1.5\nentropy = 0.72\nsamples = 5\nvalue = [4, 1]\nclass = 0", fillcolor="#eca06a"] ;
97 -> 98 ;
99 [label="entropy = 0.0\nsamples = 1\nvalue = [0, 1]\nclass = 1", fillcolor="#399de5"] ;
98 -> 99 ;
100 [label="entropy = 0.0\nsamples = 4\nvalue = [4, 0]\nclass = 0", fillcolor="#e58139"] ;
98 -> 100 ;
101 [label="entropy = 0.0\nsamples = 2\nvalue = [0, 2]\nclass = 1", fillcolor="#399de5"] ;
97 -> 101 ;
102 [label="entropy = 0.0\nsamples = 1\nvalue = [0, 1]\nclass = 1", fillcolor="#399de5"] ;
94 -> 102 ;
103 [label="entropy = 0.0\nsamples = 1\nvalue = [0, 1]\nclass = 1", fillcolor="#399de5"] ;
93 -> 103 ;
104 [label="entropy = 0.0\nsamples = 1\nvalue = [0, 1]\nclass = 1", fillcolor="#399de5"] ;
92 -> 104 ;
105 [label="entropy = 0.0\nsamples = 5\nvalue = [5, 0]\nclass = 0", fillcolor="#e58139"] ;
91 -> 105 ;
106 [label="NumberOfCars <= 0.5\nentropy = 0.28\nsamples = 21\nvalue = [20, 1]\nclass = 0", fillcolor="#e68743"] ;
90 -> 106 ;
107 [label="entropy = 0.0\nsamples = 20\nvalue = [20, 0]\nclass = 0", fillcolor="#e58139"] ;
106 -> 107 ;
108 [label="entropy = 0.0\nsamples = 1\nvalue = [0, 1]\nclass = 1", fillcolor="#399de5"] ;
106 -> 108 ;
109 [label="DriverRating <= 1.5\nentropy = 0.95\nsamples = 46\nvalue = [29, 17]\nclass = 0", fillcolor="#f4cbad"] ;
89 -> 109 ;
110 [label="NumberOfSuppliments <= 2.5\nentropy = 0.92\nsamples = 9\nvalue = [3, 6]\nclass = 1", fillcolor="#9ccef2"] ;
109 -> 110 ;
111 [label="entropy = 0.0\nsamples = 2\nvalue = [2, 0]\nclass = 0", fillcolor="#e58139"] ;
110 -> 111 ;
112 [label="Age <= 58.0\nentropy = 0.59\nsamples = 7\nvalue = [1, 6]\nclass = 1", fillcolor="#5aade9"] ;
110 -> 112 ;
113 [label="entropy = 0.0\nsamples = 6\nvalue = [0, 6]\nclass = 1", fillcolor="#399de5"] ;
112 -> 113 ;
114 [label="entropy = 0.0\nsamples = 1\nvalue = [1, 0]\nclass = 0", fillcolor="#e58139"] ;
112 -> 114 ;
115 [label="Sex <= 0.5\nentropy = 0.88\nsamples = 37\nvalue = [26, 11]\nclass = 0", fillcolor="#f0b68d"] ;
109 -> 115 ;
116 [label="entropy = 0.0\nsamples = 2\nvalue = [0, 2]\nclass = 1", fillcolor="#399de5"] ;
115 -> 116 ;
117 [label="Age <= 46.5\nentropy = 0.82\nsamples = 35\nvalue = [26, 9]\nclass = 0", fillcolor="#eead7e"] ;
115 -> 117 ;
118 [label="Age <= 38.0\nentropy = 0.97\nsamples = 20\nvalue = [12, 8]\nclass = 0", fillcolor="#f6d5bd"] ;
117 -> 118 ;
119 [label="entropy = 0.0\nsamples = 5\nvalue = [5, 0]\nclass = 0", fillcolor="#e58139"] ;
118 -> 119 ;
120 [label="AccidentArea <= 0.5\nentropy = 1.0\nsamples = 15\nvalue = [7, 8]\nclass = 1", fillcolor="#e6f3fc"] ;
118 -> 120 ;
121 [label="entropy = 0.0\nsamples = 3\nvalue = [3, 0]\nclass = 0", fillcolor="#e58139"] ;
120 -> 121 ;
122 [label="AgeOfVehicle <= 5.5\nentropy = 0.92\nsamples = 12\nvalue = [4, 8]\nclass = 1", fillcolor="#9ccef2"] ;
120 -> 122 ;
123 [label="DayOfWeek <= 3.5\nentropy = 0.99\nsamples = 9\nvalue = [4, 5]\nclass = 1", fillcolor="#d7ebfa"] ;
122 -> 123 ;
124 [label="VehiclePrice <= 3.5\nentropy = 0.99\nsamples = 7\nvalue = [4, 3]\nclass = 0", fillcolor="#f8e0ce"] ;
123 -> 124 ;
125 [label="DayOfWeek <= 0.5\nentropy = 0.72\nsamples = 5\nvalue = [4, 1]\nclass = 0", fillcolor="#eca06a"] ;
124 -> 125 ;
126 [label="DriverRating <= 2.5\nentropy = 1.0\nsamples = 2\nvalue = [1, 1]\nclass = 0", fillcolor="#ffffff"] ;
125 -> 126 ;
127 [label="entropy = 0.0\nsamples = 1\nvalue = [1, 0]\nclass = 0", fillcolor="#e58139"] ;
126 -> 127 ;
128 [label="entropy = 0.0\nsamples = 1\nvalue = [0, 1]\nclass = 1", fillcolor="#399de5"] ;
126 -> 128 ;
129 [label="entropy = 0.0\nsamples = 3\nvalue = [3, 0]\nclass = 0", fillcolor="#e58139"] ;
125 -> 129 ;
130 [label="entropy = 0.0\nsamples = 2\nvalue = [0, 2]\nclass = 1", fillcolor="#399de5"] ;
124 -> 130 ;
131 [label="entropy = 0.0\nsamples = 2\nvalue = [0, 2]\nclass = 1", fillcolor="#399de5"] ;
123 -> 131 ;
132 [label="entropy = 0.0\nsamples = 3\nvalue = [0, 3]\nclass = 1", fillcolor="#399de5"] ;
122 -> 132 ;
133 [label="PolicyType <= 4.0\nentropy = 0.35\nsamples = 15\nvalue = [14, 1]\nclass = 0", fillcolor="#e78a47"] ;
117 -> 133 ;
134 [label="entropy = 0.0\nsamples = 14\nvalue = [14, 0]\nclass = 0", fillcolor="#e58139"] ;
133 -> 134 ;
135 [label="entropy = 0.0\nsamples = 1\nvalue = [0, 1]\nclass = 1", fillcolor="#399de5"] ;
133 -> 135 ;
136 [label="Month <= 9.5\nentropy = 0.1\nsamples = 157\nvalue = [155, 2]\nclass = 0", fillcolor="#e5833c"] ;
70 -> 136 ;
137 [label="entropy = 0.0\nsamples = 140\nvalue = [140, 0]\nclass = 0", fillcolor="#e58139"] ;
136 -> 137 ;
138 [label="Make <= 5.5\nentropy = 0.52\nsamples = 17\nvalue = [15, 2]\nclass = 0", fillcolor="#e89253"] ;
136 -> 138 ;
139 [label="BasePolicy <= 0.5\nentropy = 1.0\nsamples = 4\nvalue = [2, 2]\nclass = 0", fillcolor="#ffffff"] ;
138 -> 139 ;
140 [label="entropy = 0.0\nsamples = 2\nvalue = [0, 2]\nclass = 1", fillcolor="#399de5"] ;
139 -> 140 ;
141 [label="entropy = 0.0\nsamples = 2\nvalue = [2, 0]\nclass = 0", fillcolor="#e58139"] ;
139 -> 141 ;
142 [label="entropy = 0.0\nsamples = 13\nvalue = [13, 0]\nclass = 0", fillcolor="#e58139"] ;
138 -> 142 ;
143 [label="PolicyType <= 0.5\nentropy = 0.71\nsamples = 283\nvalue = [228, 55]\nclass = 0", fillcolor="#eb9f69"] ;
69 -> 143 ;
144 [label="AgeOfPolicyHolder <= 2.5\nentropy = 0.9\nsamples = 93\nvalue = [64, 29]\nclass = 0", fillcolor="#f1ba93"] ;
143 -> 144 ;
145 [label="entropy = 0.0\nsamples = 2\nvalue = [0, 2]\nclass = 1", fillcolor="#399de5"] ;
144 -> 145 ;
146 [label="AccidentArea <= 0.5\nentropy = 0.88\nsamples = 91\nvalue = [64, 27]\nclass = 0", fillcolor="#f0b68d"] ;
144 -> 146 ;
147 [label="NumberOfSuppliments <= 1.0\nentropy = 0.95\nsamples = 8\nvalue = [3, 5]\nclass = 1", fillcolor="#b0d8f5"] ;
146 -> 147 ;
148 [label="entropy = 0.0\nsamples = 2\nvalue = [2, 0]\nclass = 0", fillcolor="#e58139"] ;
147 -> 148 ;
149 [label="Make <= 9.5\nentropy = 0.65\nsamples = 6\nvalue = [1, 5]\nclass = 1", fillcolor="#61b1ea"] ;
147 -> 149 ;
150 [label="Make <= 4.0\nentropy = 1.0\nsamples = 2\nvalue = [1, 1]\nclass = 0", fillcolor="#ffffff"] ;
149 -> 150 ;
151 [label="entropy = 0.0\nsamples = 1\nvalue = [0, 1]\nclass = 1", fillcolor="#399de5"] ;
150 -> 151 ;
152 [label="entropy = 0.0\nsamples = 1\nvalue = [1, 0]\nclass = 0", fillcolor="#e58139"] ;
150 -> 152 ;
153 [label="entropy = 0.0\nsamples = 4\nvalue = [0, 4]\nclass = 1", fillcolor="#399de5"] ;
149 -> 153 ;
154 [label="WeekOfMonth <= 2.5\nentropy = 0.83\nsamples = 83\nvalue = [61, 22]\nclass = 0", fillcolor="#eeae80"] ;
146 -> 154 ;
155 [label="Age <= 48.0\nentropy = 0.94\nsamples = 36\nvalue = [23, 13]\nclass = 0", fillcolor="#f4c8a9"] ;
154 -> 155 ;
156 [label="PastNumberOfClaims <= 0.5\nentropy = 0.78\nsamples = 26\nvalue = [20, 6]\nclass = 0", fillcolor="#eda774"] ;
155 -> 156 ;
157 [label="MonthClaimed <= 10.5\nentropy = 0.99\nsamples = 7\nvalue = [3, 4]\nclass = 1", fillcolor="#cee6f8"] ;
156 -> 157 ;
158 [label="MaritalStatus <= 1.5\nentropy = 0.81\nsamples = 4\nvalue = [3, 1]\nclass = 0", fillcolor="#eeab7b"] ;
157 -> 158 ;
159 [label="VehiclePrice <= 2.0\nentropy = 1.0\nsamples = 2\nvalue = [1, 1]\nclass = 0", fillcolor="#ffffff"] ;
158 -> 159 ;
160 [label="entropy = 0.0\nsamples = 1\nvalue = [0, 1]\nclass = 1", fillcolor="#399de5"] ;
159 -> 160 ;
161 [label="entropy = 0.0\nsamples = 1\nvalue = [1, 0]\nclass = 0", fillcolor="#e58139"] ;
159 -> 161 ;
162 [label="entropy = 0.0\nsamples = 2\nvalue = [2, 0]\nclass = 0", fillcolor="#e58139"] ;
158 -> 162 ;
163 [label="entropy = 0.0\nsamples = 3\nvalue = [0, 3]\nclass = 1", fillcolor="#399de5"] ;
157 -> 163 ;
164 [label="VehiclePrice <= 3.0\nentropy = 0.49\nsamples = 19\nvalue = [17, 2]\nclass = 0", fillcolor="#e89050"] ;
156 -> 164 ;
165 [label="entropy = 0.0\nsamples = 16\nvalue = [16, 0]\nclass = 0", fillcolor="#e58139"] ;
164 -> 165 ;
166 [label="DayOfWeekClaimed <= 4.5\nentropy = 0.92\nsamples = 3\nvalue = [1, 2]\nclass = 1", fillcolor="#9ccef2"] ;
164 -> 166 ;
167 [label="entropy = 0.0\nsamples = 2\nvalue = [0, 2]\nclass = 1", fillcolor="#399de5"] ;
166 -> 167 ;
168 [label="entropy = 0.0\nsamples = 1\nvalue = [1, 0]\nclass = 0", fillcolor="#e58139"] ;
166 -> 168 ;
169 [label="Make <= 11.5\nentropy = 0.88\nsamples = 10\nvalue = [3, 7]\nclass = 1", fillcolor="#8ec7f0"] ;
155 -> 169 ;
170 [label="entropy = 0.0\nsamples = 5\nvalue = [0, 5]\nclass = 1", fillcolor="#399de5"] ;
169 -> 170 ;
171 [label="Month <= 10.5\nentropy = 0.97\nsamples = 5\nvalue = [3, 2]\nclass = 0", fillcolor="#f6d5bd"] ;
169 -> 171 ;
172 [label="entropy = 0.0\nsamples = 2\nvalue = [0, 2]\nclass = 1", fillcolor="#399de5"] ;
171 -> 172 ;
173 [label="entropy = 0.0\nsamples = 3\nvalue = [3, 0]\nclass = 0", fillcolor="#e58139"] ;
171 -> 173 ;
174 [label="Days_Policy_Claim <= 1.0\nentropy = 0.7\nsamples = 47\nvalue = [38, 9]\nclass = 0", fillcolor="#eb9f68"] ;
154 -> 174 ;
175 [label="entropy = 0.0\nsamples = 1\nvalue = [0, 1]\nclass = 1", fillcolor="#399de5"] ;
174 -> 175 ;
176 [label="MaritalStatus <= 2.5\nentropy = 0.67\nsamples = 46\nvalue = [38, 8]\nclass = 0", fillcolor="#ea9c63"] ;
174 -> 176 ;
177 [label="Make <= 15.0\nentropy = 0.62\nsamples = 45\nvalue = [38, 7]\nclass = 0", fillcolor="#ea985d"] ;
176 -> 177 ;
178 [label="AgeOfPolicyHolder <= 6.5\nentropy = 0.75\nsamples = 33\nvalue = [26, 7]\nclass = 0", fillcolor="#eca36e"] ;
177 -> 178 ;
179 [label="Age <= 48.5\nentropy = 0.65\nsamples = 30\nvalue = [25, 5]\nclass = 0", fillcolor="#ea9a61"] ;
178 -> 179 ;
180 [label="Age <= 47.0\nentropy = 0.76\nsamples = 23\nvalue = [18, 5]\nclass = 0", fillcolor="#eca470"] ;
179 -> 180 ;
181 [label="Age <= 31.5\nentropy = 0.59\nsamples = 21\nvalue = [18, 3]\nclass = 0", fillcolor="#e9965a"] ;
180 -> 181 ;
182 [label="PastNumberOfClaims <= 2.5\nentropy = 0.92\nsamples = 9\nvalue = [6, 3]\nclass = 0", fillcolor="#f2c09c"] ;
181 -> 182 ;
183 [label="DayOfWeek <= 0.5\nentropy = 0.59\nsamples = 7\nvalue = [6, 1]\nclass = 0", fillcolor="#e9965a"] ;
182 -> 183 ;
184 [label="NumberOfSuppliments <= 2.5\nentropy = 1.0\nsamples = 2\nvalue = [1, 1]\nclass = 0", fillcolor="#ffffff"] ;
183 -> 184 ;
185 [label="entropy = 0.0\nsamples = 1\nvalue = [1, 0]\nclass = 0", fillcolor="#e58139"] ;
184 -> 185 ;
186 [label="entropy = 0.0\nsamples = 1\nvalue = [0, 1]\nclass = 1", fillcolor="#399de5"] ;
184 -> 186 ;
187 [label="entropy = 0.0\nsamples = 5\nvalue = [5, 0]\nclass = 0", fillcolor="#e58139"] ;
183 -> 187 ;
188 [label="entropy = 0.0\nsamples = 2\nvalue = [0, 2]\nclass = 1", fillcolor="#399de5"] ;
182 -> 188 ;
189 [label="entropy = 0.0\nsamples = 12\nvalue = [12, 0]\nclass = 0", fillcolor="#e58139"] ;
181 -> 189 ;
190 [label="entropy = 0.0\nsamples = 2\nvalue = [0, 2]\nclass = 1", fillcolor="#399de5"] ;
180 -> 190 ;
191 [label="entropy = 0.0\nsamples = 7\nvalue = [7, 0]\nclass = 0", fillcolor="#e58139"] ;
179 -> 191 ;
192 [label="NumberOfSuppliments <= 2.5\nentropy = 0.92\nsamples = 3\nvalue = [1, 2]\nclass = 1", fillcolor="#9ccef2"] ;
178 -> 192 ;
193 [label="entropy = 0.0\nsamples = 1\nvalue = [1, 0]\nclass = 0", fillcolor="#e58139"] ;
192 -> 193 ;
194 [label="entropy = 0.0\nsamples = 2\nvalue = [0, 2]\nclass = 1", fillcolor="#399de5"] ;
192 -> 194 ;
195 [label="entropy = 0.0\nsamples = 12\nvalue = [12, 0]\nclass = 0", fillcolor="#e58139"] ;
177 -> 195 ;
196 [label="entropy = 0.0\nsamples = 1\nvalue = [0, 1]\nclass = 1", fillcolor="#399de5"] ;
176 -> 196 ;
197 [label="Age <= 18.5\nentropy = 0.58\nsamples = 190\nvalue = [164, 26]\nclass = 0", fillcolor="#e99558"] ;
143 -> 197 ;
198 [label="entropy = 0.0\nsamples = 2\nvalue = [0, 2]\nclass = 1", fillcolor="#399de5"] ;
197 -> 198 ;
199 [label="WeekOfMonth <= 3.5\nentropy = 0.55\nsamples = 188\nvalue = [164, 24]\nclass = 0", fillcolor="#e99356"] ;
197 -> 199 ;
200 [label="NumberOfSuppliments <= 1.5\nentropy = 0.41\nsamples = 132\nvalue = [121, 11]\nclass = 0", fillcolor="#e78c4b"] ;
199 -> 200 ;
201 [label="WeekOfMonthClaimed <= 4.5\nentropy = 0.63\nsamples = 44\nvalue = [37, 7]\nclass = 0", fillcolor="#ea995e"] ;
200 -> 201 ;
202 [label="Month <= 10.5\nentropy = 0.53\nsamples = 42\nvalue = [37, 5]\nclass = 0", fillcolor="#e99254"] ;
201 -> 202 ;
203 [label="Make <= 16.0\nentropy = 0.79\nsamples = 21\nvalue = [16, 5]\nclass = 0", fillcolor="#eda877"] ;
202 -> 203 ;
204 [label="Make <= 4.0\nentropy = 0.92\nsamples = 15\nvalue = [10, 5]\nclass = 0", fillcolor="#f2c09c"] ;
203 -> 204 ;
205 [label="entropy = 0.0\nsamples = 4\nvalue = [4, 0]\nclass = 0", fillcolor="#e58139"] ;
204 -> 205 ;
206 [label="AgeOfVehicle <= 3.0\nentropy = 0.99\nsamples = 11\nvalue = [6, 5]\nclass = 0", fillcolor="#fbeade"] ;
204 -> 206 ;
207 [label="entropy = 0.0\nsamples = 2\nvalue = [2, 0]\nclass = 0", fillcolor="#e58139"] ;
206 -> 207 ;
208 [label="MaritalStatus <= 1.5\nentropy = 0.99\nsamples = 9\nvalue = [4, 5]\nclass = 1", fillcolor="#d7ebfa"] ;
206 -> 208 ;
209 [label="Age <= 50.5\nentropy = 0.86\nsamples = 7\nvalue = [2, 5]\nclass = 1", fillcolor="#88c4ef"] ;
208 -> 209 ;
210 [label="PastNumberOfClaims <= 2.5\nentropy = 0.65\nsamples = 6\nvalue = [1, 5]\nclass = 1", fillcolor="#61b1ea"] ;
209 -> 210 ;
211 [label="entropy = 0.0\nsamples = 5\nvalue = [0, 5]\nclass = 1", fillcolor="#399de5"] ;
210 -> 211 ;
212 [label="entropy = 0.0\nsamples = 1\nvalue = [1, 0]\nclass = 0", fillcolor="#e58139"] ;
210 -> 212 ;
213 [label="entropy = 0.0\nsamples = 1\nvalue = [1, 0]\nclass = 0", fillcolor="#e58139"] ;
209 -> 213 ;
214 [label="entropy = 0.0\nsamples = 2\nvalue = [2, 0]\nclass = 0", fillcolor="#e58139"] ;
208 -> 214 ;
215 [label="entropy = 0.0\nsamples = 6\nvalue = [6, 0]\nclass = 0", fillcolor="#e58139"] ;
203 -> 215 ;
216 [label="entropy = 0.0\nsamples = 21\nvalue = [21, 0]\nclass = 0", fillcolor="#e58139"] ;
202 -> 216 ;
217 [label="entropy = 0.0\nsamples = 2\nvalue = [0, 2]\nclass = 1", fillcolor="#399de5"] ;
201 -> 217 ;
218 [label="DayOfWeek <= 3.5\nentropy = 0.27\nsamples = 88\nvalue = [84, 4]\nclass = 0", fillcolor="#e68742"] ;
200 -> 218 ;
219 [label="NumberOfSuppliments <= 2.5\nentropy = 0.4\nsamples = 50\nvalue = [46, 4]\nclass = 0", fillcolor="#e78c4a"] ;
218 -> 219 ;
220 [label="entropy = 0.0\nsamples = 21\nvalue = [21, 0]\nclass = 0", fillcolor="#e58139"] ;
219 -> 220 ;
221 [label="DayOfWeek <= 2.5\nentropy = 0.58\nsamples = 29\nvalue = [25, 4]\nclass = 0", fillcolor="#e99559"] ;
219 -> 221 ;
222 [label="Age <= 31.0\nentropy = 0.4\nsamples = 25\nvalue = [23, 2]\nclass = 0", fillcolor="#e78c4a"] ;
221 -> 222 ;
223 [label="DayOfWeekClaimed <= 2.0\nentropy = 0.81\nsamples = 8\nvalue = [6, 2]\nclass = 0", fillcolor="#eeab7b"] ;
222 -> 223 ;
224 [label="WeekOfMonthClaimed <= 1.5\nentropy = 1.0\nsamples = 4\nvalue = [2, 2]\nclass = 0", fillcolor="#ffffff"] ;
223 -> 224 ;
225 [label="entropy = 0.0\nsamples = 1\nvalue = [0, 1]\nclass = 1", fillcolor="#399de5"] ;
224 -> 225 ;
226 [label="AccidentArea <= 0.5\nentropy = 0.92\nsamples = 3\nvalue = [2, 1]\nclass = 0", fillcolor="#f2c09c"] ;
224 -> 226 ;
227 [label="entropy = 0.0\nsamples = 1\nvalue = [0, 1]\nclass = 1", fillcolor="#399de5"] ;
226 -> 227 ;
228 [label="entropy = 0.0\nsamples = 2\nvalue = [2, 0]\nclass = 0", fillcolor="#e58139"] ;
226 -> 228 ;
229 [label="entropy = 0.0\nsamples = 4\nvalue = [4, 0]\nclass = 0", fillcolor="#e58139"] ;
223 -> 229 ;
230 [label="entropy = 0.0\nsamples = 17\nvalue = [17, 0]\nclass = 0", fillcolor="#e58139"] ;
222 -> 230 ;
231 [label="PastNumberOfClaims <= 0.5\nentropy = 1.0\nsamples = 4\nvalue = [2, 2]\nclass = 0", fillcolor="#ffffff"] ;
221 -> 231 ;
232 [label="entropy = 0.0\nsamples = 2\nvalue = [2, 0]\nclass = 0", fillcolor="#e58139"] ;
231 -> 232 ;
233 [label="entropy = 0.0\nsamples = 2\nvalue = [0, 2]\nclass = 1", fillcolor="#399de5"] ;
231 -> 233 ;
234 [label="entropy = 0.0\nsamples = 38\nvalue = [38, 0]\nclass = 0", fillcolor="#e58139"] ;
218 -> 234 ;
235 [label="VehiclePrice <= 3.5\nentropy = 0.78\nsamples = 56\nvalue = [43, 13]\nclass = 0", fillcolor="#eda775"] ;
199 -> 235 ;
236 [label="PastNumberOfClaims <= 1.5\nentropy = 0.64\nsamples = 43\nvalue = [36, 7]\nclass = 0", fillcolor="#ea9a5f"] ;
235 -> 236 ;
237 [label="Age <= 48.5\nentropy = 0.84\nsamples = 26\nvalue = [19, 7]\nclass = 0", fillcolor="#efaf82"] ;
236 -> 237 ;
238 [label="AddressChange_Claim <= 2.5\nentropy = 0.93\nsamples = 20\nvalue = [13, 7]\nclass = 0", fillcolor="#f3c5a4"] ;
237 -> 238 ;
239 [label="entropy = 0.0\nsamples = 3\nvalue = [3, 0]\nclass = 0", fillcolor="#e58139"] ;
238 -> 239 ;
240 [label="NumberOfSuppliments <= 0.5\nentropy = 0.98\nsamples = 17\nvalue = [10, 7]\nclass = 0", fillcolor="#f7d9c4"] ;
238 -> 240 ;
241 [label="entropy = 0.0\nsamples = 2\nvalue = [0, 2]\nclass = 1", fillcolor="#399de5"] ;
240 -> 241 ;
242 [label="AgeOfVehicle <= 4.5\nentropy = 0.92\nsamples = 15\nvalue = [10, 5]\nclass = 0", fillcolor="#f2c09c"] ;
240 -> 242 ;
243 [label="Age <= 33.0\nentropy = 0.99\nsamples = 7\nvalue = [3, 4]\nclass = 1", fillcolor="#cee6f8"] ;
242 -> 243 ;
244 [label="entropy = 0.0\nsamples = 4\nvalue = [0, 4]\nclass = 1", fillcolor="#399de5"] ;
243 -> 244 ;
245 [label="entropy = 0.0\nsamples = 3\nvalue = [3, 0]\nclass = 0", fillcolor="#e58139"] ;
243 -> 245 ;
246 [label="Age <= 43.5\nentropy = 0.54\nsamples = 8\nvalue = [7, 1]\nclass = 0", fillcolor="#e99355"] ;
242 -> 246 ;
247 [label="entropy = 0.0\nsamples = 7\nvalue = [7, 0]\nclass = 0", fillcolor="#e58139"] ;
246 -> 247 ;
248 [label="entropy = 0.0\nsamples = 1\nvalue = [0, 1]\nclass = 1", fillcolor="#399de5"] ;
246 -> 248 ;
249 [label="entropy = 0.0\nsamples = 6\nvalue = [6, 0]\nclass = 0", fillcolor="#e58139"] ;
237 -> 249 ;
250 [label="entropy = 0.0\nsamples = 17\nvalue = [17, 0]\nclass = 0", fillcolor="#e58139"] ;
236 -> 250 ;
251 [label="Age <= 55.5\nentropy = 1.0\nsamples = 13\nvalue = [7, 6]\nclass = 0", fillcolor="#fbede3"] ;
235 -> 251 ;
252 [label="Age <= 45.0\nentropy = 0.95\nsamples = 11\nvalue = [7, 4]\nclass = 0", fillcolor="#f4c9aa"] ;
251 -> 252 ;
253 [label="Age <= 24.5\nentropy = 1.0\nsamples = 8\nvalue = [4, 4]\nclass = 0", fillcolor="#ffffff"] ;
252 -> 253 ;
254 [label="entropy = 0.0\nsamples = 2\nvalue = [2, 0]\nclass = 0", fillcolor="#e58139"] ;
253 -> 254 ;
255 [label="AgeOfVehicle <= 4.5\nentropy = 0.92\nsamples = 6\nvalue = [2, 4]\nclass = 1", fillcolor="#9ccef2"] ;
253 -> 255 ;
256 [label="entropy = 0.0\nsamples = 3\nvalue = [0, 3]\nclass = 1", fillcolor="#399de5"] ;
255 -> 256 ;
257 [label="PolicyType <= 2.5\nentropy = 0.92\nsamples = 3\nvalue = [2, 1]\nclass = 0", fillcolor="#f2c09c"] ;
255 -> 257 ;
258 [label="entropy = 0.0\nsamples = 1\nvalue = [0, 1]\nclass = 1", fillcolor="#399de5"] ;
257 -> 258 ;
259 [label="entropy = 0.0\nsamples = 2\nvalue = [2, 0]\nclass = 0", fillcolor="#e58139"] ;
257 -> 259 ;
260 [label="entropy = 0.0\nsamples = 3\nvalue = [3, 0]\nclass = 0", fillcolor="#e58139"] ;
252 -> 260 ;
261 [label="entropy = 0.0\nsamples = 2\nvalue = [0, 2]\nclass = 1", fillcolor="#399de5"] ;
251 -> 261 ;
262 [label="MonthClaimed <= 3.0\nentropy = 0.82\nsamples = 146\nvalue = [109, 37]\nclass = 0", fillcolor="#eeac7c"] ;
68 -> 262 ;
263 [label="Make <= 11.0\nentropy = 0.92\nsamples = 9\nvalue = [3, 6]\nclass = 1", fillcolor="#9ccef2"] ;
262 -> 263 ;
264 [label="entropy = 0.0\nsamples = 5\nvalue = [0, 5]\nclass = 1", fillcolor="#399de5"] ;
263 -> 264 ;
265 [label="DriverRating <= 3.5\nentropy = 0.81\nsamples = 4\nvalue = [3, 1]\nclass = 0", fillcolor="#eeab7b"] ;
263 -> 265 ;
266 [label="entropy = 0.0\nsamples = 3\nvalue = [3, 0]\nclass = 0", fillcolor="#e58139"] ;
265 -> 266 ;
267 [label="entropy = 0.0\nsamples = 1\nvalue = [0, 1]\nclass = 1", fillcolor="#399de5"] ;
265 -> 267 ;
268 [label="MonthClaimed <= 6.5\nentropy = 0.77\nsamples = 137\nvalue = [106, 31]\nclass = 0", fillcolor="#eda673"] ;
262 -> 268 ;
269 [label="entropy = 0.0\nsamples = 10\nvalue = [10, 0]\nclass = 0", fillcolor="#e58139"] ;
268 -> 269 ;
270 [label="Make <= 11.0\nentropy = 0.8\nsamples = 127\nvalue = [96, 31]\nclass = 0", fillcolor="#edaa79"] ;
268 -> 270 ;
271 [label="Age <= 27.0\nentropy = 0.89\nsamples = 74\nvalue = [51, 23]\nclass = 0", fillcolor="#f1ba92"] ;
270 -> 271 ;
272 [label="AgeOfVehicle <= 1.5\nentropy = 0.39\nsamples = 13\nvalue = [12, 1]\nclass = 0", fillcolor="#e78c49"] ;
271 -> 272 ;
273 [label="entropy = 0.0\nsamples = 1\nvalue = [0, 1]\nclass = 1", fillcolor="#399de5"] ;
272 -> 273 ;
274 [label="entropy = 0.0\nsamples = 12\nvalue = [12, 0]\nclass = 0", fillcolor="#e58139"] ;
272 -> 274 ;
275 [label="DayOfWeek <= 1.5\nentropy = 0.94\nsamples = 61\nvalue = [39, 22]\nclass = 0", fillcolor="#f4c8a9"] ;
271 -> 275 ;
276 [label="NumberOfSuppliments <= 1.5\nentropy = 0.99\nsamples = 20\nvalue = [9, 11]\nclass = 1", fillcolor="#dbedfa"] ;
275 -> 276 ;
277 [label="entropy = 0.0\nsamples = 4\nvalue = [4, 0]\nclass = 0", fillcolor="#e58139"] ;
276 -> 277 ;
278 [label="MonthClaimed <= 10.5\nentropy = 0.9\nsamples = 16\nvalue = [5, 11]\nclass = 1", fillcolor="#93caf1"] ;
276 -> 278 ;
279 [label="NumberOfCars <= 1.5\nentropy = 0.47\nsamples = 10\nvalue = [1, 9]\nclass = 1", fillcolor="#4fa8e8"] ;
278 -> 279 ;
280 [label="entropy = 0.0\nsamples = 9\nvalue = [0, 9]\nclass = 1", fillcolor="#399de5"] ;
279 -> 280 ;
281 [label="entropy = 0.0\nsamples = 1\nvalue = [1, 0]\nclass = 0", fillcolor="#e58139"] ;
279 -> 281 ;
282 [label="WeekOfMonth <= 2.5\nentropy = 0.92\nsamples = 6\nvalue = [4, 2]\nclass = 0", fillcolor="#f2c09c"] ;
278 -> 282 ;
283 [label="entropy = 0.0\nsamples = 3\nvalue = [3, 0]\nclass = 0", fillcolor="#e58139"] ;
282 -> 283 ;
284 [label="Sex <= 0.5\nentropy = 0.92\nsamples = 3\nvalue = [1, 2]\nclass = 1", fillcolor="#9ccef2"] ;
282 -> 284 ;
285 [label="entropy = 0.0\nsamples = 1\nvalue = [1, 0]\nclass = 0", fillcolor="#e58139"] ;
284 -> 285 ;
286 [label="entropy = 0.0\nsamples = 2\nvalue = [0, 2]\nclass = 1", fillcolor="#399de5"] ;
284 -> 286 ;
287 [label="PolicyType <= 2.5\nentropy = 0.84\nsamples = 41\nvalue = [30, 11]\nclass = 0", fillcolor="#efaf82"] ;
275 -> 287 ;
288 [label="Age <= 52.5\nentropy = 0.9\nsamples = 35\nvalue = [24, 11]\nclass = 0", fillcolor="#f1bb94"] ;
287 -> 288 ;
289 [label="Month <= 10.5\nentropy = 0.8\nsamples = 29\nvalue = [22, 7]\nclass = 0", fillcolor="#eda978"] ;
288 -> 289 ;
290 [label="NumberOfSuppliments <= 0.5\nentropy = 0.92\nsamples = 21\nvalue = [14, 7]\nclass = 0", fillcolor="#f2c09c"] ;
289 -> 290 ;
291 [label="DriverRating <= 3.5\nentropy = 0.81\nsamples = 4\nvalue = [1, 3]\nclass = 1", fillcolor="#7bbeee"] ;
290 -> 291 ;
292 [label="entropy = 0.0\nsamples = 3\nvalue = [0, 3]\nclass = 1", fillcolor="#399de5"] ;
291 -> 292 ;
293 [label="entropy = 0.0\nsamples = 1\nvalue = [1, 0]\nclass = 0", fillcolor="#e58139"] ;
291 -> 293 ;
294 [label="NumberOfSuppliments <= 2.5\nentropy = 0.79\nsamples = 17\nvalue = [13, 4]\nclass = 0", fillcolor="#eda876"] ;
290 -> 294 ;
295 [label="entropy = 0.0\nsamples = 8\nvalue = [8, 0]\nclass = 0", fillcolor="#e58139"] ;
294 -> 295 ;
296 [label="MaritalStatus <= 1.5\nentropy = 0.99\nsamples = 9\nvalue = [5, 4]\nclass = 0", fillcolor="#fae6d7"] ;
294 -> 296 ;
297 [label="BasePolicy <= 0.5\nentropy = 0.99\nsamples = 7\nvalue = [3, 4]\nclass = 1", fillcolor="#cee6f8"] ;
296 -> 297 ;
298 [label="entropy = 0.0\nsamples = 2\nvalue = [2, 0]\nclass = 0", fillcolor="#e58139"] ;
297 -> 298 ;
299 [label="WeekOfMonth <= 4.5\nentropy = 0.72\nsamples = 5\nvalue = [1, 4]\nclass = 1", fillcolor="#6ab6ec"] ;
297 -> 299 ;
300 [label="entropy = 0.0\nsamples = 4\nvalue = [0, 4]\nclass = 1", fillcolor="#399de5"] ;
299 -> 300 ;
301 [label="entropy = 0.0\nsamples = 1\nvalue = [1, 0]\nclass = 0", fillcolor="#e58139"] ;
299 -> 301 ;
302 [label="entropy = 0.0\nsamples = 2\nvalue = [2, 0]\nclass = 0", fillcolor="#e58139"] ;
296 -> 302 ;
303 [label="entropy = 0.0\nsamples = 8\nvalue = [8, 0]\nclass = 0", fillcolor="#e58139"] ;
289 -> 303 ;
304 [label="DayOfWeek <= 4.0\nentropy = 0.92\nsamples = 6\nvalue = [2, 4]\nclass = 1", fillcolor="#9ccef2"] ;
288 -> 304 ;
305 [label="entropy = 0.0\nsamples = 2\nvalue = [2, 0]\nclass = 0", fillcolor="#e58139"] ;
304 -> 305 ;
306 [label="entropy = 0.0\nsamples = 4\nvalue = [0, 4]\nclass = 1", fillcolor="#399de5"] ;
304 -> 306 ;
307 [label="entropy = 0.0\nsamples = 6\nvalue = [6, 0]\nclass = 0", fillcolor="#e58139"] ;
287 -> 307 ;
308 [label="PolicyType <= 0.5\nentropy = 0.61\nsamples = 53\nvalue = [45, 8]\nclass = 0", fillcolor="#ea975c"] ;
270 -> 308 ;
309 [label="DayOfWeek <= 1.5\nentropy = 0.88\nsamples = 20\nvalue = [14, 6]\nclass = 0", fillcolor="#f0b78e"] ;
308 -> 309 ;
310 [label="entropy = 0.0\nsamples = 6\nvalue = [6, 0]\nclass = 0", fillcolor="#e58139"] ;
309 -> 310 ;
311 [label="DriverRating <= 1.5\nentropy = 0.99\nsamples = 14\nvalue = [8, 6]\nclass = 0", fillcolor="#f8e0ce"] ;
309 -> 311 ;
312 [label="entropy = 0.0\nsamples = 3\nvalue = [0, 3]\nclass = 1", fillcolor="#399de5"] ;
311 -> 312 ;
313 [label="Make <= 14.0\nentropy = 0.85\nsamples = 11\nvalue = [8, 3]\nclass = 0", fillcolor="#efb083"] ;
311 -> 313 ;
314 [label="NumberOfSuppliments <= 2.5\nentropy = 0.81\nsamples = 4\nvalue = [1, 3]\nclass = 1", fillcolor="#7bbeee"] ;
313 -> 314 ;
315 [label="entropy = 0.0\nsamples = 3\nvalue = [0, 3]\nclass = 1", fillcolor="#399de5"] ;
314 -> 315 ;
316 [label="entropy = 0.0\nsamples = 1\nvalue = [1, 0]\nclass = 0", fillcolor="#e58139"] ;
314 -> 316 ;
317 [label="entropy = 0.0\nsamples = 7\nvalue = [7, 0]\nclass = 0", fillcolor="#e58139"] ;
313 -> 317 ;
318 [label="DayOfWeek <= 1.5\nentropy = 0.33\nsamples = 33\nvalue = [31, 2]\nclass = 0", fillcolor="#e78946"] ;
308 -> 318 ;
319 [label="WeekOfMonthClaimed <= 3.5\nentropy = 0.68\nsamples = 11\nvalue = [9, 2]\nclass = 0", fillcolor="#eb9d65"] ;
318 -> 319 ;
320 [label="entropy = 0.0\nsamples = 7\nvalue = [7, 0]\nclass = 0", fillcolor="#e58139"] ;
319 -> 320 ;
321 [label="WeekOfMonth <= 3.5\nentropy = 1.0\nsamples = 4\nvalue = [2, 2]\nclass = 0", fillcolor="#ffffff"] ;
319 -> 321 ;
322 [label="entropy = 0.0\nsamples = 2\nvalue = [0, 2]\nclass = 1", fillcolor="#399de5"] ;
321 -> 322 ;
323 [label="entropy = 0.0\nsamples = 2\nvalue = [2, 0]\nclass = 0", fillcolor="#e58139"] ;
321 -> 323 ;
324 [label="entropy = 0.0\nsamples = 22\nvalue = [22, 0]\nclass = 0", fillcolor="#e58139"] ;
318 -> 324 ;
325 [label="AddressChange_Claim <= 1.5\nentropy = 0.06\nsamples = 747\nvalue = [742, 5]\nclass = 0", fillcolor="#e5823a"] ;
1 -> 325 ;
326 [label="Deductible <= 450.0\nentropy = 0.85\nsamples = 18\nvalue = [13, 5]\nclass = 0", fillcolor="#efb185"] ;
325 -> 326 ;
327 [label="entropy = 0.0\nsamples = 9\nvalue = [9, 0]\nclass = 0", fillcolor="#e58139"] ;
326 -> 327 ;
328 [label="Age <= 47.5\nentropy = 0.99\nsamples = 9\nvalue = [4, 5]\nclass = 1", fillcolor="#d7ebfa"] ;
326 -> 328 ;
329 [label="entropy = 0.0\nsamples = 5\nvalue = [0, 5]\nclass = 1", fillcolor="#399de5"] ;
328 -> 329 ;
330 [label="entropy = 0.0\nsamples = 4\nvalue = [4, 0]\nclass = 0", fillcolor="#e58139"] ;
328 -> 330 ;
331 [label="entropy = 0.0\nsamples = 729\nvalue = [729, 0]\nclass = 0", fillcolor="#e58139"] ;
325 -> 331 ;
332 [label="Make <= 10.0\nentropy = 0.04\nsamples = 1224\nvalue = [1218, 6]\nclass = 0", fillcolor="#e5823a"] ;
0 -> 332 [labeldistance=2.5, labelangle=-45, headlabel="False"] ;
333 [label="entropy = 0.0\nsamples = 657\nvalue = [657, 0]\nclass = 0", fillcolor="#e58139"] ;
332 -> 333 ;
334 [label="MonthClaimed <= 6.5\nentropy = 0.08\nsamples = 567\nvalue = [561, 6]\nclass = 0", fillcolor="#e5823b"] ;
332 -> 334 ;
335 [label="entropy = 0.0\nsamples = 260\nvalue = [260, 0]\nclass = 0", fillcolor="#e58139"] ;
334 -> 335 ;
336 [label="VehiclePrice <= 0.5\nentropy = 0.14\nsamples = 307\nvalue = [301, 6]\nclass = 0", fillcolor="#e6843d"] ;
334 -> 336 ;
337 [label="DayOfWeek <= 3.5\nentropy = 0.22\nsamples = 169\nvalue = [163, 6]\nclass = 0", fillcolor="#e68640"] ;
336 -> 337 ;
338 [label="Make <= 12.0\nentropy = 0.35\nsamples = 91\nvalue = [85, 6]\nclass = 0", fillcolor="#e78a47"] ;
337 -> 338 ;
339 [label="entropy = 0.0\nsamples = 1\nvalue = [0, 1]\nclass = 1", fillcolor="#399de5"] ;
338 -> 339 ;
340 [label="PastNumberOfClaims <= 2.5\nentropy = 0.31\nsamples = 90\nvalue = [85, 5]\nclass = 0", fillcolor="#e78845"] ;
338 -> 340 ;
341 [label="DayOfWeek <= 1.5\nentropy = 0.18\nsamples = 74\nvalue = [72, 2]\nclass = 0", fillcolor="#e6843e"] ;
340 -> 341 ;
342 [label="entropy = 0.0\nsamples = 48\nvalue = [48, 0]\nclass = 0", fillcolor="#e58139"] ;
341 -> 342 ;
343 [label="AgeOfVehicle <= 2.5\nentropy = 0.39\nsamples = 26\nvalue = [24, 2]\nclass = 0", fillcolor="#e78c49"] ;
341 -> 343 ;
344 [label="entropy = 0.0\nsamples = 1\nvalue = [0, 1]\nclass = 1", fillcolor="#399de5"] ;
343 -> 344 ;
345 [label="PastNumberOfClaims <= 0.5\nentropy = 0.24\nsamples = 25\nvalue = [24, 1]\nclass = 0", fillcolor="#e68641"] ;
343 -> 345 ;
346 [label="Month <= 7.5\nentropy = 0.72\nsamples = 5\nvalue = [4, 1]\nclass = 0", fillcolor="#eca06a"] ;
345 -> 346 ;
347 [label="entropy = 0.0\nsamples = 1\nvalue = [0, 1]\nclass = 1", fillcolor="#399de5"] ;
346 -> 347 ;
348 [label="entropy = 0.0\nsamples = 4\nvalue = [4, 0]\nclass = 0", fillcolor="#e58139"] ;
346 -> 348 ;
349 [label="entropy = 0.0\nsamples = 20\nvalue = [20, 0]\nclass = 0", fillcolor="#e58139"] ;
345 -> 349 ;
350 [label="AgeOfVehicle <= 4.5\nentropy = 0.7\nsamples = 16\nvalue = [13, 3]\nclass = 0", fillcolor="#eb9e67"] ;
340 -> 350 ;
351 [label="entropy = 0.0\nsamples = 8\nvalue = [8, 0]\nclass = 0", fillcolor="#e58139"] ;
350 -> 351 ;
352 [label="WeekOfMonth <= 3.5\nentropy = 0.95\nsamples = 8\nvalue = [5, 3]\nclass = 0", fillcolor="#f5cdb0"] ;
350 -> 352 ;
353 [label="DriverRating <= 1.5\nentropy = 0.97\nsamples = 5\nvalue = [2, 3]\nclass = 1", fillcolor="#bddef6"] ;
352 -> 353 ;
354 [label="entropy = 0.0\nsamples = 2\nvalue = [0, 2]\nclass = 1", fillcolor="#399de5"] ;
353 -> 354 ;
355 [label="Age <= 47.0\nentropy = 0.92\nsamples = 3\nvalue = [2, 1]\nclass = 0", fillcolor="#f2c09c"] ;
353 -> 355 ;
356 [label="entropy = 0.0\nsamples = 2\nvalue = [2, 0]\nclass = 0", fillcolor="#e58139"] ;
355 -> 356 ;
357 [label="entropy = 0.0\nsamples = 1\nvalue = [0, 1]\nclass = 1", fillcolor="#399de5"] ;
355 -> 357 ;
358 [label="entropy = 0.0\nsamples = 3\nvalue = [3, 0]\nclass = 0", fillcolor="#e58139"] ;
352 -> 358 ;
359 [label="entropy = 0.0\nsamples = 78\nvalue = [78, 0]\nclass = 0", fillcolor="#e58139"] ;
337 -> 359 ;
360 [label="entropy = 0.0\nsamples = 138\nvalue = [138, 0]\nclass = 0", fillcolor="#e58139"] ;
336 -> 360 ;
}