digraph Tree {
node [shape=box, style="filled, rounded", color="black", fontname=helvetica] ;
edge [fontname=helvetica] ;
0 [label="BasePolicy <= 1.5\nentropy = 0.27\nsamples = 3500\nvalue = [3337, 163]\nclass = 0", fillcolor="#e68743"] ;
1 [label="Fault <= 0.5\nentropy = 0.37\nsamples = 2274\nvalue = [2114, 160]\nclass = 0", fillcolor="#e78b48"] ;
0 -> 1 [labeldistance=2.5, labelangle=45, headlabel="True"] ;
2 [label="MonthClaimed <= 2.5\nentropy = 0.47\nsamples = 1515\nvalue = [1364, 151]\nclass = 0", fillcolor="#e88f4f"] ;
1 -> 2 ;
3 [label="MonthClaimed <= 0.5\nentropy = 0.26\nsamples = 412\nvalue = [394, 18]\nclass = 0", fillcolor="#e68742"] ;
2 -> 3 ;
4 [label="WeekOfMonthClaimed <= 1.5\nentropy = 0.45\nsamples = 193\nvalue = [175, 18]\nclass = 0", fillcolor="#e88e4d"] ;
3 -> 4 ;
5 [label="DayOfWeekClaimed <= 5.5\nentropy = 0.76\nsamples = 55\nvalue = [43, 12]\nclass = 0", fillcolor="#eca470"] ;
4 -> 5 ;
6 [label="Month <= 1.5\nentropy = 0.53\nsamples = 41\nvalue = [36, 5]\nclass = 0", fillcolor="#e99254"] ;
5 -> 6 ;
7 [label="DriverRating <= 1.5\nentropy = 0.81\nsamples = 20\nvalue = [15, 5]\nclass = 0", fillcolor="#eeab7b"] ;
6 -> 7 ;
8 [label="entropy = 0.0\nsamples = 3\nvalue = [0, 3]\nclass = 1", fillcolor="#399de5"] ;
7 -> 8 ;
9 [label="DayOfWeek <= 5.5\nentropy = 0.52\nsamples = 17\nvalue = [15, 2]\nclass = 0", fillcolor="#e89253"] ;
7 -> 9 ;
10 [label="entropy = 0.0\nsamples = 14\nvalue = [14, 0]\nclass = 0", fillcolor="#e58139"] ;
9 -> 10 ;
11 [label="VehiclePrice <= 2.5\nentropy = 0.92\nsamples = 3\nvalue = [1, 2]\nclass = 1", fillcolor="#9ccef2"] ;
9 -> 11 ;
12 [label="entropy = 0.0\nsamples = 1\nvalue = [1, 0]\nclass = 0", fillcolor="#e58139"] ;
11 -> 12 ;
13 [label="entropy = 0.0\nsamples = 2\nvalue = [0, 2]\nclass = 1", fillcolor="#399de5"] ;
11 -> 13 ;
14 [label="entropy = 0.0\nsamples = 21\nvalue = [21, 0]\nclass = 0", fillcolor="#e58139"] ;
6 -> 14 ;
15 [label="AgeOfPolicyHolder <= 5.5\nentropy = 1.0\nsamples = 14\nvalue = [7, 7]\nclass = 0", fillcolor="#ffffff"] ;
5 -> 15 ;
16 [label="Age <= 30.0\nentropy = 0.88\nsamples = 10\nvalue = [3, 7]\nclass = 1", fillcolor="#8ec7f0"] ;
15 -> 16 ;
17 [label="AgeOfVehicle <= 4.5\nentropy = 0.81\nsamples = 4\nvalue = [3, 1]\nclass = 0", fillcolor="#eeab7b"] ;
16 -> 17 ;
18 [label="entropy = 0.0\nsamples = 3\nvalue = [3, 0]\nclass = 0", fillcolor="#e58139"] ;
17 -> 18 ;
19 [label="entropy = 0.0\nsamples = 1\nvalue = [0, 1]\nclass = 1", fillcolor="#399de5"] ;
17 -> 19 ;
20 [label="entropy = 0.0\nsamples = 6\nvalue = [0, 6]\nclass = 1", fillcolor="#399de5"] ;
16 -> 20 ;
21 [label="entropy = 0.0\nsamples = 4\nvalue = [4, 0]\nclass = 0", fillcolor="#e58139"] ;
15 -> 21 ;
22 [label="WeekOfMonth <= 1.5\nentropy = 0.26\nsamples = 138\nvalue = [132, 6]\nclass = 0", fillcolor="#e68742"] ;
4 -> 22 ;
23 [label="DayOfWeek <= 3.5\nentropy = 0.7\nsamples = 21\nvalue = [17, 4]\nclass = 0", fillcolor="#eb9f68"] ;
22 -> 23 ;
24 [label="DayOfWeek <= 1.5\nentropy = 0.95\nsamples = 11\nvalue = [7, 4]\nclass = 0", fillcolor="#f4c9aa"] ;
23 -> 24 ;
25 [label="entropy = 0.0\nsamples = 5\nvalue = [5, 0]\nclass = 0", fillcolor="#e58139"] ;
24 -> 25 ;
26 [label="Age <= 63.0\nentropy = 0.92\nsamples = 6\nvalue = [2, 4]\nclass = 1", fillcolor="#9ccef2"] ;
24 -> 26 ;
27 [label="NumberOfSuppliments <= 2.5\nentropy = 0.72\nsamples = 5\nvalue = [1, 4]\nclass = 1", fillcolor="#6ab6ec"] ;
26 -> 27 ;
28 [label="entropy = 0.0\nsamples = 3\nvalue = [0, 3]\nclass = 1", fillcolor="#399de5"] ;
27 -> 28 ;
29 [label="DayOfWeek <= 2.5\nentropy = 1.0\nsamples = 2\nvalue = [1, 1]\nclass = 0", fillcolor="#ffffff"] ;
27 -> 29 ;
30 [label="entropy = 0.0\nsamples = 1\nvalue = [1, 0]\nclass = 0", fillcolor="#e58139"] ;
29 -> 30 ;
31 [label="entropy = 0.0\nsamples = 1\nvalue = [0, 1]\nclass = 1", fillcolor="#399de5"] ;
29 -> 31 ;
32 [label="entropy = 0.0\nsamples = 1\nvalue = [1, 0]\nclass = 0", fillcolor="#e58139"] ;
26 -> 32 ;
33 [label="entropy = 0.0\nsamples = 10\nvalue = [10, 0]\nclass = 0", fillcolor="#e58139"] ;
23 -> 33 ;
34 [label="Month <= 5.5\nentropy = 0.12\nsamples = 117\nvalue = [115, 2]\nclass = 0", fillcolor="#e5833c"] ;
22 -> 34 ;
35 [label="entropy = 0.0\nsamples = 101\nvalue = [101, 0]\nclass = 0", fillcolor="#e58139"] ;
34 -> 35 ;
36 [label="DayOfWeekClaimed <= 4.5\nentropy = 0.54\nsamples = 16\nvalue = [14, 2]\nclass = 0", fillcolor="#e99355"] ;
34 -> 36 ;
37 [label="entropy = 0.0\nsamples = 10\nvalue = [10, 0]\nclass = 0", fillcolor="#e58139"] ;
36 -> 37 ;
38 [label="Make <= 11.0\nentropy = 0.92\nsamples = 6\nvalue = [4, 2]\nclass = 0", fillcolor="#f2c09c"] ;
36 -> 38 ;
39 [label="Make <= 7.5\nentropy = 0.92\nsamples = 3\nvalue = [1, 2]\nclass = 1", fillcolor="#9ccef2"] ;
38 -> 39 ;
40 [label="entropy = 0.0\nsamples = 1\nvalue = [1, 0]\nclass = 0", fillcolor="#e58139"] ;
39 -> 40 ;
41 [label="entropy = 0.0\nsamples = 2\nvalue = [0, 2]\nclass = 1", fillcolor="#399de5"] ;
39 -> 41 ;
42 [label="entropy = 0.0\nsamples = 3\nvalue = [3, 0]\nclass = 0", fillcolor="#e58139"] ;
38 -> 42 ;
43 [label="entropy = 0.0\nsamples = 219\nvalue = [219, 0]\nclass = 0", fillcolor="#e58139"] ;
3 -> 43 ;
44 [label="Month <= 4.5\nentropy = 0.53\nsamples = 1103\nvalue = [970, 133]\nclass = 0", fillcolor="#e99254"] ;
2 -> 44 ;
45 [label="MonthClaimed <= 7.5\nentropy = 0.7\nsamples = 493\nvalue = [400, 93]\nclass = 0", fillcolor="#eb9e67"] ;
44 -> 45 ;
46 [label="PolicyType <= 3.5\nentropy = 0.73\nsamples = 448\nvalue = [357, 91]\nclass = 0", fillcolor="#eca16b"] ;
45 -> 46 ;
47 [label="WeekOfMonthClaimed <= 4.5\nentropy = 0.69\nsamples = 414\nvalue = [337, 77]\nclass = 0", fillcolor="#eb9e66"] ;
46 -> 47 ;
48 [label="Days_Policy_Accident <= 3.5\nentropy = 0.71\nsamples = 398\nvalue = [321, 77]\nclass = 0", fillcolor="#eb9f68"] ;
47 -> 48 ;
49 [label="Age <= 21.5\nentropy = 0.7\nsamples = 395\nvalue = [321, 74]\nclass = 0", fillcolor="#eb9e67"] ;
48 -> 49 ;
50 [label="entropy = 0.0\nsamples = 14\nvalue = [14, 0]\nclass = 0", fillcolor="#e58139"] ;
49 -> 50 ;
51 [label="DayOfWeek <= 5.5\nentropy = 0.71\nsamples = 381\nvalue = [307, 74]\nclass = 0", fillcolor="#eb9f69"] ;
49 -> 51 ;
52 [label="WeekOfMonth <= 4.5\nentropy = 0.74\nsamples = 329\nvalue = [260, 69]\nclass = 0", fillcolor="#eca26e"] ;
51 -> 52 ;
53 [label="DayOfWeekClaimed <= 5.5\nentropy = 0.77\nsamples = 300\nvalue = [233, 67]\nclass = 0", fillcolor="#eca572"] ;
52 -> 53 ;
54 [label="Age <= 72.5\nentropy = 0.81\nsamples = 243\nvalue = [183, 60]\nclass = 0", fillcolor="#eeaa7a"] ;
53 -> 54 ;
55 [label="Age <= 67.0\nentropy = 0.82\nsamples = 237\nvalue = [177, 60]\nclass = 0", fillcolor="#eeac7c"] ;
54 -> 55 ;
56 [label="Age <= 49.5\nentropy = 0.8\nsamples = 230\nvalue = [174, 56]\nclass = 0", fillcolor="#edaa79"] ;
55 -> 56 ;
57 [label="AgeOfVehicle <= 3.5\nentropy = 0.84\nsamples = 182\nvalue = [133, 49]\nclass = 0", fillcolor="#efaf82"] ;
56 -> 57 ;
58 [label="AgeOfVehicle <= 1.5\nentropy = 0.61\nsamples = 33\nvalue = [28, 5]\nclass = 0", fillcolor="#ea985c"] ;
57 -> 58 ;
59 [label="entropy = 0.0\nsamples = 1\nvalue = [0, 1]\nclass = 1", fillcolor="#399de5"] ;
58 -> 59 ;
60 [label="WeekOfMonth <= 2.5\nentropy = 0.54\nsamples = 32\nvalue = [28, 4]\nclass = 0", fillcolor="#e99355"] ;
58 -> 60 ;
61 [label="MaritalStatus <= 1.5\nentropy = 0.78\nsamples = 13\nvalue = [10, 3]\nclass = 0", fillcolor="#eda774"] ;
60 -> 61 ;
62 [label="Month <= 3.5\nentropy = 0.92\nsamples = 3\nvalue = [1, 2]\nclass = 1", fillcolor="#9ccef2"] ;
61 -> 62 ;
63 [label="entropy = 0.0\nsamples = 1\nvalue = [1, 0]\nclass = 0", fillcolor="#e58139"] ;
62 -> 63 ;
64 [label="entropy = 0.0\nsamples = 2\nvalue = [0, 2]\nclass = 1", fillcolor="#399de5"] ;
62 -> 64 ;
65 [label="DayOfWeekClaimed <= 0.5\nentropy = 0.47\nsamples = 10\nvalue = [9, 1]\nclass = 0", fillcolor="#e88f4f"] ;
61 -> 65 ;
66 [label="entropy = 0.0\nsamples = 1\nvalue = [0, 1]\nclass = 1", fillcolor="#399de5"] ;
65 -> 66 ;
67 [label="entropy = 0.0\nsamples = 9\nvalue = [9, 0]\nclass = 0", fillcolor="#e58139"] ;
65 -> 67 ;
68 [label="DayOfWeek <= 0.5\nentropy = 0.3\nsamples = 19\nvalue = [18, 1]\nclass = 0", fillcolor="#e68844"] ;
60 -> 68 ;
69 [label="DayOfWeekClaimed <= 2.5\nentropy = 1.0\nsamples = 2\nvalue = [1, 1]\nclass = 0", fillcolor="#ffffff"] ;
68 -> 69 ;
70 [label="entropy = 0.0\nsamples = 1\nvalue = [0, 1]\nclass = 1", fillcolor="#399de5"] ;
69 -> 70 ;
71 [label="entropy = 0.0\nsamples = 1\nvalue = [1, 0]\nclass = 0", fillcolor="#e58139"] ;
69 -> 71 ;
72 [label="entropy = 0.0\nsamples = 17\nvalue = [17, 0]\nclass = 0", fillcolor="#e58139"] ;
68 -> 72 ;
73 [label="DayOfWeekClaimed <= 4.5\nentropy = 0.88\nsamples = 149\nvalue = [105, 44]\nclass = 0", fillcolor="#f0b68c"] ;
57 -> 73 ;
74 [label="WeekOfMonthClaimed <= 1.5\nentropy = 0.81\nsamples = 108\nvalue = [81, 27]\nclass = 0", fillcolor="#eeab7b"] ;
73 -> 74 ;
75 [label="Age <= 36.5\nentropy = 0.99\nsamples = 22\nvalue = [12, 10]\nclass = 0", fillcolor="#fbeade"] ;
74 -> 75 ;
76 [label="WeekOfMonth <= 2.0\nentropy = 0.85\nsamples = 11\nvalue = [3, 8]\nclass = 1", fillcolor="#83c2ef"] ;
75 -> 76 ;
77 [label="Make <= 7.5\nentropy = 0.97\nsamples = 5\nvalue = [3, 2]\nclass = 0", fillcolor="#f6d5bd"] ;
76 -> 77 ;
78 [label="entropy = 0.0\nsamples = 2\nvalue = [2, 0]\nclass = 0", fillcolor="#e58139"] ;
77 -> 78 ;
79 [label="Age <= 28.0\nentropy = 0.92\nsamples = 3\nvalue = [1, 2]\nclass = 1", fillcolor="#9ccef2"] ;
77 -> 79 ;
80 [label="entropy = 0.0\nsamples = 1\nvalue = [1, 0]\nclass = 0", fillcolor="#e58139"] ;
79 -> 80 ;
81 [label="entropy = 0.0\nsamples = 2\nvalue = [0, 2]\nclass = 1", fillcolor="#399de5"] ;
79 -> 81 ;
82 [label="entropy = 0.0\nsamples = 6\nvalue = [0, 6]\nclass = 1", fillcolor="#399de5"] ;
76 -> 82 ;
83 [label="Make <= 11.0\nentropy = 0.68\nsamples = 11\nvalue = [9, 2]\nclass = 0", fillcolor="#eb9d65"] ;
75 -> 83 ;
84 [label="MonthClaimed <= 3.5\nentropy = 1.0\nsamples = 4\nvalue = [2, 2]\nclass = 0", fillcolor="#ffffff"] ;
83 -> 84 ;
85 [label="entropy = 0.0\nsamples = 2\nvalue = [0, 2]\nclass = 1", fillcolor="#399de5"] ;
84 -> 85 ;
86 [label="entropy = 0.0\nsamples = 2\nvalue = [2, 0]\nclass = 0", fillcolor="#e58139"] ;
84 -> 86 ;
87 [label="entropy = 0.0\nsamples = 7\nvalue = [7, 0]\nclass = 0", fillcolor="#e58139"] ;
83 -> 87 ;
88 [label="MonthClaimed <= 3.5\nentropy = 0.72\nsamples = 86\nvalue = [69, 17]\nclass = 0", fillcolor="#eba06a"] ;
74 -> 88 ;
89 [label="NumberOfSuppliments <= 1.5\nentropy = 0.85\nsamples = 43\nvalue = [31, 12]\nclass = 0", fillcolor="#efb286"] ;
88 -> 89 ;
90 [label="AgeOfVehicle <= 4.5\nentropy = 1.0\nsamples = 16\nvalue = [8, 8]\nclass = 0", fillcolor="#ffffff"] ;
89 -> 90 ;
91 [label="entropy = 0.0\nsamples = 4\nvalue = [0, 4]\nclass = 1", fillcolor="#399de5"] ;
90 -> 91 ;
92 [label="BasePolicy <= 0.5\nentropy = 0.92\nsamples = 12\nvalue = [8, 4]\nclass = 0", fillcolor="#f2c09c"] ;
90 -> 92 ;
93 [label="Age <= 32.0\nentropy = 0.92\nsamples = 6\nvalue = [2, 4]\nclass = 1", fillcolor="#9ccef2"] ;
92 -> 93 ;
94 [label="entropy = 0.0\nsamples = 2\nvalue = [2, 0]\nclass = 0", fillcolor="#e58139"] ;
93 -> 94 ;
95 [label="entropy = 0.0\nsamples = 4\nvalue = [0, 4]\nclass = 1", fillcolor="#399de5"] ;
93 -> 95 ;
96 [label="entropy = 0.0\nsamples = 6\nvalue = [6, 0]\nclass = 0", fillcolor="#e58139"] ;
92 -> 96 ;
97 [label="DayOfWeekClaimed <= 2.5\nentropy = 0.61\nsamples = 27\nvalue = [23, 4]\nclass = 0", fillcolor="#ea975b"] ;
89 -> 97 ;
98 [label="entropy = 0.0\nsamples = 16\nvalue = [16, 0]\nclass = 0", fillcolor="#e58139"] ;
97 -> 98 ;
99 [label="Age <= 29.5\nentropy = 0.95\nsamples = 11\nvalue = [7, 4]\nclass = 0", fillcolor="#f4c9aa"] ;
97 -> 99 ;
100 [label="entropy = 0.0\nsamples = 2\nvalue = [0, 2]\nclass = 1", fillcolor="#399de5"] ;
99 -> 100 ;
101 [label="Make <= 15.0\nentropy = 0.76\nsamples = 9\nvalue = [7, 2]\nclass = 0", fillcolor="#eca572"] ;
99 -> 101 ;
102 [label="entropy = 0.0\nsamples = 6\nvalue = [6, 0]\nclass = 0", fillcolor="#e58139"] ;
101 -> 102 ;
103 [label="Age <= 38.5\nentropy = 0.92\nsamples = 3\nvalue = [1, 2]\nclass = 1", fillcolor="#9ccef2"] ;
101 -> 103 ;
104 [label="entropy = 0.0\nsamples = 1\nvalue = [1, 0]\nclass = 0", fillcolor="#e58139"] ;
103 -> 104 ;
105 [label="entropy = 0.0\nsamples = 2\nvalue = [0, 2]\nclass = 1", fillcolor="#399de5"] ;
103 -> 105 ;
106 [label="WeekOfMonthClaimed <= 3.5\nentropy = 0.52\nsamples = 43\nvalue = [38, 5]\nclass = 0", fillcolor="#e89253"] ;
88 -> 106 ;
107 [label="Age <= 31.5\nentropy = 0.66\nsamples = 29\nvalue = [24, 5]\nclass = 0", fillcolor="#ea9b62"] ;
106 -> 107 ;
108 [label="entropy = 0.0\nsamples = 9\nvalue = [9, 0]\nclass = 0", fillcolor="#e58139"] ;
107 -> 108 ;
109 [label="AgeOfVehicle <= 4.5\nentropy = 0.81\nsamples = 20\nvalue = [15, 5]\nclass = 0", fillcolor="#eeab7b"] ;
107 -> 109 ;
110 [label="NumberOfSuppliments <= 0.5\nentropy = 0.81\nsamples = 4\nvalue = [1, 3]\nclass = 1", fillcolor="#7bbeee"] ;
109 -> 110 ;
111 [label="entropy = 0.0\nsamples = 1\nvalue = [1, 0]\nclass = 0", fillcolor="#e58139"] ;
110 -> 111 ;
112 [label="entropy = 0.0\nsamples = 3\nvalue = [0, 3]\nclass = 1", fillcolor="#399de5"] ;
110 -> 112 ;
113 [label="DriverRating <= 1.5\nentropy = 0.54\nsamples = 16\nvalue = [14, 2]\nclass = 0", fillcolor="#e99355"] ;
109 -> 113 ;
114 [label="entropy = 0.0\nsamples = 7\nvalue = [7, 0]\nclass = 0", fillcolor="#e58139"] ;
113 -> 114 ;
115 [label="BasePolicy <= 0.5\nentropy = 0.76\nsamples = 9\nvalue = [7, 2]\nclass = 0", fillcolor="#eca572"] ;
113 -> 115 ;
116 [label="entropy = 0.0\nsamples = 1\nvalue = [0, 1]\nclass = 1", fillcolor="#399de5"] ;
115 -> 116 ;
117 [label="DayOfWeekClaimed <= 0.5\nentropy = 0.54\nsamples = 8\nvalue = [7, 1]\nclass = 0", fillcolor="#e99355"] ;
115 -> 117 ;
118 [label="entropy = 0.0\nsamples = 1\nvalue = [0, 1]\nclass = 1", fillcolor="#399de5"] ;
117 -> 118 ;
119 [label="entropy = 0.0\nsamples = 7\nvalue = [7, 0]\nclass = 0", fillcolor="#e58139"] ;
117 -> 119 ;
120 [label="entropy = 0.0\nsamples = 14\nvalue = [14, 0]\nclass = 0", fillcolor="#e58139"] ;
106 -> 120 ;
121 [label="Age <= 43.5\nentropy = 0.98\nsamples = 41\nvalue = [24, 17]\nclass = 0", fillcolor="#f7dac5"] ;
73 -> 121 ;
122 [label="WeekOfMonth <= 3.5\nentropy = 0.94\nsamples = 34\nvalue = [22, 12]\nclass = 0", fillcolor="#f3c6a5"] ;
121 -> 122 ;
123 [label="WeekOfMonthClaimed <= 3.5\nentropy = 0.99\nsamples = 24\nvalue = [13, 11]\nclass = 0", fillcolor="#fbece1"] ;
122 -> 123 ;
124 [label="PastNumberOfClaims <= 0.5\nentropy = 0.92\nsamples = 18\nvalue = [12, 6]\nclass = 0", fillcolor="#f2c09c"] ;
123 -> 124 ;
125 [label="entropy = 0.0\nsamples = 4\nvalue = [4, 0]\nclass = 0", fillcolor="#e58139"] ;
124 -> 125 ;
126 [label="NumberOfSuppliments <= 0.5\nentropy = 0.99\nsamples = 14\nvalue = [8, 6]\nclass = 0", fillcolor="#f8e0ce"] ;
124 -> 126 ;
127 [label="entropy = 0.0\nsamples = 3\nvalue = [3, 0]\nclass = 0", fillcolor="#e58139"] ;
126 -> 127 ;
128 [label="DriverRating <= 1.5\nentropy = 0.99\nsamples = 11\nvalue = [5, 6]\nclass = 1", fillcolor="#deeffb"] ;
126 -> 128 ;
129 [label="entropy = 0.0\nsamples = 2\nvalue = [2, 0]\nclass = 0", fillcolor="#e58139"] ;
128 -> 129 ;
130 [label="Month <= 2.5\nentropy = 0.92\nsamples = 9\nvalue = [3, 6]\nclass = 1", fillcolor="#9ccef2"] ;
128 -> 130 ;
131 [label="entropy = 0.0\nsamples = 1\nvalue = [1, 0]\nclass = 0", fillcolor="#e58139"] ;
130 -> 131 ;
132 [label="AgeOfVehicle <= 5.5\nentropy = 0.81\nsamples = 8\nvalue = [2, 6]\nclass = 1", fillcolor="#7bbeee"] ;
130 -> 132 ;
133 [label="entropy = 0.0\nsamples = 5\nvalue = [0, 5]\nclass = 1", fillcolor="#399de5"] ;
132 -> 133 ;
134 [label="MonthClaimed <= 3.5\nentropy = 0.92\nsamples = 3\nvalue = [2, 1]\nclass = 0", fillcolor="#f2c09c"] ;
132 -> 134 ;
135 [label="entropy = 0.0\nsamples = 2\nvalue = [2, 0]\nclass = 0", fillcolor="#e58139"] ;
134 -> 135 ;
136 [label="entropy = 0.0\nsamples = 1\nvalue = [0, 1]\nclass = 1", fillcolor="#399de5"] ;
134 -> 136 ;
137 [label="Age <= 39.5\nentropy = 0.65\nsamples = 6\nvalue = [1, 5]\nclass = 1", fillcolor="#61b1ea"] ;
123 -> 137 ;
138 [label="entropy = 0.0\nsamples = 5\nvalue = [0, 5]\nclass = 1", fillcolor="#399de5"] ;
137 -> 138 ;
139 [label="entropy = 0.0\nsamples = 1\nvalue = [1, 0]\nclass = 0", fillcolor="#e58139"] ;
137 -> 139 ;
140 [label="DriverRating <= 3.5\nentropy = 0.47\nsamples = 10\nvalue = [9, 1]\nclass = 0", fillcolor="#e88f4f"] ;
122 -> 140 ;
141 [label="entropy = 0.0\nsamples = 7\nvalue = [7, 0]\nclass = 0", fillcolor="#e58139"] ;
140 -> 141 ;
142 [label="Make <= 11.0\nentropy = 0.92\nsamples = 3\nvalue = [2, 1]\nclass = 0", fillcolor="#f2c09c"] ;
140 -> 142 ;
143 [label="entropy = 0.0\nsamples = 2\nvalue = [2, 0]\nclass = 0", fillcolor="#e58139"] ;
142 -> 143 ;
144 [label="entropy = 0.0\nsamples = 1\nvalue = [0, 1]\nclass = 1", fillcolor="#399de5"] ;
142 -> 144 ;
145 [label="Sex <= 0.5\nentropy = 0.86\nsamples = 7\nvalue = [2, 5]\nclass = 1", fillcolor="#88c4ef"] ;
121 -> 145 ;
146 [label="DriverRating <= 2.0\nentropy = 0.92\nsamples = 3\nvalue = [2, 1]\nclass = 0", fillcolor="#f2c09c"] ;
145 -> 146 ;
147 [label="entropy = 0.0\nsamples = 1\nvalue = [0, 1]\nclass = 1", fillcolor="#399de5"] ;
146 -> 147 ;
148 [label="entropy = 0.0\nsamples = 2\nvalue = [2, 0]\nclass = 0", fillcolor="#e58139"] ;
146 -> 148 ;
149 [label="entropy = 0.0\nsamples = 4\nvalue = [0, 4]\nclass = 1", fillcolor="#399de5"] ;
145 -> 149 ;
150 [label="Make <= 1.0\nentropy = 0.6\nsamples = 48\nvalue = [41, 7]\nclass = 0", fillcolor="#e9975b"] ;
56 -> 150 ;
151 [label="entropy = 0.0\nsamples = 3\nvalue = [0, 3]\nclass = 1", fillcolor="#399de5"] ;
150 -> 151 ;
152 [label="WeekOfMonth <= 2.5\nentropy = 0.43\nsamples = 45\nvalue = [41, 4]\nclass = 0", fillcolor="#e88d4c"] ;
150 -> 152 ;
153 [label="DayOfWeek <= 2.5\nentropy = 0.65\nsamples = 24\nvalue = [20, 4]\nclass = 0", fillcolor="#ea9a61"] ;
152 -> 153 ;
154 [label="entropy = 0.0\nsamples = 10\nvalue = [10, 0]\nclass = 0", fillcolor="#e58139"] ;
153 -> 154 ;
155 [label="DriverRating <= 3.5\nentropy = 0.86\nsamples = 14\nvalue = [10, 4]\nclass = 0", fillcolor="#efb388"] ;
153 -> 155 ;
156 [label="PastNumberOfClaims <= 0.5\nentropy = 0.99\nsamples = 9\nvalue = [5, 4]\nclass = 0", fillcolor="#fae6d7"] ;
155 -> 156 ;
157 [label="entropy = 0.0\nsamples = 3\nvalue = [3, 0]\nclass = 0", fillcolor="#e58139"] ;
156 -> 157 ;
158 [label="NumberOfSuppliments <= 1.5\nentropy = 0.92\nsamples = 6\nvalue = [2, 4]\nclass = 1", fillcolor="#9ccef2"] ;
156 -> 158 ;
159 [label="entropy = 0.0\nsamples = 2\nvalue = [2, 0]\nclass = 0", fillcolor="#e58139"] ;
158 -> 159 ;
160 [label="entropy = 0.0\nsamples = 4\nvalue = [0, 4]\nclass = 1", fillcolor="#399de5"] ;
158 -> 160 ;
161 [label="entropy = 0.0\nsamples = 5\nvalue = [5, 0]\nclass = 0", fillcolor="#e58139"] ;
155 -> 161 ;
162 [label="entropy = 0.0\nsamples = 21\nvalue = [21, 0]\nclass = 0", fillcolor="#e58139"] ;
152 -> 162 ;
163 [label="WeekOfMonthClaimed <= 2.5\nentropy = 0.99\nsamples = 7\nvalue = [3, 4]\nclass = 1", fillcolor="#cee6f8"] ;
55 -> 163 ;
164 [label="entropy = 0.0\nsamples = 2\nvalue = [2, 0]\nclass = 0", fillcolor="#e58139"] ;
163 -> 164 ;
165 [label="Sex <= 0.5\nentropy = 0.72\nsamples = 5\nvalue = [1, 4]\nclass = 1", fillcolor="#6ab6ec"] ;
163 -> 165 ;
166 [label="entropy = 0.0\nsamples = 1\nvalue = [1, 0]\nclass = 0", fillcolor="#e58139"] ;
165 -> 166 ;
167 [label="entropy = 0.0\nsamples = 4\nvalue = [0, 4]\nclass = 1", fillcolor="#399de5"] ;
165 -> 167 ;
168 [label="entropy = 0.0\nsamples = 6\nvalue = [6, 0]\nclass = 0", fillcolor="#e58139"] ;
54 -> 168 ;
169 [label="DayOfWeek <= 2.5\nentropy = 0.54\nsamples = 57\nvalue = [50, 7]\nclass = 0", fillcolor="#e99355"] ;
53 -> 169 ;
170 [label="Age <= 29.5\nentropy = 0.73\nsamples = 34\nvalue = [27, 7]\nclass = 0", fillcolor="#eca26c"] ;
169 -> 170 ;
171 [label="entropy = 0.0\nsamples = 7\nvalue = [7, 0]\nclass = 0", fillcolor="#e58139"] ;
170 -> 171 ;
172 [label="WeekOfMonth <= 1.5\nentropy = 0.83\nsamples = 27\nvalue = [20, 7]\nclass = 0", fillcolor="#eead7e"] ;
170 -> 172 ;
173 [label="entropy = 0.0\nsamples = 6\nvalue = [6, 0]\nclass = 0", fillcolor="#e58139"] ;
172 -> 173 ;
174 [label="PastNumberOfClaims <= 2.5\nentropy = 0.92\nsamples = 21\nvalue = [14, 7]\nclass = 0", fillcolor="#f2c09c"] ;
172 -> 174 ;
175 [label="Age <= 61.5\nentropy = 0.99\nsamples = 16\nvalue = [9, 7]\nclass = 0", fillcolor="#f9e3d3"] ;
174 -> 175 ;
176 [label="WeekOfMonthClaimed <= 3.5\nentropy = 0.94\nsamples = 14\nvalue = [9, 5]\nclass = 0", fillcolor="#f3c7a7"] ;
175 -> 176 ;
177 [label="PastNumberOfClaims <= 0.5\nentropy = 0.99\nsamples = 9\nvalue = [4, 5]\nclass = 1", fillcolor="#d7ebfa"] ;
176 -> 177 ;
178 [label="NumberOfSuppliments <= 1.5\nentropy = 0.72\nsamples = 5\nvalue = [4, 1]\nclass = 0", fillcolor="#eca06a"] ;
177 -> 178 ;
179 [label="entropy = 0.0\nsamples = 1\nvalue = [0, 1]\nclass = 1", fillcolor="#399de5"] ;
178 -> 179 ;
180 [label="entropy = 0.0\nsamples = 4\nvalue = [4, 0]\nclass = 0", fillcolor="#e58139"] ;
178 -> 180 ;
181 [label="entropy = 0.0\nsamples = 4\nvalue = [0, 4]\nclass = 1", fillcolor="#399de5"] ;
177 -> 181 ;
182 [label="entropy = 0.0\nsamples = 5\nvalue = [5, 0]\nclass = 0", fillcolor="#e58139"] ;
176 -> 182 ;
183 [label="entropy = 0.0\nsamples = 2\nvalue = [0, 2]\nclass = 1", fillcolor="#399de5"] ;
175 -> 183 ;
184 [label="entropy = 0.0\nsamples = 5\nvalue = [5, 0]\nclass = 0", fillcolor="#e58139"] ;
174 -> 184 ;
185 [label="entropy = 0.0\nsamples = 23\nvalue = [23, 0]\nclass = 0", fillcolor="#e58139"] ;
169 -> 185 ;
186 [label="AgeOfVehicle <= 3.5\nentropy = 0.36\nsamples = 29\nvalue = [27, 2]\nclass = 0", fillcolor="#e78a48"] ;
52 -> 186 ;
187 [label="Age <= 33.5\nentropy = 0.92\nsamples = 6\nvalue = [4, 2]\nclass = 0", fillcolor="#f2c09c"] ;
186 -> 187 ;
188 [label="entropy = 0.0\nsamples = 3\nvalue = [3, 0]\nclass = 0", fillcolor="#e58139"] ;
187 -> 188 ;
189 [label="MonthClaimed <= 3.5\nentropy = 0.92\nsamples = 3\nvalue = [1, 2]\nclass = 1", fillcolor="#9ccef2"] ;
187 -> 189 ;
190 [label="entropy = 0.0\nsamples = 1\nvalue = [1, 0]\nclass = 0", fillcolor="#e58139"] ;
189 -> 190 ;
191 [label="entropy = 0.0\nsamples = 2\nvalue = [0, 2]\nclass = 1", fillcolor="#399de5"] ;
189 -> 191 ;
192 [label="entropy = 0.0\nsamples = 23\nvalue = [23, 0]\nclass = 0", fillcolor="#e58139"] ;
186 -> 192 ;
193 [label="Age <= 35.5\nentropy = 0.46\nsamples = 52\nvalue = [47, 5]\nclass = 0", fillcolor="#e88e4e"] ;
51 -> 193 ;
194 [label="Month <= 2.5\nentropy = 0.92\nsamples = 15\nvalue = [10, 5]\nclass = 0", fillcolor="#f2c09c"] ;
193 -> 194 ;
195 [label="AgeOfVehicle <= 3.5\nentropy = 0.81\nsamples = 4\nvalue = [1, 3]\nclass = 1", fillcolor="#7bbeee"] ;
194 -> 195 ;
196 [label="entropy = 0.0\nsamples = 1\nvalue = [1, 0]\nclass = 0", fillcolor="#e58139"] ;
195 -> 196 ;
197 [label="entropy = 0.0\nsamples = 3\nvalue = [0, 3]\nclass = 1", fillcolor="#399de5"] ;
195 -> 197 ;
198 [label="WeekOfMonthClaimed <= 2.5\nentropy = 0.68\nsamples = 11\nvalue = [9, 2]\nclass = 0", fillcolor="#eb9d65"] ;
194 -> 198 ;
199 [label="entropy = 0.0\nsamples = 7\nvalue = [7, 0]\nclass = 0", fillcolor="#e58139"] ;
198 -> 199 ;
200 [label="Make <= 11.0\nentropy = 1.0\nsamples = 4\nvalue = [2, 2]\nclass = 0", fillcolor="#ffffff"] ;
198 -> 200 ;
201 [label="entropy = 0.0\nsamples = 2\nvalue = [0, 2]\nclass = 1", fillcolor="#399de5"] ;
200 -> 201 ;
202 [label="entropy = 0.0\nsamples = 2\nvalue = [2, 0]\nclass = 0", fillcolor="#e58139"] ;
200 -> 202 ;
203 [label="entropy = 0.0\nsamples = 37\nvalue = [37, 0]\nclass = 0", fillcolor="#e58139"] ;
193 -> 203 ;
204 [label="entropy = 0.0\nsamples = 3\nvalue = [0, 3]\nclass = 1", fillcolor="#399de5"] ;
48 -> 204 ;
205 [label="entropy = 0.0\nsamples = 16\nvalue = [16, 0]\nclass = 0", fillcolor="#e58139"] ;
47 -> 205 ;
206 [label="NumberOfSuppliments <= 2.5\nentropy = 0.98\nsamples = 34\nvalue = [20, 14]\nclass = 0", fillcolor="#f7d9c4"] ;
46 -> 206 ;
207 [label="PolicyType <= 6.5\nentropy = 0.44\nsamples = 11\nvalue = [10, 1]\nclass = 0", fillcolor="#e88e4d"] ;
206 -> 207 ;
208 [label="entropy = 0.0\nsamples = 10\nvalue = [10, 0]\nclass = 0", fillcolor="#e58139"] ;
207 -> 208 ;
209 [label="entropy = 0.0\nsamples = 1\nvalue = [0, 1]\nclass = 1", fillcolor="#399de5"] ;
207 -> 209 ;
210 [label="DriverRating <= 2.5\nentropy = 0.99\nsamples = 23\nvalue = [10, 13]\nclass = 1", fillcolor="#d1e8f9"] ;
206 -> 210 ;
211 [label="DayOfWeekClaimed <= 0.5\nentropy = 0.5\nsamples = 9\nvalue = [1, 8]\nclass = 1", fillcolor="#52a9e8"] ;
210 -> 211 ;
212 [label="entropy = 0.0\nsamples = 1\nvalue = [1, 0]\nclass = 0", fillcolor="#e58139"] ;
211 -> 212 ;
213 [label="entropy = 0.0\nsamples = 8\nvalue = [0, 8]\nclass = 1", fillcolor="#399de5"] ;
211 -> 213 ;
214 [label="BasePolicy <= 0.5\nentropy = 0.94\nsamples = 14\nvalue = [9, 5]\nclass = 0", fillcolor="#f3c7a7"] ;
210 -> 214 ;
215 [label="entropy = 0.0\nsamples = 5\nvalue = [5, 0]\nclass = 0", fillcolor="#e58139"] ;
214 -> 215 ;
216 [label="Age <= 30.0\nentropy = 0.99\nsamples = 9\nvalue = [4, 5]\nclass = 1", fillcolor="#d7ebfa"] ;
214 -> 216 ;
217 [label="entropy = 0.0\nsamples = 2\nvalue = [2, 0]\nclass = 0", fillcolor="#e58139"] ;
216 -> 217 ;
218 [label="Age <= 49.0\nentropy = 0.86\nsamples = 7\nvalue = [2, 5]\nclass = 1", fillcolor="#88c4ef"] ;
216 -> 218 ;
219 [label="entropy = 0.0\nsamples = 4\nvalue = [0, 4]\nclass = 1", fillcolor="#399de5"] ;
218 -> 219 ;
220 [label="AgeOfPolicyHolder <= 6.5\nentropy = 0.92\nsamples = 3\nvalue = [2, 1]\nclass = 0", fillcolor="#f2c09c"] ;
218 -> 220 ;
221 [label="entropy = 0.0\nsamples = 2\nvalue = [2, 0]\nclass = 0", fillcolor="#e58139"] ;
220 -> 221 ;
222 [label="entropy = 0.0\nsamples = 1\nvalue = [0, 1]\nclass = 1", fillcolor="#399de5"] ;
220 -> 222 ;
223 [label="WeekOfMonth <= 1.5\nentropy = 0.26\nsamples = 45\nvalue = [43, 2]\nclass = 0", fillcolor="#e68742"] ;
45 -> 223 ;
224 [label="VehiclePrice <= 2.0\nentropy = 1.0\nsamples = 4\nvalue = [2, 2]\nclass = 0", fillcolor="#ffffff"] ;
223 -> 224 ;
225 [label="entropy = 0.0\nsamples = 2\nvalue = [2, 0]\nclass = 0", fillcolor="#e58139"] ;
224 -> 225 ;
226 [label="entropy = 0.0\nsamples = 2\nvalue = [0, 2]\nclass = 1", fillcolor="#399de5"] ;
224 -> 226 ;
227 [label="entropy = 0.0\nsamples = 41\nvalue = [41, 0]\nclass = 0", fillcolor="#e58139"] ;
223 -> 227 ;
228 [label="Month <= 6.5\nentropy = 0.35\nsamples = 610\nvalue = [570, 40]\nclass = 0", fillcolor="#e78a47"] ;
44 -> 228 ;
229 [label="entropy = 0.0\nsamples = 276\nvalue = [276, 0]\nclass = 0", fillcolor="#e58139"] ;
228 -> 229 ;
230 [label="Month <= 7.5\nentropy = 0.53\nsamples = 334\nvalue = [294, 40]\nclass = 0", fillcolor="#e99254"] ;
228 -> 230 ;
231 [label="Age <= 34.5\nentropy = 0.77\nsamples = 164\nvalue = [127, 37]\nclass = 0", fillcolor="#eda673"] ;
230 -> 231 ;
232 [label="VehicleCategory <= 0.5\nentropy = 0.55\nsamples = 71\nvalue = [62, 9]\nclass = 0", fillcolor="#e99356"] ;
231 -> 232 ;
233 [label="VehiclePrice <= 0.5\nentropy = 0.43\nsamples = 67\nvalue = [61, 6]\nclass = 0", fillcolor="#e88d4c"] ;
232 -> 233 ;
234 [label="PastNumberOfClaims <= 0.5\nentropy = 0.57\nsamples = 44\nvalue = [38, 6]\nclass = 0", fillcolor="#e99558"] ;
233 -> 234 ;
235 [label="entropy = 0.0\nsamples = 17\nvalue = [17, 0]\nclass = 0", fillcolor="#e58139"] ;
234 -> 235 ;
236 [label="DayOfWeekClaimed <= 5.5\nentropy = 0.76\nsamples = 27\nvalue = [21, 6]\nclass = 0", fillcolor="#eca572"] ;
234 -> 236 ;
237 [label="Age <= 33.5\nentropy = 0.88\nsamples = 20\nvalue = [14, 6]\nclass = 0", fillcolor="#f0b78e"] ;
236 -> 237 ;
238 [label="AgeOfVehicle <= 4.5\nentropy = 0.95\nsamples = 16\nvalue = [10, 6]\nclass = 0", fillcolor="#f5cdb0"] ;
237 -> 238 ;
239 [label="DriverRating <= 1.5\nentropy = 0.92\nsamples = 15\nvalue = [10, 5]\nclass = 0", fillcolor="#f2c09c"] ;
238 -> 239 ;
240 [label="entropy = 0.0\nsamples = 3\nvalue = [3, 0]\nclass = 0", fillcolor="#e58139"] ;
239 -> 240 ;
241 [label="PastNumberOfClaims <= 2.5\nentropy = 0.98\nsamples = 12\nvalue = [7, 5]\nclass = 0", fillcolor="#f8dbc6"] ;
239 -> 241 ;
242 [label="PoliceReportFiled <= 0.5\nentropy = 0.88\nsamples = 10\nvalue = [7, 3]\nclass = 0", fillcolor="#f0b78e"] ;
241 -> 242 ;
243 [label="AgeOfVehicle <= 3.5\nentropy = 0.76\nsamples = 9\nvalue = [7, 2]\nclass = 0", fillcolor="#eca572"] ;
242 -> 243 ;
244 [label="Age <= 26.0\nentropy = 1.0\nsamples = 4\nvalue = [2, 2]\nclass = 0", fillcolor="#ffffff"] ;
243 -> 244 ;
245 [label="entropy = 0.0\nsamples = 2\nvalue = [2, 0]\nclass = 0", fillcolor="#e58139"] ;
244 -> 245 ;
246 [label="entropy = 0.0\nsamples = 2\nvalue = [0, 2]\nclass = 1", fillcolor="#399de5"] ;
244 -> 246 ;
247 [label="entropy = 0.0\nsamples = 5\nvalue = [5, 0]\nclass = 0", fillcolor="#e58139"] ;
243 -> 247 ;
248 [label="entropy = 0.0\nsamples = 1\nvalue = [0, 1]\nclass = 1", fillcolor="#399de5"] ;
242 -> 248 ;
249 [label="entropy = 0.0\nsamples = 2\nvalue = [0, 2]\nclass = 1", fillcolor="#399de5"] ;
241 -> 249 ;
250 [label="entropy = 0.0\nsamples = 1\nvalue = [0, 1]\nclass = 1", fillcolor="#399de5"] ;
238 -> 250 ;
251 [label="entropy = 0.0\nsamples = 4\nvalue = [4, 0]\nclass = 0", fillcolor="#e58139"] ;
237 -> 251 ;
252 [label="entropy = 0.0\nsamples = 7\nvalue = [7, 0]\nclass = 0", fillcolor="#e58139"] ;
236 -> 252 ;
253 [label="entropy = 0.0\nsamples = 23\nvalue = [23, 0]\nclass = 0", fillcolor="#e58139"] ;
233 -> 253 ;
254 [label="DriverRating <= 3.5\nentropy = 0.81\nsamples = 4\nvalue = [1, 3]\nclass = 1", fillcolor="#7bbeee"] ;
232 -> 254 ;
255 [label="entropy = 0.0\nsamples = 3\nvalue = [0, 3]\nclass = 1", fillcolor="#399de5"] ;
254 -> 255 ;
256 [label="entropy = 0.0\nsamples = 1\nvalue = [1, 0]\nclass = 0", fillcolor="#e58139"] ;
254 -> 256 ;
257 [label="DriverRating <= 1.5\nentropy = 0.88\nsamples = 93\nvalue = [65, 28]\nclass = 0", fillcolor="#f0b78e"] ;
231 -> 257 ;
258 [label="DayOfWeek <= 5.5\nentropy = 1.0\nsamples = 19\nvalue = [9, 10]\nclass = 1", fillcolor="#ebf5fc"] ;
257 -> 258 ;
259 [label="NumberOfSuppliments <= 2.5\nentropy = 0.97\nsamples = 15\nvalue = [9, 6]\nclass = 0", fillcolor="#f6d5bd"] ;
258 -> 259 ;
260 [label="entropy = 0.0\nsamples = 5\nvalue = [5, 0]\nclass = 0", fillcolor="#e58139"] ;
259 -> 260 ;
261 [label="PastNumberOfClaims <= 1.5\nentropy = 0.97\nsamples = 10\nvalue = [4, 6]\nclass = 1", fillcolor="#bddef6"] ;
259 -> 261 ;
262 [label="DayOfWeek <= 1.0\nentropy = 0.92\nsamples = 6\nvalue = [4, 2]\nclass = 0", fillcolor="#f2c09c"] ;
261 -> 262 ;
263 [label="AgeOfPolicyHolder <= 6.0\nentropy = 0.92\nsamples = 3\nvalue = [1, 2]\nclass = 1", fillcolor="#9ccef2"] ;
262 -> 263 ;
264 [label="entropy = 0.0\nsamples = 2\nvalue = [0, 2]\nclass = 1", fillcolor="#399de5"] ;
263 -> 264 ;
265 [label="entropy = 0.0\nsamples = 1\nvalue = [1, 0]\nclass = 0", fillcolor="#e58139"] ;
263 -> 265 ;
266 [label="entropy = 0.0\nsamples = 3\nvalue = [3, 0]\nclass = 0", fillcolor="#e58139"] ;
262 -> 266 ;
267 [label="entropy = 0.0\nsamples = 4\nvalue = [0, 4]\nclass = 1", fillcolor="#399de5"] ;
261 -> 267 ;
268 [label="entropy = 0.0\nsamples = 4\nvalue = [0, 4]\nclass = 1", fillcolor="#399de5"] ;
258 -> 268 ;
269 [label="PolicyType <= 0.5\nentropy = 0.8\nsamples = 74\nvalue = [56, 18]\nclass = 0", fillcolor="#edaa79"] ;
257 -> 269 ;
270 [label="Make <= 1.0\nentropy = 0.23\nsamples = 27\nvalue = [26, 1]\nclass = 0", fillcolor="#e68641"] ;
269 -> 270 ;
271 [label="WeekOfMonth <= 3.0\nentropy = 1.0\nsamples = 2\nvalue = [1, 1]\nclass = 0", fillcolor="#ffffff"] ;
270 -> 271 ;
272 [label="entropy = 0.0\nsamples = 1\nvalue = [0, 1]\nclass = 1", fillcolor="#399de5"] ;
271 -> 272 ;
273 [label="entropy = 0.0\nsamples = 1\nvalue = [1, 0]\nclass = 0", fillcolor="#e58139"] ;
271 -> 273 ;
274 [label="entropy = 0.0\nsamples = 25\nvalue = [25, 0]\nclass = 0", fillcolor="#e58139"] ;
270 -> 274 ;
275 [label="DriverRating <= 2.5\nentropy = 0.94\nsamples = 47\nvalue = [30, 17]\nclass = 0", fillcolor="#f4c8a9"] ;
269 -> 275 ;
276 [label="Sex <= 0.5\nentropy = 0.5\nsamples = 18\nvalue = [16, 2]\nclass = 0", fillcolor="#e89152"] ;
275 -> 276 ;
277 [label="entropy = 0.0\nsamples = 1\nvalue = [0, 1]\nclass = 1", fillcolor="#399de5"] ;
276 -> 277 ;
278 [label="Make <= 3.5\nentropy = 0.32\nsamples = 17\nvalue = [16, 1]\nclass = 0", fillcolor="#e78945"] ;
276 -> 278 ;
279 [label="DayOfWeekClaimed <= 2.5\nentropy = 0.92\nsamples = 3\nvalue = [2, 1]\nclass = 0", fillcolor="#f2c09c"] ;
278 -> 279 ;
280 [label="entropy = 0.0\nsamples = 1\nvalue = [0, 1]\nclass = 1", fillcolor="#399de5"] ;
279 -> 280 ;
281 [label="entropy = 0.0\nsamples = 2\nvalue = [2, 0]\nclass = 0", fillcolor="#e58139"] ;
279 -> 281 ;
282 [label="entropy = 0.0\nsamples = 14\nvalue = [14, 0]\nclass = 0", fillcolor="#e58139"] ;
278 -> 282 ;
283 [label="DayOfWeekClaimed <= 2.5\nentropy = 1.0\nsamples = 29\nvalue = [14, 15]\nclass = 1", fillcolor="#f2f8fd"] ;
275 -> 283 ;
284 [label="Make <= 5.5\nentropy = 0.81\nsamples = 8\nvalue = [6, 2]\nclass = 0", fillcolor="#eeab7b"] ;
283 -> 284 ;
285 [label="entropy = 0.0\nsamples = 4\nvalue = [4, 0]\nclass = 0", fillcolor="#e58139"] ;
284 -> 285 ;
286 [label="Age <= 42.5\nentropy = 1.0\nsamples = 4\nvalue = [2, 2]\nclass = 0", fillcolor="#ffffff"] ;
284 -> 286 ;
287 [label="entropy = 0.0\nsamples = 2\nvalue = [0, 2]\nclass = 1", fillcolor="#399de5"] ;
286 -> 287 ;
288 [label="entropy = 0.0\nsamples = 2\nvalue = [2, 0]\nclass = 0", fillcolor="#e58139"] ;
286 -> 288 ;
289 [label="DayOfWeekClaimed <= 4.5\nentropy = 0.96\nsamples = 21\nvalue = [8, 13]\nclass = 1", fillcolor="#b3d9f5"] ;
283 -> 289 ;
290 [label="entropy = 0.0\nsamples = 5\nvalue = [0, 5]\nclass = 1", fillcolor="#399de5"] ;
289 -> 290 ;
291 [label="Make <= 7.5\nentropy = 1.0\nsamples = 16\nvalue = [8, 8]\nclass = 0", fillcolor="#ffffff"] ;
289 -> 291 ;
292 [label="entropy = 0.0\nsamples = 2\nvalue = [0, 2]\nclass = 1", fillcolor="#399de5"] ;
291 -> 292 ;
293 [label="AgeOfVehicle <= 4.5\nentropy = 0.99\nsamples = 14\nvalue = [8, 6]\nclass = 0", fillcolor="#f8e0ce"] ;
291 -> 293 ;
294 [label="entropy = 0.0\nsamples = 2\nvalue = [0, 2]\nclass = 1", fillcolor="#399de5"] ;
293 -> 294 ;
295 [label="DriverRating <= 3.5\nentropy = 0.92\nsamples = 12\nvalue = [8, 4]\nclass = 0", fillcolor="#f2c09c"] ;
293 -> 295 ;
296 [label="DayOfWeek <= 4.0\nentropy = 0.97\nsamples = 5\nvalue = [2, 3]\nclass = 1", fillcolor="#bddef6"] ;
295 -> 296 ;
297 [label="PastNumberOfClaims <= 1.5\nentropy = 0.92\nsamples = 3\nvalue = [2, 1]\nclass = 0", fillcolor="#f2c09c"] ;
296 -> 297 ;
298 [label="entropy = 0.0\nsamples = 1\nvalue = [0, 1]\nclass = 1", fillcolor="#399de5"] ;
297 -> 298 ;
299 [label="entropy = 0.0\nsamples = 2\nvalue = [2, 0]\nclass = 0", fillcolor="#e58139"] ;
297 -> 299 ;
300 [label="entropy = 0.0\nsamples = 2\nvalue = [0, 2]\nclass = 1", fillcolor="#399de5"] ;
296 -> 300 ;
301 [label="DayOfWeekClaimed <= 5.5\nentropy = 0.59\nsamples = 7\nvalue = [6, 1]\nclass = 0", fillcolor="#e9965a"] ;
295 -> 301 ;
302 [label="AgeOfVehicle <= 5.5\nentropy = 1.0\nsamples = 2\nvalue = [1, 1]\nclass = 0", fillcolor="#ffffff"] ;
301 -> 302 ;
303 [label="entropy = 0.0\nsamples = 1\nvalue = [1, 0]\nclass = 0", fillcolor="#e58139"] ;
302 -> 303 ;
304 [label="entropy = 0.0\nsamples = 1\nvalue = [0, 1]\nclass = 1", fillcolor="#399de5"] ;
302 -> 304 ;
305 [label="entropy = 0.0\nsamples = 5\nvalue = [5, 0]\nclass = 0", fillcolor="#e58139"] ;
301 -> 305 ;
306 [label="Month <= 8.5\nentropy = 0.13\nsamples = 170\nvalue = [167, 3]\nclass = 0", fillcolor="#e5833d"] ;
230 -> 306 ;
307 [label="entropy = 0.0\nsamples = 149\nvalue = [149, 0]\nclass = 0", fillcolor="#e58139"] ;
306 -> 307 ;
308 [label="Age <= 62.0\nentropy = 0.59\nsamples = 21\nvalue = [18, 3]\nclass = 0", fillcolor="#e9965a"] ;
306 -> 308 ;
309 [label="PolicyType <= 0.5\nentropy = 0.47\nsamples = 20\nvalue = [18, 2]\nclass = 0", fillcolor="#e88f4f"] ;
308 -> 309 ;
310 [label="AgeOfVehicle <= 4.5\nentropy = 0.68\nsamples = 11\nvalue = [9, 2]\nclass = 0", fillcolor="#eb9d65"] ;
309 -> 310 ;
311 [label="entropy = 0.0\nsamples = 1\nvalue = [0, 1]\nclass = 1", fillcolor="#399de5"] ;
310 -> 311 ;
312 [label="DriverRating <= 3.5\nentropy = 0.47\nsamples = 10\nvalue = [9, 1]\nclass = 0", fillcolor="#e88f4f"] ;
310 -> 312 ;
313 [label="entropy = 0.0\nsamples = 7\nvalue = [7, 0]\nclass = 0", fillcolor="#e58139"] ;
312 -> 313 ;
314 [label="NumberOfSuppliments <= 2.5\nentropy = 0.92\nsamples = 3\nvalue = [2, 1]\nclass = 0", fillcolor="#f2c09c"] ;
312 -> 314 ;
315 [label="entropy = 0.0\nsamples = 2\nvalue = [2, 0]\nclass = 0", fillcolor="#e58139"] ;
314 -> 315 ;
316 [label="entropy = 0.0\nsamples = 1\nvalue = [0, 1]\nclass = 1", fillcolor="#399de5"] ;
314 -> 316 ;
317 [label="entropy = 0.0\nsamples = 9\nvalue = [9, 0]\nclass = 0", fillcolor="#e58139"] ;
309 -> 317 ;
318 [label="entropy = 0.0\nsamples = 1\nvalue = [0, 1]\nclass = 1", fillcolor="#399de5"] ;
308 -> 318 ;
319 [label="AddressChange_Claim <= 1.5\nentropy = 0.09\nsamples = 759\nvalue = [750, 9]\nclass = 0", fillcolor="#e5833b"] ;
1 -> 319 ;
320 [label="Deductible <= 450.0\nentropy = 0.99\nsamples = 21\nvalue = [12, 9]\nclass = 0", fillcolor="#f8e0ce"] ;
319 -> 320 ;
321 [label="entropy = 0.0\nsamples = 9\nvalue = [9, 0]\nclass = 0", fillcolor="#e58139"] ;
320 -> 321 ;
322 [label="AgeOfPolicyHolder <= 5.5\nentropy = 0.81\nsamples = 12\nvalue = [3, 9]\nclass = 1", fillcolor="#7bbeee"] ;
320 -> 322 ;
323 [label="entropy = 0.0\nsamples = 9\nvalue = [0, 9]\nclass = 1", fillcolor="#399de5"] ;
322 -> 323 ;
324 [label="entropy = 0.0\nsamples = 3\nvalue = [3, 0]\nclass = 0", fillcolor="#e58139"] ;
322 -> 324 ;
325 [label="entropy = 0.0\nsamples = 738\nvalue = [738, 0]\nclass = 0", fillcolor="#e58139"] ;
319 -> 325 ;
326 [label="Make <= 10.0\nentropy = 0.02\nsamples = 1226\nvalue = [1223, 3]\nclass = 0", fillcolor="#e58139"] ;
0 -> 326 [labeldistance=2.5, labelangle=-45, headlabel="False"] ;
327 [label="entropy = 0.0\nsamples = 664\nvalue = [664, 0]\nclass = 0", fillcolor="#e58139"] ;
326 -> 327 ;
328 [label="Make <= 11.5\nentropy = 0.05\nsamples = 562\nvalue = [559, 3]\nclass = 0", fillcolor="#e5823a"] ;
326 -> 328 ;
329 [label="AgeOfVehicle <= 3.5\nentropy = 1.0\nsamples = 2\nvalue = [1, 1]\nclass = 0", fillcolor="#ffffff"] ;
328 -> 329 ;
330 [label="entropy = 0.0\nsamples = 1\nvalue = [0, 1]\nclass = 1", fillcolor="#399de5"] ;
329 -> 330 ;
331 [label="entropy = 0.0\nsamples = 1\nvalue = [1, 0]\nclass = 0", fillcolor="#e58139"] ;
329 -> 331 ;
332 [label="DriverRating <= 2.5\nentropy = 0.03\nsamples = 560\nvalue = [558, 2]\nclass = 0", fillcolor="#e5813a"] ;
328 -> 332 ;
333 [label="DriverRating <= 1.5\nentropy = 0.06\nsamples = 291\nvalue = [289, 2]\nclass = 0", fillcolor="#e5823a"] ;
332 -> 333 ;
334 [label="entropy = 0.0\nsamples = 147\nvalue = [147, 0]\nclass = 0", fillcolor="#e58139"] ;
333 -> 334 ;
335 [label="Age <= 37.5\nentropy = 0.11\nsamples = 144\nvalue = [142, 2]\nclass = 0", fillcolor="#e5833c"] ;
333 -> 335 ;
336 [label="entropy = 0.0\nsamples = 67\nvalue = [67, 0]\nclass = 0", fillcolor="#e58139"] ;
335 -> 336 ;
337 [label="WeekOfMonthClaimed <= 4.5\nentropy = 0.17\nsamples = 77\nvalue = [75, 2]\nclass = 0", fillcolor="#e6843e"] ;
335 -> 337 ;
338 [label="PastNumberOfClaims <= 0.5\nentropy = 0.1\nsamples = 73\nvalue = [72, 1]\nclass = 0", fillcolor="#e5833c"] ;
337 -> 338 ;
339 [label="WeekOfMonth <= 1.5\nentropy = 0.39\nsamples = 13\nvalue = [12, 1]\nclass = 0", fillcolor="#e78c49"] ;
338 -> 339 ;
340 [label="entropy = 0.0\nsamples = 1\nvalue = [0, 1]\nclass = 1", fillcolor="#399de5"] ;
339 -> 340 ;
341 [label="entropy = 0.0\nsamples = 12\nvalue = [12, 0]\nclass = 0", fillcolor="#e58139"] ;
339 -> 341 ;
342 [label="entropy = 0.0\nsamples = 60\nvalue = [60, 0]\nclass = 0", fillcolor="#e58139"] ;
338 -> 342 ;
343 [label="WeekOfMonth <= 4.5\nentropy = 0.81\nsamples = 4\nvalue = [3, 1]\nclass = 0", fillcolor="#eeab7b"] ;
337 -> 343 ;
344 [label="entropy = 0.0\nsamples = 1\nvalue = [0, 1]\nclass = 1", fillcolor="#399de5"] ;
343 -> 344 ;
345 [label="entropy = 0.0\nsamples = 3\nvalue = [3, 0]\nclass = 0", fillcolor="#e58139"] ;
343 -> 345 ;
346 [label="entropy = 0.0\nsamples = 269\nvalue = [269, 0]\nclass = 0", fillcolor="#e58139"] ;
332 -> 346 ;
}