digraph Tree {
node [shape=box, style="filled, rounded", color="black", fontname=helvetica] ;
edge [fontname=helvetica] ;
0 [label="BasePolicy <= 1.5\nentropy = 0.42\nsamples = 3500\nvalue = [3201, 299]\nclass = 0", fillcolor="#e78d4b"] ;
1 [label="Fault <= 0.5\nentropy = 0.53\nsamples = 2401\nvalue = [2114, 287]\nclass = 0", fillcolor="#e99254"] ;
0 -> 1 [labeldistance=2.5, labelangle=45, headlabel="True"] ;
2 [label="PolicyType <= 0.5\nentropy = 0.67\nsamples = 1604\nvalue = [1326, 278]\nclass = 0", fillcolor="#ea9b63"] ;
1 -> 2 ;
3 [label="Age <= 9.0\nentropy = 0.79\nsamples = 638\nvalue = [487, 151]\nclass = 0", fillcolor="#eda876"] ;
2 -> 3 ;
4 [label="AccidentArea <= 0.5\nentropy = 1.0\nsamples = 41\nvalue = [21, 20]\nclass = 0", fillcolor="#fef9f6"] ;
3 -> 4 ;
5 [label="entropy = 0.0\nsamples = 4\nvalue = [4, 0]\nclass = 0", fillcolor="#e58139"] ;
4 -> 5 ;
6 [label="WeekOfMonth <= 1.5\nentropy = 1.0\nsamples = 37\nvalue = [17, 20]\nclass = 1", fillcolor="#e1f0fb"] ;
4 -> 6 ;
7 [label="DriverRating <= 2.5\nentropy = 0.68\nsamples = 11\nvalue = [2, 9]\nclass = 1", fillcolor="#65b3eb"] ;
6 -> 7 ;
8 [label="DayOfWeek <= 2.5\nentropy = 0.92\nsamples = 6\nvalue = [2, 4]\nclass = 1", fillcolor="#9ccef2"] ;
7 -> 8 ;
9 [label="entropy = 0.0\nsamples = 3\nvalue = [0, 3]\nclass = 1", fillcolor="#399de5"] ;
8 -> 9 ;
10 [label="MonthClaimed <= 4.0\nentropy = 0.92\nsamples = 3\nvalue = [2, 1]\nclass = 0", fillcolor="#f2c09c"] ;
8 -> 10 ;
11 [label="entropy = 0.0\nsamples = 1\nvalue = [1, 0]\nclass = 0", fillcolor="#e58139"] ;
10 -> 11 ;
12 [label="DayOfWeekClaimed <= 2.5\nentropy = 1.0\nsamples = 2\nvalue = [1, 1]\nclass = 0", fillcolor="#ffffff"] ;
10 -> 12 ;
13 [label="entropy = 0.0\nsamples = 1\nvalue = [1, 0]\nclass = 0", fillcolor="#e58139"] ;
12 -> 13 ;
14 [label="entropy = 0.0\nsamples = 1\nvalue = [0, 1]\nclass = 1", fillcolor="#399de5"] ;
12 -> 14 ;
15 [label="entropy = 0.0\nsamples = 5\nvalue = [0, 5]\nclass = 1", fillcolor="#399de5"] ;
7 -> 15 ;
16 [label="WeekOfMonth <= 3.5\nentropy = 0.98\nsamples = 26\nvalue = [15, 11]\nclass = 0", fillcolor="#f8ddca"] ;
6 -> 16 ;
17 [label="DayOfWeek <= 4.0\nentropy = 0.41\nsamples = 12\nvalue = [11, 1]\nclass = 0", fillcolor="#e78c4b"] ;
16 -> 17 ;
18 [label="entropy = 0.0\nsamples = 11\nvalue = [11, 0]\nclass = 0", fillcolor="#e58139"] ;
17 -> 18 ;
19 [label="entropy = 0.0\nsamples = 1\nvalue = [0, 1]\nclass = 1", fillcolor="#399de5"] ;
17 -> 19 ;
20 [label="WeekOfMonthClaimed <= 3.5\nentropy = 0.86\nsamples = 14\nvalue = [4, 10]\nclass = 1", fillcolor="#88c4ef"] ;
16 -> 20 ;
21 [label="Month <= 1.0\nentropy = 1.0\nsamples = 8\nvalue = [4, 4]\nclass = 0", fillcolor="#ffffff"] ;
20 -> 21 ;
22 [label="entropy = 0.0\nsamples = 2\nvalue = [0, 2]\nclass = 1", fillcolor="#399de5"] ;
21 -> 22 ;
23 [label="DayOfWeek <= 0.5\nentropy = 0.92\nsamples = 6\nvalue = [4, 2]\nclass = 0", fillcolor="#f2c09c"] ;
21 -> 23 ;
24 [label="entropy = 0.0\nsamples = 1\nvalue = [0, 1]\nclass = 1", fillcolor="#399de5"] ;
23 -> 24 ;
25 [label="MonthClaimed <= 3.5\nentropy = 0.72\nsamples = 5\nvalue = [4, 1]\nclass = 0", fillcolor="#eca06a"] ;
23 -> 25 ;
26 [label="DayOfWeekClaimed <= 5.0\nentropy = 1.0\nsamples = 2\nvalue = [1, 1]\nclass = 0", fillcolor="#ffffff"] ;
25 -> 26 ;
27 [label="entropy = 0.0\nsamples = 1\nvalue = [1, 0]\nclass = 0", fillcolor="#e58139"] ;
26 -> 27 ;
28 [label="entropy = 0.0\nsamples = 1\nvalue = [0, 1]\nclass = 1", fillcolor="#399de5"] ;
26 -> 28 ;
29 [label="entropy = 0.0\nsamples = 3\nvalue = [3, 0]\nclass = 0", fillcolor="#e58139"] ;
25 -> 29 ;
30 [label="entropy = 0.0\nsamples = 6\nvalue = [0, 6]\nclass = 1", fillcolor="#399de5"] ;
20 -> 30 ;
31 [label="AddressChange_Claim <= 3.5\nentropy = 0.76\nsamples = 597\nvalue = [466, 131]\nclass = 0", fillcolor="#eca471"] ;
3 -> 31 ;
32 [label="Age <= 40.5\nentropy = 0.75\nsamples = 594\nvalue = [466, 128]\nclass = 0", fillcolor="#eca46f"] ;
31 -> 32 ;
33 [label="MaritalStatus <= 0.5\nentropy = 0.83\nsamples = 300\nvalue = [221, 79]\nclass = 0", fillcolor="#eeae80"] ;
32 -> 33 ;
34 [label="entropy = 0.0\nsamples = 2\nvalue = [0, 2]\nclass = 1", fillcolor="#399de5"] ;
33 -> 34 ;
35 [label="Make <= 17.5\nentropy = 0.82\nsamples = 298\nvalue = [221, 77]\nclass = 0", fillcolor="#eead7e"] ;
33 -> 35 ;
36 [label="PoliceReportFiled <= 0.5\nentropy = 0.83\nsamples = 290\nvalue = [213, 77]\nclass = 0", fillcolor="#eeaf81"] ;
35 -> 36 ;
37 [label="Age <= 27.5\nentropy = 0.84\nsamples = 283\nvalue = [206, 77]\nclass = 0", fillcolor="#efb083"] ;
36 -> 37 ;
38 [label="MonthClaimed <= 6.5\nentropy = 0.66\nsamples = 59\nvalue = [49, 10]\nclass = 0", fillcolor="#ea9b61"] ;
37 -> 38 ;
39 [label="MonthClaimed <= 5.5\nentropy = 0.83\nsamples = 38\nvalue = [28, 10]\nclass = 0", fillcolor="#eeae80"] ;
38 -> 39 ;
40 [label="Make <= 16.5\nentropy = 0.65\nsamples = 30\nvalue = [25, 5]\nclass = 0", fillcolor="#ea9a61"] ;
39 -> 40 ;
41 [label="WeekOfMonth <= 1.5\nentropy = 0.81\nsamples = 20\nvalue = [15, 5]\nclass = 0", fillcolor="#eeab7b"] ;
40 -> 41 ;
42 [label="entropy = 0.0\nsamples = 7\nvalue = [7, 0]\nclass = 0", fillcolor="#e58139"] ;
41 -> 42 ;
43 [label="Make <= 3.5\nentropy = 0.96\nsamples = 13\nvalue = [8, 5]\nclass = 0", fillcolor="#f5d0b5"] ;
41 -> 43 ;
44 [label="entropy = 0.0\nsamples = 2\nvalue = [0, 2]\nclass = 1", fillcolor="#399de5"] ;
43 -> 44 ;
45 [label="WeekOfMonthClaimed <= 2.5\nentropy = 0.85\nsamples = 11\nvalue = [8, 3]\nclass = 0", fillcolor="#efb083"] ;
43 -> 45 ;
46 [label="entropy = 0.0\nsamples = 5\nvalue = [5, 0]\nclass = 0", fillcolor="#e58139"] ;
45 -> 46 ;
47 [label="Make <= 9.5\nentropy = 1.0\nsamples = 6\nvalue = [3, 3]\nclass = 0", fillcolor="#ffffff"] ;
45 -> 47 ;
48 [label="entropy = 0.0\nsamples = 2\nvalue = [2, 0]\nclass = 0", fillcolor="#e58139"] ;
47 -> 48 ;
49 [label="MaritalStatus <= 1.5\nentropy = 0.81\nsamples = 4\nvalue = [1, 3]\nclass = 1", fillcolor="#7bbeee"] ;
47 -> 49 ;
50 [label="entropy = 0.0\nsamples = 1\nvalue = [1, 0]\nclass = 0", fillcolor="#e58139"] ;
49 -> 50 ;
51 [label="entropy = 0.0\nsamples = 3\nvalue = [0, 3]\nclass = 1", fillcolor="#399de5"] ;
49 -> 51 ;
52 [label="entropy = 0.0\nsamples = 10\nvalue = [10, 0]\nclass = 0", fillcolor="#e58139"] ;
40 -> 52 ;
53 [label="PastNumberOfClaims <= 1.5\nentropy = 0.95\nsamples = 8\nvalue = [3, 5]\nclass = 1", fillcolor="#b0d8f5"] ;
39 -> 53 ;
54 [label="VehiclePrice <= 2.0\nentropy = 0.81\nsamples = 4\nvalue = [3, 1]\nclass = 0", fillcolor="#eeab7b"] ;
53 -> 54 ;
55 [label="entropy = 0.0\nsamples = 3\nvalue = [3, 0]\nclass = 0", fillcolor="#e58139"] ;
54 -> 55 ;
56 [label="entropy = 0.0\nsamples = 1\nvalue = [0, 1]\nclass = 1", fillcolor="#399de5"] ;
54 -> 56 ;
57 [label="entropy = 0.0\nsamples = 4\nvalue = [0, 4]\nclass = 1", fillcolor="#399de5"] ;
53 -> 57 ;
58 [label="entropy = 0.0\nsamples = 21\nvalue = [21, 0]\nclass = 0", fillcolor="#e58139"] ;
38 -> 58 ;
59 [label="NumberOfCars <= 1.5\nentropy = 0.88\nsamples = 224\nvalue = [157, 67]\nclass = 0", fillcolor="#f0b78d"] ;
37 -> 59 ;
60 [label="VehiclePrice <= 1.5\nentropy = 0.89\nsamples = 219\nvalue = [152, 67]\nclass = 0", fillcolor="#f0b990"] ;
59 -> 60 ;
61 [label="MonthClaimed <= 3.5\nentropy = 0.93\nsamples = 140\nvalue = [91, 49]\nclass = 0", fillcolor="#f3c5a4"] ;
60 -> 61 ;
62 [label="NumberOfSuppliments <= 0.5\nentropy = 1.0\nsamples = 40\nvalue = [19, 21]\nclass = 1", fillcolor="#ecf6fd"] ;
61 -> 62 ;
63 [label="entropy = 0.0\nsamples = 4\nvalue = [0, 4]\nclass = 1", fillcolor="#399de5"] ;
62 -> 63 ;
64 [label="DayOfWeekClaimed <= 5.5\nentropy = 1.0\nsamples = 36\nvalue = [19, 17]\nclass = 0", fillcolor="#fcf2ea"] ;
62 -> 64 ;
65 [label="Month <= 5.5\nentropy = 0.99\nsamples = 28\nvalue = [12, 16]\nclass = 1", fillcolor="#cee6f8"] ;
64 -> 65 ;
66 [label="DriverRating <= 2.5\nentropy = 0.88\nsamples = 20\nvalue = [6, 14]\nclass = 1", fillcolor="#8ec7f0"] ;
65 -> 66 ;
67 [label="AccidentArea <= 0.5\nentropy = 0.99\nsamples = 14\nvalue = [6, 8]\nclass = 1", fillcolor="#cee6f8"] ;
66 -> 67 ;
68 [label="entropy = 0.0\nsamples = 5\nvalue = [0, 5]\nclass = 1", fillcolor="#399de5"] ;
67 -> 68 ;
69 [label="DriverRating <= 1.5\nentropy = 0.92\nsamples = 9\nvalue = [6, 3]\nclass = 0", fillcolor="#f2c09c"] ;
67 -> 69 ;
70 [label="entropy = 0.0\nsamples = 2\nvalue = [0, 2]\nclass = 1", fillcolor="#399de5"] ;
69 -> 70 ;
71 [label="Month <= 3.5\nentropy = 0.59\nsamples = 7\nvalue = [6, 1]\nclass = 0", fillcolor="#e9965a"] ;
69 -> 71 ;
72 [label="entropy = 0.0\nsamples = 5\nvalue = [5, 0]\nclass = 0", fillcolor="#e58139"] ;
71 -> 72 ;
73 [label="AgeOfVehicle <= 4.5\nentropy = 1.0\nsamples = 2\nvalue = [1, 1]\nclass = 0", fillcolor="#ffffff"] ;
71 -> 73 ;
74 [label="entropy = 0.0\nsamples = 1\nvalue = [0, 1]\nclass = 1", fillcolor="#399de5"] ;
73 -> 74 ;
75 [label="entropy = 0.0\nsamples = 1\nvalue = [1, 0]\nclass = 0", fillcolor="#e58139"] ;
73 -> 75 ;
76 [label="entropy = 0.0\nsamples = 6\nvalue = [0, 6]\nclass = 1", fillcolor="#399de5"] ;
66 -> 76 ;
77 [label="DriverRating <= 2.5\nentropy = 0.81\nsamples = 8\nvalue = [6, 2]\nclass = 0", fillcolor="#eeab7b"] ;
65 -> 77 ;
78 [label="PastNumberOfClaims <= 0.5\nentropy = 1.0\nsamples = 4\nvalue = [2, 2]\nclass = 0", fillcolor="#ffffff"] ;
77 -> 78 ;
79 [label="entropy = 0.0\nsamples = 2\nvalue = [2, 0]\nclass = 0", fillcolor="#e58139"] ;
78 -> 79 ;
80 [label="entropy = 0.0\nsamples = 2\nvalue = [0, 2]\nclass = 1", fillcolor="#399de5"] ;
78 -> 80 ;
81 [label="entropy = 0.0\nsamples = 4\nvalue = [4, 0]\nclass = 0", fillcolor="#e58139"] ;
77 -> 81 ;
82 [label="DriverRating <= 3.5\nentropy = 0.54\nsamples = 8\nvalue = [7, 1]\nclass = 0", fillcolor="#e99355"] ;
64 -> 82 ;
83 [label="entropy = 0.0\nsamples = 7\nvalue = [7, 0]\nclass = 0", fillcolor="#e58139"] ;
82 -> 83 ;
84 [label="entropy = 0.0\nsamples = 1\nvalue = [0, 1]\nclass = 1", fillcolor="#399de5"] ;
82 -> 84 ;
85 [label="Deductible <= 450.0\nentropy = 0.86\nsamples = 100\nvalue = [72, 28]\nclass = 0", fillcolor="#efb286"] ;
61 -> 85 ;
86 [label="NumberOfCars <= 0.5\nentropy = 0.83\nsamples = 96\nvalue = [71, 25]\nclass = 0", fillcolor="#eead7f"] ;
85 -> 86 ;
87 [label="DayOfWeek <= 5.5\nentropy = 0.8\nsamples = 94\nvalue = [71, 23]\nclass = 0", fillcolor="#edaa79"] ;
86 -> 87 ;
88 [label="Month <= 7.5\nentropy = 0.75\nsamples = 83\nvalue = [65, 18]\nclass = 0", fillcolor="#eca470"] ;
87 -> 88 ;
89 [label="AgeOfVehicle <= 3.5\nentropy = 0.67\nsamples = 69\nvalue = [57, 12]\nclass = 0", fillcolor="#ea9c63"] ;
88 -> 89 ;
90 [label="entropy = 0.0\nsamples = 11\nvalue = [11, 0]\nclass = 0", fillcolor="#e58139"] ;
89 -> 90 ;
91 [label="MonthClaimed <= 6.5\nentropy = 0.74\nsamples = 58\nvalue = [46, 12]\nclass = 0", fillcolor="#eca26d"] ;
89 -> 91 ;
92 [label="Month <= 1.0\nentropy = 0.88\nsamples = 33\nvalue = [23, 10]\nclass = 0", fillcolor="#f0b88f"] ;
91 -> 92 ;
93 [label="entropy = 0.0\nsamples = 2\nvalue = [0, 2]\nclass = 1", fillcolor="#399de5"] ;
92 -> 93 ;
94 [label="Age <= 36.5\nentropy = 0.82\nsamples = 31\nvalue = [23, 8]\nclass = 0", fillcolor="#eead7e"] ;
92 -> 94 ;
95 [label="DayOfWeekClaimed <= 2.5\nentropy = 0.59\nsamples = 21\nvalue = [18, 3]\nclass = 0", fillcolor="#e9965a"] ;
94 -> 95 ;
96 [label="MaritalStatus <= 1.5\nentropy = 0.99\nsamples = 7\nvalue = [4, 3]\nclass = 0", fillcolor="#f8e0ce"] ;
95 -> 96 ;
97 [label="entropy = 0.0\nsamples = 3\nvalue = [3, 0]\nclass = 0", fillcolor="#e58139"] ;
96 -> 97 ;
98 [label="Month <= 4.0\nentropy = 0.81\nsamples = 4\nvalue = [1, 3]\nclass = 1", fillcolor="#7bbeee"] ;
96 -> 98 ;
99 [label="entropy = 0.0\nsamples = 1\nvalue = [1, 0]\nclass = 0", fillcolor="#e58139"] ;
98 -> 99 ;
100 [label="entropy = 0.0\nsamples = 3\nvalue = [0, 3]\nclass = 1", fillcolor="#399de5"] ;
98 -> 100 ;
101 [label="entropy = 0.0\nsamples = 14\nvalue = [14, 0]\nclass = 0", fillcolor="#e58139"] ;
95 -> 101 ;
102 [label="DayOfWeekClaimed <= 5.5\nentropy = 1.0\nsamples = 10\nvalue = [5, 5]\nclass = 0", fillcolor="#ffffff"] ;
94 -> 102 ;
103 [label="PastNumberOfClaims <= 0.5\nentropy = 0.95\nsamples = 8\nvalue = [5, 3]\nclass = 0", fillcolor="#f5cdb0"] ;
102 -> 103 ;
104 [label="entropy = 0.0\nsamples = 2\nvalue = [0, 2]\nclass = 1", fillcolor="#399de5"] ;
103 -> 104 ;
105 [label="WeekOfMonthClaimed <= 1.5\nentropy = 0.65\nsamples = 6\nvalue = [5, 1]\nclass = 0", fillcolor="#ea9a61"] ;
103 -> 105 ;
106 [label="entropy = 0.0\nsamples = 1\nvalue = [0, 1]\nclass = 1", fillcolor="#399de5"] ;
105 -> 106 ;
107 [label="entropy = 0.0\nsamples = 5\nvalue = [5, 0]\nclass = 0", fillcolor="#e58139"] ;
105 -> 107 ;
108 [label="entropy = 0.0\nsamples = 2\nvalue = [0, 2]\nclass = 1", fillcolor="#399de5"] ;
102 -> 108 ;
109 [label="DayOfWeek <= 4.0\nentropy = 0.4\nsamples = 25\nvalue = [23, 2]\nclass = 0", fillcolor="#e78c4a"] ;
91 -> 109 ;
110 [label="entropy = 0.0\nsamples = 19\nvalue = [19, 0]\nclass = 0", fillcolor="#e58139"] ;
109 -> 110 ;
111 [label="WeekOfMonthClaimed <= 1.5\nentropy = 0.92\nsamples = 6\nvalue = [4, 2]\nclass = 0", fillcolor="#f2c09c"] ;
109 -> 111 ;
112 [label="entropy = 0.0\nsamples = 3\nvalue = [3, 0]\nclass = 0", fillcolor="#e58139"] ;
111 -> 112 ;
113 [label="WeekOfMonth <= 4.5\nentropy = 0.92\nsamples = 3\nvalue = [1, 2]\nclass = 1", fillcolor="#9ccef2"] ;
111 -> 113 ;
114 [label="entropy = 0.0\nsamples = 2\nvalue = [0, 2]\nclass = 1", fillcolor="#399de5"] ;
113 -> 114 ;
115 [label="entropy = 0.0\nsamples = 1\nvalue = [1, 0]\nclass = 0", fillcolor="#e58139"] ;
113 -> 115 ;
116 [label="Make <= 11.0\nentropy = 0.99\nsamples = 14\nvalue = [8, 6]\nclass = 0", fillcolor="#f8e0ce"] ;
88 -> 116 ;
117 [label="NumberOfSuppliments <= 0.5\nentropy = 0.72\nsamples = 5\nvalue = [1, 4]\nclass = 1", fillcolor="#6ab6ec"] ;
116 -> 117 ;
118 [label="entropy = 0.0\nsamples = 1\nvalue = [1, 0]\nclass = 0", fillcolor="#e58139"] ;
117 -> 118 ;
119 [label="entropy = 0.0\nsamples = 4\nvalue = [0, 4]\nclass = 1", fillcolor="#399de5"] ;
117 -> 119 ;
120 [label="DayOfWeekClaimed <= 2.5\nentropy = 0.76\nsamples = 9\nvalue = [7, 2]\nclass = 0", fillcolor="#eca572"] ;
116 -> 120 ;
121 [label="AgeOfVehicle <= 4.5\nentropy = 0.92\nsamples = 3\nvalue = [1, 2]\nclass = 1", fillcolor="#9ccef2"] ;
120 -> 121 ;
122 [label="entropy = 0.0\nsamples = 2\nvalue = [0, 2]\nclass = 1", fillcolor="#399de5"] ;
121 -> 122 ;
123 [label="entropy = 0.0\nsamples = 1\nvalue = [1, 0]\nclass = 0", fillcolor="#e58139"] ;
121 -> 123 ;
124 [label="entropy = 0.0\nsamples = 6\nvalue = [6, 0]\nclass = 0", fillcolor="#e58139"] ;
120 -> 124 ;
125 [label="WeekOfMonth <= 3.5\nentropy = 0.99\nsamples = 11\nvalue = [6, 5]\nclass = 0", fillcolor="#fbeade"] ;
87 -> 125 ;
126 [label="PastNumberOfClaims <= 2.0\nentropy = 0.86\nsamples = 7\nvalue = [2, 5]\nclass = 1", fillcolor="#88c4ef"] ;
125 -> 126 ;
127 [label="entropy = 0.0\nsamples = 4\nvalue = [0, 4]\nclass = 1", fillcolor="#399de5"] ;
126 -> 127 ;
128 [label="NumberOfSuppliments <= 2.5\nentropy = 0.92\nsamples = 3\nvalue = [2, 1]\nclass = 0", fillcolor="#f2c09c"] ;
126 -> 128 ;
129 [label="entropy = 0.0\nsamples = 2\nvalue = [2, 0]\nclass = 0", fillcolor="#e58139"] ;
128 -> 129 ;
130 [label="entropy = 0.0\nsamples = 1\nvalue = [0, 1]\nclass = 1", fillcolor="#399de5"] ;
128 -> 130 ;
131 [label="entropy = 0.0\nsamples = 4\nvalue = [4, 0]\nclass = 0", fillcolor="#e58139"] ;
125 -> 131 ;
132 [label="entropy = 0.0\nsamples = 2\nvalue = [0, 2]\nclass = 1", fillcolor="#399de5"] ;
86 -> 132 ;
133 [label="Make <= 7.5\nentropy = 0.81\nsamples = 4\nvalue = [1, 3]\nclass = 1", fillcolor="#7bbeee"] ;
85 -> 133 ;
134 [label="entropy = 0.0\nsamples = 1\nvalue = [1, 0]\nclass = 0", fillcolor="#e58139"] ;
133 -> 134 ;
135 [label="entropy = 0.0\nsamples = 3\nvalue = [0, 3]\nclass = 1", fillcolor="#399de5"] ;
133 -> 135 ;
136 [label="MonthClaimed <= 3.5\nentropy = 0.77\nsamples = 79\nvalue = [61, 18]\nclass = 0", fillcolor="#eda673"] ;
60 -> 136 ;
137 [label="WeekOfMonthClaimed <= 3.5\nentropy = 0.27\nsamples = 22\nvalue = [21, 1]\nclass = 0", fillcolor="#e68742"] ;
136 -> 137 ;
138 [label="entropy = 0.0\nsamples = 18\nvalue = [18, 0]\nclass = 0", fillcolor="#e58139"] ;
137 -> 138 ;
139 [label="AgeOfVehicle <= 4.5\nentropy = 0.81\nsamples = 4\nvalue = [3, 1]\nclass = 0", fillcolor="#eeab7b"] ;
137 -> 139 ;
140 [label="entropy = 0.0\nsamples = 1\nvalue = [0, 1]\nclass = 1", fillcolor="#399de5"] ;
139 -> 140 ;
141 [label="entropy = 0.0\nsamples = 3\nvalue = [3, 0]\nclass = 0", fillcolor="#e58139"] ;
139 -> 141 ;
142 [label="WeekOfMonth <= 2.5\nentropy = 0.88\nsamples = 57\nvalue = [40, 17]\nclass = 0", fillcolor="#f0b78d"] ;
136 -> 142 ;
143 [label="AgeOfVehicle <= 3.5\nentropy = 0.98\nsamples = 31\nvalue = [18, 13]\nclass = 0", fillcolor="#f8dcc8"] ;
142 -> 143 ;
144 [label="entropy = 0.0\nsamples = 3\nvalue = [0, 3]\nclass = 1", fillcolor="#399de5"] ;
143 -> 144 ;
145 [label="DayOfWeekClaimed <= 3.5\nentropy = 0.94\nsamples = 28\nvalue = [18, 10]\nclass = 0", fillcolor="#f3c7a7"] ;
143 -> 145 ;
146 [label="Make <= 5.5\nentropy = 0.41\nsamples = 12\nvalue = [11, 1]\nclass = 0", fillcolor="#e78c4b"] ;
145 -> 146 ;
147 [label="entropy = 0.0\nsamples = 1\nvalue = [0, 1]\nclass = 1", fillcolor="#399de5"] ;
146 -> 147 ;
148 [label="entropy = 0.0\nsamples = 11\nvalue = [11, 0]\nclass = 0", fillcolor="#e58139"] ;
146 -> 148 ;
149 [label="Month <= 3.0\nentropy = 0.99\nsamples = 16\nvalue = [7, 9]\nclass = 1", fillcolor="#d3e9f9"] ;
145 -> 149 ;
150 [label="entropy = 0.0\nsamples = 2\nvalue = [2, 0]\nclass = 0", fillcolor="#e58139"] ;
149 -> 150 ;
151 [label="Sex <= 0.5\nentropy = 0.94\nsamples = 14\nvalue = [5, 9]\nclass = 1", fillcolor="#a7d3f3"] ;
149 -> 151 ;
152 [label="entropy = 0.0\nsamples = 1\nvalue = [1, 0]\nclass = 0", fillcolor="#e58139"] ;
151 -> 152 ;
153 [label="WeekOfMonth <= 1.5\nentropy = 0.89\nsamples = 13\nvalue = [4, 9]\nclass = 1", fillcolor="#91c9f1"] ;
151 -> 153 ;
154 [label="entropy = 0.0\nsamples = 4\nvalue = [0, 4]\nclass = 1", fillcolor="#399de5"] ;
153 -> 154 ;
155 [label="PastNumberOfClaims <= 0.5\nentropy = 0.99\nsamples = 9\nvalue = [4, 5]\nclass = 1", fillcolor="#d7ebfa"] ;
153 -> 155 ;
156 [label="entropy = 0.0\nsamples = 2\nvalue = [2, 0]\nclass = 0", fillcolor="#e58139"] ;
155 -> 156 ;
157 [label="AgeOfVehicle <= 5.5\nentropy = 0.86\nsamples = 7\nvalue = [2, 5]\nclass = 1", fillcolor="#88c4ef"] ;
155 -> 157 ;
158 [label="entropy = 0.0\nsamples = 5\nvalue = [0, 5]\nclass = 1", fillcolor="#399de5"] ;
157 -> 158 ;
159 [label="entropy = 0.0\nsamples = 2\nvalue = [2, 0]\nclass = 0", fillcolor="#e58139"] ;
157 -> 159 ;
160 [label="MonthClaimed <= 6.5\nentropy = 0.62\nsamples = 26\nvalue = [22, 4]\nclass = 0", fillcolor="#ea985d"] ;
142 -> 160 ;
161 [label="entropy = 0.0\nsamples = 13\nvalue = [13, 0]\nclass = 0", fillcolor="#e58139"] ;
160 -> 161 ;
162 [label="WeekOfMonthClaimed <= 1.5\nentropy = 0.89\nsamples = 13\nvalue = [9, 4]\nclass = 0", fillcolor="#f1b991"] ;
160 -> 162 ;
163 [label="entropy = 0.0\nsamples = 2\nvalue = [0, 2]\nclass = 1", fillcolor="#399de5"] ;
162 -> 163 ;
164 [label="Make <= 15.0\nentropy = 0.68\nsamples = 11\nvalue = [9, 2]\nclass = 0", fillcolor="#eb9d65"] ;
162 -> 164 ;
165 [label="entropy = 0.0\nsamples = 7\nvalue = [7, 0]\nclass = 0", fillcolor="#e58139"] ;
164 -> 165 ;
166 [label="DayOfWeekClaimed <= 2.5\nentropy = 1.0\nsamples = 4\nvalue = [2, 2]\nclass = 0", fillcolor="#ffffff"] ;
164 -> 166 ;
167 [label="entropy = 0.0\nsamples = 2\nvalue = [0, 2]\nclass = 1", fillcolor="#399de5"] ;
166 -> 167 ;
168 [label="entropy = 0.0\nsamples = 2\nvalue = [2, 0]\nclass = 0", fillcolor="#e58139"] ;
166 -> 168 ;
169 [label="entropy = 0.0\nsamples = 5\nvalue = [5, 0]\nclass = 0", fillcolor="#e58139"] ;
59 -> 169 ;
170 [label="entropy = 0.0\nsamples = 7\nvalue = [7, 0]\nclass = 0", fillcolor="#e58139"] ;
36 -> 170 ;
171 [label="entropy = 0.0\nsamples = 8\nvalue = [8, 0]\nclass = 0", fillcolor="#e58139"] ;
35 -> 171 ;
172 [label="VehiclePrice <= 4.5\nentropy = 0.65\nsamples = 294\nvalue = [245, 49]\nclass = 0", fillcolor="#ea9a61"] ;
32 -> 172 ;
173 [label="Age <= 76.5\nentropy = 0.7\nsamples = 247\nvalue = [200, 47]\nclass = 0", fillcolor="#eb9f68"] ;
172 -> 173 ;
174 [label="Month <= 4.5\nentropy = 0.72\nsamples = 237\nvalue = [190, 47]\nclass = 0", fillcolor="#eba06a"] ;
173 -> 174 ;
175 [label="NumberOfSuppliments <= 1.5\nentropy = 0.61\nsamples = 128\nvalue = [109, 19]\nclass = 0", fillcolor="#ea975c"] ;
174 -> 175 ;
176 [label="AgeOfVehicle <= 3.5\nentropy = 0.23\nsamples = 54\nvalue = [52, 2]\nclass = 0", fillcolor="#e68641"] ;
175 -> 176 ;
177 [label="entropy = 0.0\nsamples = 1\nvalue = [0, 1]\nclass = 1", fillcolor="#399de5"] ;
176 -> 177 ;
178 [label="DayOfWeekClaimed <= 1.5\nentropy = 0.14\nsamples = 53\nvalue = [52, 1]\nclass = 0", fillcolor="#e6833d"] ;
176 -> 178 ;
179 [label="Age <= 54.0\nentropy = 0.37\nsamples = 14\nvalue = [13, 1]\nclass = 0", fillcolor="#e78b48"] ;
178 -> 179 ;
180 [label="entropy = 0.0\nsamples = 10\nvalue = [10, 0]\nclass = 0", fillcolor="#e58139"] ;
179 -> 180 ;
181 [label="Make <= 15.0\nentropy = 0.81\nsamples = 4\nvalue = [3, 1]\nclass = 0", fillcolor="#eeab7b"] ;
179 -> 181 ;
182 [label="entropy = 0.0\nsamples = 3\nvalue = [3, 0]\nclass = 0", fillcolor="#e58139"] ;
181 -> 182 ;
183 [label="entropy = 0.0\nsamples = 1\nvalue = [0, 1]\nclass = 1", fillcolor="#399de5"] ;
181 -> 183 ;
184 [label="entropy = 0.0\nsamples = 39\nvalue = [39, 0]\nclass = 0", fillcolor="#e58139"] ;
178 -> 184 ;
185 [label="Age <= 73.5\nentropy = 0.78\nsamples = 74\nvalue = [57, 17]\nclass = 0", fillcolor="#eda774"] ;
175 -> 185 ;
186 [label="WeekOfMonth <= 3.5\nentropy = 0.74\nsamples = 72\nvalue = [57, 15]\nclass = 0", fillcolor="#eca26d"] ;
185 -> 186 ;
187 [label="Month <= 3.5\nentropy = 0.56\nsamples = 54\nvalue = [47, 7]\nclass = 0", fillcolor="#e99456"] ;
186 -> 187 ;
188 [label="Age <= 55.5\nentropy = 0.7\nsamples = 37\nvalue = [30, 7]\nclass = 0", fillcolor="#eb9e67"] ;
187 -> 188 ;
189 [label="Sex <= 0.5\nentropy = 0.84\nsamples = 26\nvalue = [19, 7]\nclass = 0", fillcolor="#efaf82"] ;
188 -> 189 ;
190 [label="entropy = 0.0\nsamples = 7\nvalue = [7, 0]\nclass = 0", fillcolor="#e58139"] ;
189 -> 190 ;
191 [label="WeekOfMonthClaimed <= 3.5\nentropy = 0.95\nsamples = 19\nvalue = [12, 7]\nclass = 0", fillcolor="#f4caac"] ;
189 -> 191 ;
192 [label="DriverRating <= 1.5\nentropy = 1.0\nsamples = 14\nvalue = [7, 7]\nclass = 0", fillcolor="#ffffff"] ;
191 -> 192 ;
193 [label="entropy = 0.0\nsamples = 2\nvalue = [0, 2]\nclass = 1", fillcolor="#399de5"] ;
192 -> 193 ;
194 [label="DriverRating <= 2.5\nentropy = 0.98\nsamples = 12\nvalue = [7, 5]\nclass = 0", fillcolor="#f8dbc6"] ;
192 -> 194 ;
195 [label="Month <= 1.0\nentropy = 0.65\nsamples = 6\nvalue = [5, 1]\nclass = 0", fillcolor="#ea9a61"] ;
194 -> 195 ;
196 [label="entropy = 0.0\nsamples = 4\nvalue = [4, 0]\nclass = 0", fillcolor="#e58139"] ;
195 -> 196 ;
197 [label="MonthClaimed <= 3.5\nentropy = 1.0\nsamples = 2\nvalue = [1, 1]\nclass = 0", fillcolor="#ffffff"] ;
195 -> 197 ;
198 [label="entropy = 0.0\nsamples = 1\nvalue = [1, 0]\nclass = 0", fillcolor="#e58139"] ;
197 -> 198 ;
199 [label="entropy = 0.0\nsamples = 1\nvalue = [0, 1]\nclass = 1", fillcolor="#399de5"] ;
197 -> 199 ;
200 [label="DayOfWeekClaimed <= 0.5\nentropy = 0.92\nsamples = 6\nvalue = [2, 4]\nclass = 1", fillcolor="#9ccef2"] ;
194 -> 200 ;
201 [label="MonthClaimed <= 1.5\nentropy = 0.92\nsamples = 3\nvalue = [2, 1]\nclass = 0", fillcolor="#f2c09c"] ;
200 -> 201 ;
202 [label="entropy = 0.0\nsamples = 1\nvalue = [0, 1]\nclass = 1", fillcolor="#399de5"] ;
201 -> 202 ;
203 [label="entropy = 0.0\nsamples = 2\nvalue = [2, 0]\nclass = 0", fillcolor="#e58139"] ;
201 -> 203 ;
204 [label="entropy = 0.0\nsamples = 3\nvalue = [0, 3]\nclass = 1", fillcolor="#399de5"] ;
200 -> 204 ;
205 [label="entropy = 0.0\nsamples = 5\nvalue = [5, 0]\nclass = 0", fillcolor="#e58139"] ;
191 -> 205 ;
206 [label="entropy = 0.0\nsamples = 11\nvalue = [11, 0]\nclass = 0", fillcolor="#e58139"] ;
188 -> 206 ;
207 [label="entropy = 0.0\nsamples = 17\nvalue = [17, 0]\nclass = 0", fillcolor="#e58139"] ;
187 -> 207 ;
208 [label="Age <= 56.5\nentropy = 0.99\nsamples = 18\nvalue = [10, 8]\nclass = 0", fillcolor="#fae6d7"] ;
186 -> 208 ;
209 [label="DayOfWeek <= 1.5\nentropy = 0.81\nsamples = 12\nvalue = [9, 3]\nclass = 0", fillcolor="#eeab7b"] ;
208 -> 209 ;
210 [label="MonthClaimed <= 6.0\nentropy = 1.0\nsamples = 6\nvalue = [3, 3]\nclass = 0", fillcolor="#ffffff"] ;
209 -> 210 ;
211 [label="DriverRating <= 3.5\nentropy = 0.81\nsamples = 4\nvalue = [3, 1]\nclass = 0", fillcolor="#eeab7b"] ;
210 -> 211 ;
212 [label="entropy = 0.0\nsamples = 1\nvalue = [0, 1]\nclass = 1", fillcolor="#399de5"] ;
211 -> 212 ;
213 [label="entropy = 0.0\nsamples = 3\nvalue = [3, 0]\nclass = 0", fillcolor="#e58139"] ;
211 -> 213 ;
214 [label="entropy = 0.0\nsamples = 2\nvalue = [0, 2]\nclass = 1", fillcolor="#399de5"] ;
210 -> 214 ;
215 [label="entropy = 0.0\nsamples = 6\nvalue = [6, 0]\nclass = 0", fillcolor="#e58139"] ;
209 -> 215 ;
216 [label="Deductible <= 450.0\nentropy = 0.65\nsamples = 6\nvalue = [1, 5]\nclass = 1", fillcolor="#61b1ea"] ;
208 -> 216 ;
217 [label="entropy = 0.0\nsamples = 5\nvalue = [0, 5]\nclass = 1", fillcolor="#399de5"] ;
216 -> 217 ;
218 [label="entropy = 0.0\nsamples = 1\nvalue = [1, 0]\nclass = 0", fillcolor="#e58139"] ;
216 -> 218 ;
219 [label="entropy = 0.0\nsamples = 2\nvalue = [0, 2]\nclass = 1", fillcolor="#399de5"] ;
185 -> 219 ;
220 [label="MonthClaimed <= 1.5\nentropy = 0.82\nsamples = 109\nvalue = [81, 28]\nclass = 0", fillcolor="#eead7d"] ;
174 -> 220 ;
221 [label="WeekOfMonthClaimed <= 1.5\nentropy = 0.81\nsamples = 8\nvalue = [2, 6]\nclass = 1", fillcolor="#7bbeee"] ;
220 -> 221 ;
222 [label="entropy = 0.0\nsamples = 5\nvalue = [0, 5]\nclass = 1", fillcolor="#399de5"] ;
221 -> 222 ;
223 [label="WeekOfMonthClaimed <= 3.5\nentropy = 0.92\nsamples = 3\nvalue = [2, 1]\nclass = 0", fillcolor="#f2c09c"] ;
221 -> 223 ;
224 [label="entropy = 0.0\nsamples = 2\nvalue = [2, 0]\nclass = 0", fillcolor="#e58139"] ;
223 -> 224 ;
225 [label="entropy = 0.0\nsamples = 1\nvalue = [0, 1]\nclass = 1", fillcolor="#399de5"] ;
223 -> 225 ;
226 [label="WeekOfMonth <= 4.5\nentropy = 0.76\nsamples = 101\nvalue = [79, 22]\nclass = 0", fillcolor="#eca470"] ;
220 -> 226 ;
227 [label="VehiclePrice <= 1.5\nentropy = 0.79\nsamples = 93\nvalue = [71, 22]\nclass = 0", fillcolor="#eda876"] ;
226 -> 227 ;
228 [label="NumberOfSuppliments <= 0.5\nentropy = 0.69\nsamples = 71\nvalue = [58, 13]\nclass = 0", fillcolor="#eb9d65"] ;
227 -> 228 ;
229 [label="Age <= 46.0\nentropy = 1.0\nsamples = 14\nvalue = [7, 7]\nclass = 0", fillcolor="#ffffff"] ;
228 -> 229 ;
230 [label="DayOfWeekClaimed <= 0.5\nentropy = 0.65\nsamples = 6\nvalue = [1, 5]\nclass = 1", fillcolor="#61b1ea"] ;
229 -> 230 ;
231 [label="entropy = 0.0\nsamples = 1\nvalue = [1, 0]\nclass = 0", fillcolor="#e58139"] ;
230 -> 231 ;
232 [label="entropy = 0.0\nsamples = 5\nvalue = [0, 5]\nclass = 1", fillcolor="#399de5"] ;
230 -> 232 ;
233 [label="Make <= 15.0\nentropy = 0.81\nsamples = 8\nvalue = [6, 2]\nclass = 0", fillcolor="#eeab7b"] ;
229 -> 233 ;
234 [label="entropy = 0.0\nsamples = 6\nvalue = [6, 0]\nclass = 0", fillcolor="#e58139"] ;
233 -> 234 ;
235 [label="entropy = 0.0\nsamples = 2\nvalue = [0, 2]\nclass = 1", fillcolor="#399de5"] ;
233 -> 235 ;
236 [label="Age <= 64.0\nentropy = 0.49\nsamples = 57\nvalue = [51, 6]\nclass = 0", fillcolor="#e89050"] ;
228 -> 236 ;
237 [label="DayOfWeek <= 3.5\nentropy = 0.32\nsamples = 52\nvalue = [49, 3]\nclass = 0", fillcolor="#e78945"] ;
236 -> 237 ;
238 [label="Age <= 50.5\nentropy = 0.53\nsamples = 25\nvalue = [22, 3]\nclass = 0", fillcolor="#e99254"] ;
237 -> 238 ;
239 [label="Age <= 49.5\nentropy = 0.75\nsamples = 14\nvalue = [11, 3]\nclass = 0", fillcolor="#eca36f"] ;
238 -> 239 ;
240 [label="DayOfWeek <= 2.5\nentropy = 0.44\nsamples = 11\nvalue = [10, 1]\nclass = 0", fillcolor="#e88e4d"] ;
239 -> 240 ;
241 [label="entropy = 0.0\nsamples = 10\nvalue = [10, 0]\nclass = 0", fillcolor="#e58139"] ;
240 -> 241 ;
242 [label="entropy = 0.0\nsamples = 1\nvalue = [0, 1]\nclass = 1", fillcolor="#399de5"] ;
240 -> 242 ;
243 [label="WeekOfMonth <= 3.5\nentropy = 0.92\nsamples = 3\nvalue = [1, 2]\nclass = 1", fillcolor="#9ccef2"] ;
239 -> 243 ;
244 [label="entropy = 0.0\nsamples = 2\nvalue = [0, 2]\nclass = 1", fillcolor="#399de5"] ;
243 -> 244 ;
245 [label="entropy = 0.0\nsamples = 1\nvalue = [1, 0]\nclass = 0", fillcolor="#e58139"] ;
243 -> 245 ;
246 [label="entropy = 0.0\nsamples = 11\nvalue = [11, 0]\nclass = 0", fillcolor="#e58139"] ;
238 -> 246 ;
247 [label="entropy = 0.0\nsamples = 27\nvalue = [27, 0]\nclass = 0", fillcolor="#e58139"] ;
237 -> 247 ;
248 [label="MonthClaimed <= 7.5\nentropy = 0.97\nsamples = 5\nvalue = [2, 3]\nclass = 1", fillcolor="#bddef6"] ;
236 -> 248 ;
249 [label="entropy = 0.0\nsamples = 2\nvalue = [2, 0]\nclass = 0", fillcolor="#e58139"] ;
248 -> 249 ;
250 [label="entropy = 0.0\nsamples = 3\nvalue = [0, 3]\nclass = 1", fillcolor="#399de5"] ;
248 -> 250 ;
251 [label="AddressChange_Claim <= 2.5\nentropy = 0.98\nsamples = 22\nvalue = [13, 9]\nclass = 0", fillcolor="#f7d8c2"] ;
227 -> 251 ;
252 [label="entropy = 0.0\nsamples = 4\nvalue = [4, 0]\nclass = 0", fillcolor="#e58139"] ;
251 -> 252 ;
253 [label="DayOfWeekClaimed <= 1.5\nentropy = 1.0\nsamples = 18\nvalue = [9, 9]\nclass = 0", fillcolor="#ffffff"] ;
251 -> 253 ;
254 [label="AgeOfPolicyHolder <= 6.5\nentropy = 0.81\nsamples = 8\nvalue = [2, 6]\nclass = 1", fillcolor="#7bbeee"] ;
253 -> 254 ;
255 [label="entropy = 0.0\nsamples = 5\nvalue = [0, 5]\nclass = 1", fillcolor="#399de5"] ;
254 -> 255 ;
256 [label="AgeOfPolicyHolder <= 7.5\nentropy = 0.92\nsamples = 3\nvalue = [2, 1]\nclass = 0", fillcolor="#f2c09c"] ;
254 -> 256 ;
257 [label="entropy = 0.0\nsamples = 2\nvalue = [2, 0]\nclass = 0", fillcolor="#e58139"] ;
256 -> 257 ;
258 [label="entropy = 0.0\nsamples = 1\nvalue = [0, 1]\nclass = 1", fillcolor="#399de5"] ;
256 -> 258 ;
259 [label="Age <= 51.5\nentropy = 0.88\nsamples = 10\nvalue = [7, 3]\nclass = 0", fillcolor="#f0b78e"] ;
253 -> 259 ;
260 [label="entropy = 0.0\nsamples = 5\nvalue = [5, 0]\nclass = 0", fillcolor="#e58139"] ;
259 -> 260 ;
261 [label="MonthClaimed <= 7.5\nentropy = 0.97\nsamples = 5\nvalue = [2, 3]\nclass = 1", fillcolor="#bddef6"] ;
259 -> 261 ;
262 [label="entropy = 0.0\nsamples = 2\nvalue = [0, 2]\nclass = 1", fillcolor="#399de5"] ;
261 -> 262 ;
263 [label="DayOfWeek <= 1.5\nentropy = 0.92\nsamples = 3\nvalue = [2, 1]\nclass = 0", fillcolor="#f2c09c"] ;
261 -> 263 ;
264 [label="entropy = 0.0\nsamples = 1\nvalue = [0, 1]\nclass = 1", fillcolor="#399de5"] ;
263 -> 264 ;
265 [label="entropy = 0.0\nsamples = 2\nvalue = [2, 0]\nclass = 0", fillcolor="#e58139"] ;
263 -> 265 ;
266 [label="entropy = 0.0\nsamples = 8\nvalue = [8, 0]\nclass = 0", fillcolor="#e58139"] ;
226 -> 266 ;
267 [label="entropy = 0.0\nsamples = 10\nvalue = [10, 0]\nclass = 0", fillcolor="#e58139"] ;
173 -> 267 ;
268 [label="NumberOfSuppliments <= 1.5\nentropy = 0.25\nsamples = 47\nvalue = [45, 2]\nclass = 0", fillcolor="#e68742"] ;
172 -> 268 ;
269 [label="DayOfWeek <= 5.5\nentropy = 0.52\nsamples = 17\nvalue = [15, 2]\nclass = 0", fillcolor="#e89253"] ;
268 -> 269 ;
270 [label="WeekOfMonthClaimed <= 4.5\nentropy = 0.34\nsamples = 16\nvalue = [15, 1]\nclass = 0", fillcolor="#e78946"] ;
269 -> 270 ;
271 [label="entropy = 0.0\nsamples = 14\nvalue = [14, 0]\nclass = 0", fillcolor="#e58139"] ;
270 -> 271 ;
272 [label="AgeOfPolicyHolder <= 6.5\nentropy = 1.0\nsamples = 2\nvalue = [1, 1]\nclass = 0", fillcolor="#ffffff"] ;
270 -> 272 ;
273 [label="entropy = 0.0\nsamples = 1\nvalue = [1, 0]\nclass = 0", fillcolor="#e58139"] ;
272 -> 273 ;
274 [label="entropy = 0.0\nsamples = 1\nvalue = [0, 1]\nclass = 1", fillcolor="#399de5"] ;
272 -> 274 ;
275 [label="entropy = 0.0\nsamples = 1\nvalue = [0, 1]\nclass = 1", fillcolor="#399de5"] ;
269 -> 275 ;
276 [label="entropy = 0.0\nsamples = 30\nvalue = [30, 0]\nclass = 0", fillcolor="#e58139"] ;
268 -> 276 ;
277 [label="entropy = 0.0\nsamples = 3\nvalue = [0, 3]\nclass = 1", fillcolor="#399de5"] ;
31 -> 277 ;
278 [label="VehiclePrice <= 0.5\nentropy = 0.56\nsamples = 966\nvalue = [839, 127]\nclass = 0", fillcolor="#e99457"] ;
2 -> 278 ;
279 [label="NumberOfSuppliments <= 2.5\nentropy = 0.47\nsamples = 472\nvalue = [424, 48]\nclass = 0", fillcolor="#e88f4f"] ;
278 -> 279 ;
280 [label="NumberOfCars <= 1.5\nentropy = 0.36\nsamples = 250\nvalue = [233, 17]\nclass = 0", fillcolor="#e78a47"] ;
279 -> 280 ;
281 [label="Age <= 34.5\nentropy = 0.32\nsamples = 241\nvalue = [227, 14]\nclass = 0", fillcolor="#e78945"] ;
280 -> 281 ;
282 [label="DayOfWeekClaimed <= 5.5\nentropy = 0.46\nsamples = 112\nvalue = [101, 11]\nclass = 0", fillcolor="#e88f4f"] ;
281 -> 282 ;
283 [label="Age <= 31.5\nentropy = 0.53\nsamples = 92\nvalue = [81, 11]\nclass = 0", fillcolor="#e99254"] ;
282 -> 283 ;
284 [label="DriverRating <= 3.5\nentropy = 0.39\nsamples = 66\nvalue = [61, 5]\nclass = 0", fillcolor="#e78b49"] ;
283 -> 284 ;
285 [label="WeekOfMonthClaimed <= 3.5\nentropy = 0.52\nsamples = 43\nvalue = [38, 5]\nclass = 0", fillcolor="#e89253"] ;
284 -> 285 ;
286 [label="WeekOfMonth <= 1.5\nentropy = 0.69\nsamples = 27\nvalue = [22, 5]\nclass = 0", fillcolor="#eb9e66"] ;
285 -> 286 ;
287 [label="entropy = 0.0\nsamples = 11\nvalue = [11, 0]\nclass = 0", fillcolor="#e58139"] ;
286 -> 287 ;
288 [label="Month <= 6.5\nentropy = 0.9\nsamples = 16\nvalue = [11, 5]\nclass = 0", fillcolor="#f1ba93"] ;
286 -> 288 ;
289 [label="WeekOfMonth <= 2.5\nentropy = 0.99\nsamples = 7\nvalue = [3, 4]\nclass = 1", fillcolor="#cee6f8"] ;
288 -> 289 ;
290 [label="entropy = 0.0\nsamples = 3\nvalue = [3, 0]\nclass = 0", fillcolor="#e58139"] ;
289 -> 290 ;
291 [label="entropy = 0.0\nsamples = 4\nvalue = [0, 4]\nclass = 1", fillcolor="#399de5"] ;
289 -> 291 ;
292 [label="PastNumberOfClaims <= 2.0\nentropy = 0.5\nsamples = 9\nvalue = [8, 1]\nclass = 0", fillcolor="#e89152"] ;
288 -> 292 ;
293 [label="entropy = 0.0\nsamples = 6\nvalue = [6, 0]\nclass = 0", fillcolor="#e58139"] ;
292 -> 293 ;
294 [label="DayOfWeek <= 3.0\nentropy = 0.92\nsamples = 3\nvalue = [2, 1]\nclass = 0", fillcolor="#f2c09c"] ;
292 -> 294 ;
295 [label="entropy = 0.0\nsamples = 1\nvalue = [0, 1]\nclass = 1", fillcolor="#399de5"] ;
294 -> 295 ;
296 [label="entropy = 0.0\nsamples = 2\nvalue = [2, 0]\nclass = 0", fillcolor="#e58139"] ;
294 -> 296 ;
297 [label="entropy = 0.0\nsamples = 16\nvalue = [16, 0]\nclass = 0", fillcolor="#e58139"] ;
285 -> 297 ;
298 [label="entropy = 0.0\nsamples = 23\nvalue = [23, 0]\nclass = 0", fillcolor="#e58139"] ;
284 -> 298 ;
299 [label="NumberOfSuppliments <= 1.5\nentropy = 0.78\nsamples = 26\nvalue = [20, 6]\nclass = 0", fillcolor="#eda774"] ;
283 -> 299 ;
300 [label="DriverRating <= 3.5\nentropy = 0.5\nsamples = 18\nvalue = [16, 2]\nclass = 0", fillcolor="#e89152"] ;
299 -> 300 ;
301 [label="entropy = 0.0\nsamples = 15\nvalue = [15, 0]\nclass = 0", fillcolor="#e58139"] ;
300 -> 301 ;
302 [label="DayOfWeek <= 1.5\nentropy = 0.92\nsamples = 3\nvalue = [1, 2]\nclass = 1", fillcolor="#9ccef2"] ;
300 -> 302 ;
303 [label="entropy = 0.0\nsamples = 2\nvalue = [0, 2]\nclass = 1", fillcolor="#399de5"] ;
302 -> 303 ;
304 [label="entropy = 0.0\nsamples = 1\nvalue = [1, 0]\nclass = 0", fillcolor="#e58139"] ;
302 -> 304 ;
305 [label="DayOfWeek <= 2.5\nentropy = 1.0\nsamples = 8\nvalue = [4, 4]\nclass = 0", fillcolor="#ffffff"] ;
299 -> 305 ;
306 [label="entropy = 0.0\nsamples = 3\nvalue = [0, 3]\nclass = 1", fillcolor="#399de5"] ;
305 -> 306 ;
307 [label="Sex <= 0.5\nentropy = 0.72\nsamples = 5\nvalue = [4, 1]\nclass = 0", fillcolor="#eca06a"] ;
305 -> 307 ;
308 [label="entropy = 0.0\nsamples = 1\nvalue = [0, 1]\nclass = 1", fillcolor="#399de5"] ;
307 -> 308 ;
309 [label="entropy = 0.0\nsamples = 4\nvalue = [4, 0]\nclass = 0", fillcolor="#e58139"] ;
307 -> 309 ;
310 [label="entropy = 0.0\nsamples = 20\nvalue = [20, 0]\nclass = 0", fillcolor="#e58139"] ;
282 -> 310 ;
311 [label="AccidentArea <= 0.5\nentropy = 0.16\nsamples = 129\nvalue = [126, 3]\nclass = 0", fillcolor="#e6843e"] ;
281 -> 311 ;
312 [label="Make <= 3.0\nentropy = 0.5\nsamples = 18\nvalue = [16, 2]\nclass = 0", fillcolor="#e89152"] ;
311 -> 312 ;
313 [label="entropy = 0.0\nsamples = 1\nvalue = [0, 1]\nclass = 1", fillcolor="#399de5"] ;
312 -> 313 ;
314 [label="Month <= 2.5\nentropy = 0.32\nsamples = 17\nvalue = [16, 1]\nclass = 0", fillcolor="#e78945"] ;
312 -> 314 ;
315 [label="Month <= 1.0\nentropy = 0.81\nsamples = 4\nvalue = [3, 1]\nclass = 0", fillcolor="#eeab7b"] ;
314 -> 315 ;
316 [label="entropy = 0.0\nsamples = 3\nvalue = [3, 0]\nclass = 0", fillcolor="#e58139"] ;
315 -> 316 ;
317 [label="entropy = 0.0\nsamples = 1\nvalue = [0, 1]\nclass = 1", fillcolor="#399de5"] ;
315 -> 317 ;
318 [label="entropy = 0.0\nsamples = 13\nvalue = [13, 0]\nclass = 0", fillcolor="#e58139"] ;
314 -> 318 ;
319 [label="Make <= 15.0\nentropy = 0.07\nsamples = 111\nvalue = [110, 1]\nclass = 0", fillcolor="#e5823b"] ;
311 -> 319 ;
320 [label="entropy = 0.0\nsamples = 89\nvalue = [89, 0]\nclass = 0", fillcolor="#e58139"] ;
319 -> 320 ;
321 [label="DriverRating <= 1.5\nentropy = 0.27\nsamples = 22\nvalue = [21, 1]\nclass = 0", fillcolor="#e68742"] ;
319 -> 321 ;
322 [label="PastNumberOfClaims <= 0.5\nentropy = 0.72\nsamples = 5\nvalue = [4, 1]\nclass = 0", fillcolor="#eca06a"] ;
321 -> 322 ;
323 [label="entropy = 0.0\nsamples = 1\nvalue = [0, 1]\nclass = 1", fillcolor="#399de5"] ;
322 -> 323 ;
324 [label="entropy = 0.0\nsamples = 4\nvalue = [4, 0]\nclass = 0", fillcolor="#e58139"] ;
322 -> 324 ;
325 [label="entropy = 0.0\nsamples = 17\nvalue = [17, 0]\nclass = 0", fillcolor="#e58139"] ;
321 -> 325 ;
326 [label="Age <= 64.5\nentropy = 0.92\nsamples = 9\nvalue = [6, 3]\nclass = 0", fillcolor="#f2c09c"] ;
280 -> 326 ;
327 [label="DayOfWeekClaimed <= 2.0\nentropy = 0.59\nsamples = 7\nvalue = [6, 1]\nclass = 0", fillcolor="#e9965a"] ;
326 -> 327 ;
328 [label="NumberOfCars <= 2.5\nentropy = 1.0\nsamples = 2\nvalue = [1, 1]\nclass = 0", fillcolor="#ffffff"] ;
327 -> 328 ;
329 [label="entropy = 0.0\nsamples = 1\nvalue = [0, 1]\nclass = 1", fillcolor="#399de5"] ;
328 -> 329 ;
330 [label="entropy = 0.0\nsamples = 1\nvalue = [1, 0]\nclass = 0", fillcolor="#e58139"] ;
328 -> 330 ;
331 [label="entropy = 0.0\nsamples = 5\nvalue = [5, 0]\nclass = 0", fillcolor="#e58139"] ;
327 -> 331 ;
332 [label="entropy = 0.0\nsamples = 2\nvalue = [0, 2]\nclass = 1", fillcolor="#399de5"] ;
326 -> 332 ;
333 [label="Age <= 60.5\nentropy = 0.58\nsamples = 222\nvalue = [191, 31]\nclass = 0", fillcolor="#e99559"] ;
279 -> 333 ;
334 [label="AgeOfVehicle <= 4.5\nentropy = 0.61\nsamples = 204\nvalue = [173, 31]\nclass = 0", fillcolor="#ea985c"] ;
333 -> 334 ;
335 [label="MonthClaimed <= 7.5\nentropy = 0.42\nsamples = 107\nvalue = [98, 9]\nclass = 0", fillcolor="#e78d4b"] ;
334 -> 335 ;
336 [label="AccidentArea <= 0.5\nentropy = 0.22\nsamples = 85\nvalue = [82, 3]\nclass = 0", fillcolor="#e68640"] ;
335 -> 336 ;
337 [label="WeekOfMonthClaimed <= 1.5\nentropy = 0.92\nsamples = 6\nvalue = [4, 2]\nclass = 0", fillcolor="#f2c09c"] ;
336 -> 337 ;
338 [label="DayOfWeek <= 3.5\nentropy = 0.92\nsamples = 3\nvalue = [1, 2]\nclass = 1", fillcolor="#9ccef2"] ;
337 -> 338 ;
339 [label="entropy = 0.0\nsamples = 1\nvalue = [1, 0]\nclass = 0", fillcolor="#e58139"] ;
338 -> 339 ;
340 [label="entropy = 0.0\nsamples = 2\nvalue = [0, 2]\nclass = 1", fillcolor="#399de5"] ;
338 -> 340 ;
341 [label="entropy = 0.0\nsamples = 3\nvalue = [3, 0]\nclass = 0", fillcolor="#e58139"] ;
337 -> 341 ;
342 [label="Make <= 4.0\nentropy = 0.1\nsamples = 79\nvalue = [78, 1]\nclass = 0", fillcolor="#e5833c"] ;
336 -> 342 ;
343 [label="WeekOfMonthClaimed <= 2.5\nentropy = 0.65\nsamples = 6\nvalue = [5, 1]\nclass = 0", fillcolor="#ea9a61"] ;
342 -> 343 ;
344 [label="entropy = 0.0\nsamples = 1\nvalue = [0, 1]\nclass = 1", fillcolor="#399de5"] ;
343 -> 344 ;
345 [label="entropy = 0.0\nsamples = 5\nvalue = [5, 0]\nclass = 0", fillcolor="#e58139"] ;
343 -> 345 ;
346 [label="entropy = 0.0\nsamples = 73\nvalue = [73, 0]\nclass = 0", fillcolor="#e58139"] ;
342 -> 346 ;
347 [label="PastNumberOfClaims <= 0.5\nentropy = 0.85\nsamples = 22\nvalue = [16, 6]\nclass = 0", fillcolor="#efb083"] ;
335 -> 347 ;
348 [label="entropy = 0.0\nsamples = 6\nvalue = [6, 0]\nclass = 0", fillcolor="#e58139"] ;
347 -> 348 ;
349 [label="DriverRating <= 1.5\nentropy = 0.95\nsamples = 16\nvalue = [10, 6]\nclass = 0", fillcolor="#f5cdb0"] ;
347 -> 349 ;
350 [label="entropy = 0.0\nsamples = 3\nvalue = [0, 3]\nclass = 1", fillcolor="#399de5"] ;
349 -> 350 ;
351 [label="DriverRating <= 3.5\nentropy = 0.78\nsamples = 13\nvalue = [10, 3]\nclass = 0", fillcolor="#eda774"] ;
349 -> 351 ;
352 [label="entropy = 0.0\nsamples = 7\nvalue = [7, 0]\nclass = 0", fillcolor="#e58139"] ;
351 -> 352 ;
353 [label="WeekOfMonth <= 4.0\nentropy = 1.0\nsamples = 6\nvalue = [3, 3]\nclass = 0", fillcolor="#ffffff"] ;
351 -> 353 ;
354 [label="Sex <= 0.5\nentropy = 0.81\nsamples = 4\nvalue = [1, 3]\nclass = 1", fillcolor="#7bbeee"] ;
353 -> 354 ;
355 [label="entropy = 0.0\nsamples = 1\nvalue = [1, 0]\nclass = 0", fillcolor="#e58139"] ;
354 -> 355 ;
356 [label="entropy = 0.0\nsamples = 3\nvalue = [0, 3]\nclass = 1", fillcolor="#399de5"] ;
354 -> 356 ;
357 [label="entropy = 0.0\nsamples = 2\nvalue = [2, 0]\nclass = 0", fillcolor="#e58139"] ;
353 -> 357 ;
358 [label="MonthClaimed <= 4.5\nentropy = 0.77\nsamples = 97\nvalue = [75, 22]\nclass = 0", fillcolor="#eda673"] ;
334 -> 358 ;
359 [label="Month <= 3.5\nentropy = 0.93\nsamples = 46\nvalue = [30, 16]\nclass = 0", fillcolor="#f3c4a3"] ;
358 -> 359 ;
360 [label="AgeOfPolicyHolder <= 6.5\nentropy = 0.59\nsamples = 28\nvalue = [24, 4]\nclass = 0", fillcolor="#e9965a"] ;
359 -> 360 ;
361 [label="Month <= 2.5\nentropy = 0.5\nsamples = 27\nvalue = [24, 3]\nclass = 0", fillcolor="#e89152"] ;
360 -> 361 ;
362 [label="Make <= 4.0\nentropy = 0.72\nsamples = 15\nvalue = [12, 3]\nclass = 0", fillcolor="#eca06a"] ;
361 -> 362 ;
363 [label="entropy = 0.0\nsamples = 1\nvalue = [0, 1]\nclass = 1", fillcolor="#399de5"] ;
362 -> 363 ;
364 [label="Age <= 44.5\nentropy = 0.59\nsamples = 14\nvalue = [12, 2]\nclass = 0", fillcolor="#e9965a"] ;
362 -> 364 ;
365 [label="entropy = 0.0\nsamples = 9\nvalue = [9, 0]\nclass = 0", fillcolor="#e58139"] ;
364 -> 365 ;
366 [label="DayOfWeek <= 2.5\nentropy = 0.97\nsamples = 5\nvalue = [3, 2]\nclass = 0", fillcolor="#f6d5bd"] ;
364 -> 366 ;
367 [label="entropy = 0.0\nsamples = 2\nvalue = [2, 0]\nclass = 0", fillcolor="#e58139"] ;
366 -> 367 ;
368 [label="NumberOfCars <= 1.0\nentropy = 0.92\nsamples = 3\nvalue = [1, 2]\nclass = 1", fillcolor="#9ccef2"] ;
366 -> 368 ;
369 [label="entropy = 0.0\nsamples = 2\nvalue = [0, 2]\nclass = 1", fillcolor="#399de5"] ;
368 -> 369 ;
370 [label="entropy = 0.0\nsamples = 1\nvalue = [1, 0]\nclass = 0", fillcolor="#e58139"] ;
368 -> 370 ;
371 [label="entropy = 0.0\nsamples = 12\nvalue = [12, 0]\nclass = 0", fillcolor="#e58139"] ;
361 -> 371 ;
372 [label="entropy = 0.0\nsamples = 1\nvalue = [0, 1]\nclass = 1", fillcolor="#399de5"] ;
360 -> 372 ;
373 [label="Make <= 7.5\nentropy = 0.92\nsamples = 18\nvalue = [6, 12]\nclass = 1", fillcolor="#9ccef2"] ;
359 -> 373 ;
374 [label="DayOfWeek <= 1.5\nentropy = 0.72\nsamples = 5\nvalue = [4, 1]\nclass = 0", fillcolor="#eca06a"] ;
373 -> 374 ;
375 [label="entropy = 0.0\nsamples = 1\nvalue = [0, 1]\nclass = 1", fillcolor="#399de5"] ;
374 -> 375 ;
376 [label="entropy = 0.0\nsamples = 4\nvalue = [4, 0]\nclass = 0", fillcolor="#e58139"] ;
374 -> 376 ;
377 [label="WeekOfMonth <= 3.5\nentropy = 0.62\nsamples = 13\nvalue = [2, 11]\nclass = 1", fillcolor="#5dafea"] ;
373 -> 377 ;
378 [label="WeekOfMonth <= 2.5\nentropy = 1.0\nsamples = 4\nvalue = [2, 2]\nclass = 0", fillcolor="#ffffff"] ;
377 -> 378 ;
379 [label="entropy = 0.0\nsamples = 2\nvalue = [0, 2]\nclass = 1", fillcolor="#399de5"] ;
378 -> 379 ;
380 [label="entropy = 0.0\nsamples = 2\nvalue = [2, 0]\nclass = 0", fillcolor="#e58139"] ;
378 -> 380 ;
381 [label="entropy = 0.0\nsamples = 9\nvalue = [0, 9]\nclass = 1", fillcolor="#399de5"] ;
377 -> 381 ;
382 [label="DayOfWeek <= 4.5\nentropy = 0.52\nsamples = 51\nvalue = [45, 6]\nclass = 0", fillcolor="#e89253"] ;
358 -> 382 ;
383 [label="DriverRating <= 1.5\nentropy = 0.3\nsamples = 38\nvalue = [36, 2]\nclass = 0", fillcolor="#e68844"] ;
382 -> 383 ;
384 [label="WeekOfMonth <= 3.0\nentropy = 0.76\nsamples = 9\nvalue = [7, 2]\nclass = 0", fillcolor="#eca572"] ;
383 -> 384 ;
385 [label="MonthClaimed <= 6.5\nentropy = 1.0\nsamples = 4\nvalue = [2, 2]\nclass = 0", fillcolor="#ffffff"] ;
384 -> 385 ;
386 [label="entropy = 0.0\nsamples = 1\nvalue = [0, 1]\nclass = 1", fillcolor="#399de5"] ;
385 -> 386 ;
387 [label="AccidentArea <= 0.5\nentropy = 0.92\nsamples = 3\nvalue = [2, 1]\nclass = 0", fillcolor="#f2c09c"] ;
385 -> 387 ;
388 [label="entropy = 0.0\nsamples = 1\nvalue = [0, 1]\nclass = 1", fillcolor="#399de5"] ;
387 -> 388 ;
389 [label="entropy = 0.0\nsamples = 2\nvalue = [2, 0]\nclass = 0", fillcolor="#e58139"] ;
387 -> 389 ;
390 [label="entropy = 0.0\nsamples = 5\nvalue = [5, 0]\nclass = 0", fillcolor="#e58139"] ;
384 -> 390 ;
391 [label="entropy = 0.0\nsamples = 29\nvalue = [29, 0]\nclass = 0", fillcolor="#e58139"] ;
383 -> 391 ;
392 [label="Month <= 1.5\nentropy = 0.89\nsamples = 13\nvalue = [9, 4]\nclass = 0", fillcolor="#f1b991"] ;
382 -> 392 ;
393 [label="entropy = 0.0\nsamples = 2\nvalue = [0, 2]\nclass = 1", fillcolor="#399de5"] ;
392 -> 393 ;
394 [label="NumberOfCars <= 0.5\nentropy = 0.68\nsamples = 11\nvalue = [9, 2]\nclass = 0", fillcolor="#eb9d65"] ;
392 -> 394 ;
395 [label="Sex <= 0.5\nentropy = 0.47\nsamples = 10\nvalue = [9, 1]\nclass = 0", fillcolor="#e88f4f"] ;
394 -> 395 ;
396 [label="entropy = 0.0\nsamples = 1\nvalue = [0, 1]\nclass = 1", fillcolor="#399de5"] ;
395 -> 396 ;
397 [label="entropy = 0.0\nsamples = 9\nvalue = [9, 0]\nclass = 0", fillcolor="#e58139"] ;
395 -> 397 ;
398 [label="entropy = 0.0\nsamples = 1\nvalue = [0, 1]\nclass = 1", fillcolor="#399de5"] ;
394 -> 398 ;
399 [label="entropy = 0.0\nsamples = 18\nvalue = [18, 0]\nclass = 0", fillcolor="#e58139"] ;
333 -> 399 ;
400 [label="Month <= 4.5\nentropy = 0.63\nsamples = 494\nvalue = [415, 79]\nclass = 0", fillcolor="#ea995f"] ;
278 -> 400 ;
401 [label="Age <= 33.5\nentropy = 0.5\nsamples = 278\nvalue = [247, 31]\nclass = 0", fillcolor="#e89152"] ;
400 -> 401 ;
402 [label="DayOfWeek <= 5.5\nentropy = 0.71\nsamples = 99\nvalue = [80, 19]\nclass = 0", fillcolor="#eb9f68"] ;
401 -> 402 ;
403 [label="Make <= 14.0\nentropy = 0.76\nsamples = 86\nvalue = [67, 19]\nclass = 0", fillcolor="#eca571"] ;
402 -> 403 ;
404 [label="Make <= 10.5\nentropy = 0.82\nsamples = 70\nvalue = [52, 18]\nclass = 0", fillcolor="#eead7e"] ;
403 -> 404 ;
405 [label="PolicyType <= 2.5\nentropy = 0.69\nsamples = 54\nvalue = [44, 10]\nclass = 0", fillcolor="#eb9e66"] ;
404 -> 405 ;
406 [label="DayOfWeekClaimed <= 2.5\nentropy = 0.47\nsamples = 40\nvalue = [36, 4]\nclass = 0", fillcolor="#e88f4f"] ;
405 -> 406 ;
407 [label="entropy = 0.0\nsamples = 19\nvalue = [19, 0]\nclass = 0", fillcolor="#e58139"] ;
406 -> 407 ;
408 [label="DriverRating <= 1.5\nentropy = 0.7\nsamples = 21\nvalue = [17, 4]\nclass = 0", fillcolor="#eb9f68"] ;
406 -> 408 ;
409 [label="entropy = 0.0\nsamples = 7\nvalue = [7, 0]\nclass = 0", fillcolor="#e58139"] ;
408 -> 409 ;
410 [label="AddressChange_Claim <= 1.5\nentropy = 0.86\nsamples = 14\nvalue = [10, 4]\nclass = 0", fillcolor="#efb388"] ;
408 -> 410 ;
411 [label="entropy = 0.0\nsamples = 1\nvalue = [0, 1]\nclass = 1", fillcolor="#399de5"] ;
410 -> 411 ;
412 [label="DayOfWeekClaimed <= 5.5\nentropy = 0.78\nsamples = 13\nvalue = [10, 3]\nclass = 0", fillcolor="#eda774"] ;
410 -> 412 ;
413 [label="DriverRating <= 2.5\nentropy = 0.47\nsamples = 10\nvalue = [9, 1]\nclass = 0", fillcolor="#e88f4f"] ;
412 -> 413 ;
414 [label="Age <= 31.0\nentropy = 1.0\nsamples = 2\nvalue = [1, 1]\nclass = 0", fillcolor="#ffffff"] ;
413 -> 414 ;
415 [label="entropy = 0.0\nsamples = 1\nvalue = [0, 1]\nclass = 1", fillcolor="#399de5"] ;
414 -> 415 ;
416 [label="entropy = 0.0\nsamples = 1\nvalue = [1, 0]\nclass = 0", fillcolor="#e58139"] ;
414 -> 416 ;
417 [label="entropy = 0.0\nsamples = 8\nvalue = [8, 0]\nclass = 0", fillcolor="#e58139"] ;
413 -> 417 ;
418 [label="DayOfWeek <= 4.0\nentropy = 0.92\nsamples = 3\nvalue = [1, 2]\nclass = 1", fillcolor="#9ccef2"] ;
412 -> 418 ;
419 [label="entropy = 0.0\nsamples = 2\nvalue = [0, 2]\nclass = 1", fillcolor="#399de5"] ;
418 -> 419 ;
420 [label="entropy = 0.0\nsamples = 1\nvalue = [1, 0]\nclass = 0", fillcolor="#e58139"] ;
418 -> 420 ;
421 [label="MonthClaimed <= 5.5\nentropy = 0.99\nsamples = 14\nvalue = [8, 6]\nclass = 0", fillcolor="#f8e0ce"] ;
405 -> 421 ;
422 [label="WeekOfMonth <= 2.5\nentropy = 0.85\nsamples = 11\nvalue = [8, 3]\nclass = 0", fillcolor="#efb083"] ;
421 -> 422 ;
423 [label="entropy = 0.0\nsamples = 4\nvalue = [4, 0]\nclass = 0", fillcolor="#e58139"] ;
422 -> 423 ;
424 [label="WeekOfMonthClaimed <= 3.0\nentropy = 0.99\nsamples = 7\nvalue = [4, 3]\nclass = 0", fillcolor="#f8e0ce"] ;
422 -> 424 ;
425 [label="Age <= 28.5\nentropy = 0.81\nsamples = 4\nvalue = [1, 3]\nclass = 1", fillcolor="#7bbeee"] ;
424 -> 425 ;
426 [label="entropy = 0.0\nsamples = 3\nvalue = [0, 3]\nclass = 1", fillcolor="#399de5"] ;
425 -> 426 ;
427 [label="entropy = 0.0\nsamples = 1\nvalue = [1, 0]\nclass = 0", fillcolor="#e58139"] ;
425 -> 427 ;
428 [label="entropy = 0.0\nsamples = 3\nvalue = [3, 0]\nclass = 0", fillcolor="#e58139"] ;
424 -> 428 ;
429 [label="entropy = 0.0\nsamples = 3\nvalue = [0, 3]\nclass = 1", fillcolor="#399de5"] ;
421 -> 429 ;
430 [label="WeekOfMonth <= 1.5\nentropy = 1.0\nsamples = 16\nvalue = [8, 8]\nclass = 0", fillcolor="#ffffff"] ;
404 -> 430 ;
431 [label="entropy = 0.0\nsamples = 4\nvalue = [4, 0]\nclass = 0", fillcolor="#e58139"] ;
430 -> 431 ;
432 [label="DriverRating <= 2.5\nentropy = 0.92\nsamples = 12\nvalue = [4, 8]\nclass = 1", fillcolor="#9ccef2"] ;
430 -> 432 ;
433 [label="entropy = 0.0\nsamples = 4\nvalue = [0, 4]\nclass = 1", fillcolor="#399de5"] ;
432 -> 433 ;
434 [label="Age <= 31.0\nentropy = 1.0\nsamples = 8\nvalue = [4, 4]\nclass = 0", fillcolor="#ffffff"] ;
432 -> 434 ;
435 [label="DayOfWeekClaimed <= 2.5\nentropy = 0.92\nsamples = 6\nvalue = [2, 4]\nclass = 1", fillcolor="#9ccef2"] ;
434 -> 435 ;
436 [label="entropy = 0.0\nsamples = 3\nvalue = [0, 3]\nclass = 1", fillcolor="#399de5"] ;
435 -> 436 ;
437 [label="AccidentArea <= 0.5\nentropy = 0.92\nsamples = 3\nvalue = [2, 1]\nclass = 0", fillcolor="#f2c09c"] ;
435 -> 437 ;
438 [label="entropy = 0.0\nsamples = 1\nvalue = [0, 1]\nclass = 1", fillcolor="#399de5"] ;
437 -> 438 ;
439 [label="entropy = 0.0\nsamples = 2\nvalue = [2, 0]\nclass = 0", fillcolor="#e58139"] ;
437 -> 439 ;
440 [label="entropy = 0.0\nsamples = 2\nvalue = [2, 0]\nclass = 0", fillcolor="#e58139"] ;
434 -> 440 ;
441 [label="WeekOfMonthClaimed <= 4.5\nentropy = 0.34\nsamples = 16\nvalue = [15, 1]\nclass = 0", fillcolor="#e78946"] ;
403 -> 441 ;
442 [label="entropy = 0.0\nsamples = 14\nvalue = [14, 0]\nclass = 0", fillcolor="#e58139"] ;
441 -> 442 ;
443 [label="DriverRating <= 2.0\nentropy = 1.0\nsamples = 2\nvalue = [1, 1]\nclass = 0", fillcolor="#ffffff"] ;
441 -> 443 ;
444 [label="entropy = 0.0\nsamples = 1\nvalue = [1, 0]\nclass = 0", fillcolor="#e58139"] ;
443 -> 444 ;
445 [label="entropy = 0.0\nsamples = 1\nvalue = [0, 1]\nclass = 1", fillcolor="#399de5"] ;
443 -> 445 ;
446 [label="entropy = 0.0\nsamples = 13\nvalue = [13, 0]\nclass = 0", fillcolor="#e58139"] ;
402 -> 446 ;
447 [label="DayOfWeek <= 3.5\nentropy = 0.35\nsamples = 179\nvalue = [167, 12]\nclass = 0", fillcolor="#e78a47"] ;
401 -> 447 ;
448 [label="NumberOfSuppliments <= 1.5\nentropy = 0.16\nsamples = 88\nvalue = [86, 2]\nclass = 0", fillcolor="#e6843e"] ;
447 -> 448 ;
449 [label="WeekOfMonth <= 2.5\nentropy = 0.41\nsamples = 24\nvalue = [22, 2]\nclass = 0", fillcolor="#e78c4b"] ;
448 -> 449 ;
450 [label="Month <= 3.5\nentropy = 0.76\nsamples = 9\nvalue = [7, 2]\nclass = 0", fillcolor="#eca572"] ;
449 -> 450 ;
451 [label="entropy = 0.0\nsamples = 5\nvalue = [5, 0]\nclass = 0", fillcolor="#e58139"] ;
450 -> 451 ;
452 [label="DayOfWeekClaimed <= 4.5\nentropy = 1.0\nsamples = 4\nvalue = [2, 2]\nclass = 0", fillcolor="#ffffff"] ;
450 -> 452 ;
453 [label="Age <= 52.5\nentropy = 0.92\nsamples = 3\nvalue = [2, 1]\nclass = 0", fillcolor="#f2c09c"] ;
452 -> 453 ;
454 [label="entropy = 0.0\nsamples = 2\nvalue = [2, 0]\nclass = 0", fillcolor="#e58139"] ;
453 -> 454 ;
455 [label="entropy = 0.0\nsamples = 1\nvalue = [0, 1]\nclass = 1", fillcolor="#399de5"] ;
453 -> 455 ;
456 [label="entropy = 0.0\nsamples = 1\nvalue = [0, 1]\nclass = 1", fillcolor="#399de5"] ;
452 -> 456 ;
457 [label="entropy = 0.0\nsamples = 15\nvalue = [15, 0]\nclass = 0", fillcolor="#e58139"] ;
449 -> 457 ;
458 [label="entropy = 0.0\nsamples = 64\nvalue = [64, 0]\nclass = 0", fillcolor="#e58139"] ;
448 -> 458 ;
459 [label="NumberOfSuppliments <= 2.5\nentropy = 0.5\nsamples = 91\nvalue = [81, 10]\nclass = 0", fillcolor="#e89151"] ;
447 -> 459 ;
460 [label="WeekOfMonth <= 4.5\nentropy = 0.15\nsamples = 46\nvalue = [45, 1]\nclass = 0", fillcolor="#e6843d"] ;
459 -> 460 ;
461 [label="entropy = 0.0\nsamples = 41\nvalue = [41, 0]\nclass = 0", fillcolor="#e58139"] ;
460 -> 461 ;
462 [label="DayOfWeek <= 5.5\nentropy = 0.72\nsamples = 5\nvalue = [4, 1]\nclass = 0", fillcolor="#eca06a"] ;
460 -> 462 ;
463 [label="entropy = 0.0\nsamples = 4\nvalue = [4, 0]\nclass = 0", fillcolor="#e58139"] ;
462 -> 463 ;
464 [label="entropy = 0.0\nsamples = 1\nvalue = [0, 1]\nclass = 1", fillcolor="#399de5"] ;
462 -> 464 ;
465 [label="WeekOfMonthClaimed <= 2.5\nentropy = 0.72\nsamples = 45\nvalue = [36, 9]\nclass = 0", fillcolor="#eca06a"] ;
459 -> 465 ;
466 [label="PastNumberOfClaims <= 2.5\nentropy = 0.25\nsamples = 24\nvalue = [23, 1]\nclass = 0", fillcolor="#e68642"] ;
465 -> 466 ;
467 [label="entropy = 0.0\nsamples = 19\nvalue = [19, 0]\nclass = 0", fillcolor="#e58139"] ;
466 -> 467 ;
468 [label="Month <= 2.5\nentropy = 0.72\nsamples = 5\nvalue = [4, 1]\nclass = 0", fillcolor="#eca06a"] ;
466 -> 468 ;
469 [label="entropy = 0.0\nsamples = 1\nvalue = [0, 1]\nclass = 1", fillcolor="#399de5"] ;
468 -> 469 ;
470 [label="entropy = 0.0\nsamples = 4\nvalue = [4, 0]\nclass = 0", fillcolor="#e58139"] ;
468 -> 470 ;
471 [label="VehicleCategory <= 1.5\nentropy = 0.96\nsamples = 21\nvalue = [13, 8]\nclass = 0", fillcolor="#f5cfb3"] ;
465 -> 471 ;
472 [label="WeekOfMonth <= 2.5\nentropy = 1.0\nsamples = 16\nvalue = [8, 8]\nclass = 0", fillcolor="#ffffff"] ;
471 -> 472 ;
473 [label="entropy = 0.0\nsamples = 4\nvalue = [0, 4]\nclass = 1", fillcolor="#399de5"] ;
472 -> 473 ;
474 [label="DayOfWeekClaimed <= 2.5\nentropy = 0.92\nsamples = 12\nvalue = [8, 4]\nclass = 0", fillcolor="#f2c09c"] ;
472 -> 474 ;
475 [label="entropy = 0.0\nsamples = 6\nvalue = [6, 0]\nclass = 0", fillcolor="#e58139"] ;
474 -> 475 ;
476 [label="Age <= 49.5\nentropy = 0.92\nsamples = 6\nvalue = [2, 4]\nclass = 1", fillcolor="#9ccef2"] ;
474 -> 476 ;
477 [label="WeekOfMonthClaimed <= 4.5\nentropy = 0.92\nsamples = 3\nvalue = [2, 1]\nclass = 0", fillcolor="#f2c09c"] ;
476 -> 477 ;
478 [label="entropy = 0.0\nsamples = 2\nvalue = [2, 0]\nclass = 0", fillcolor="#e58139"] ;
477 -> 478 ;
479 [label="entropy = 0.0\nsamples = 1\nvalue = [0, 1]\nclass = 1", fillcolor="#399de5"] ;
477 -> 479 ;
480 [label="entropy = 0.0\nsamples = 3\nvalue = [0, 3]\nclass = 1", fillcolor="#399de5"] ;
476 -> 480 ;
481 [label="entropy = 0.0\nsamples = 5\nvalue = [5, 0]\nclass = 0", fillcolor="#e58139"] ;
471 -> 481 ;
482 [label="AgeOfVehicle <= 2.5\nentropy = 0.76\nsamples = 216\nvalue = [168, 48]\nclass = 0", fillcolor="#eca572"] ;
400 -> 482 ;
483 [label="WeekOfMonth <= 3.5\nentropy = 0.99\nsamples = 11\nvalue = [5, 6]\nclass = 1", fillcolor="#deeffb"] ;
482 -> 483 ;
484 [label="AgeOfVehicle <= 0.5\nentropy = 0.59\nsamples = 7\nvalue = [1, 6]\nclass = 1", fillcolor="#5aade9"] ;
483 -> 484 ;
485 [label="entropy = 0.0\nsamples = 1\nvalue = [1, 0]\nclass = 0", fillcolor="#e58139"] ;
484 -> 485 ;
486 [label="entropy = 0.0\nsamples = 6\nvalue = [0, 6]\nclass = 1", fillcolor="#399de5"] ;
484 -> 486 ;
487 [label="entropy = 0.0\nsamples = 4\nvalue = [4, 0]\nclass = 0", fillcolor="#e58139"] ;
483 -> 487 ;
488 [label="Age <= 27.5\nentropy = 0.73\nsamples = 205\nvalue = [163, 42]\nclass = 0", fillcolor="#eca16c"] ;
482 -> 488 ;
489 [label="Age <= 22.0\nentropy = 0.42\nsamples = 35\nvalue = [32, 3]\nclass = 0", fillcolor="#e78d4c"] ;
488 -> 489 ;
490 [label="WeekOfMonth <= 3.5\nentropy = 0.65\nsamples = 18\nvalue = [15, 3]\nclass = 0", fillcolor="#ea9a61"] ;
489 -> 490 ;
491 [label="DriverRating <= 1.5\nentropy = 0.52\nsamples = 17\nvalue = [15, 2]\nclass = 0", fillcolor="#e89253"] ;
490 -> 491 ;
492 [label="WeekOfMonthClaimed <= 2.5\nentropy = 1.0\nsamples = 4\nvalue = [2, 2]\nclass = 0", fillcolor="#ffffff"] ;
491 -> 492 ;
493 [label="VehiclePrice <= 3.0\nentropy = 0.92\nsamples = 3\nvalue = [2, 1]\nclass = 0", fillcolor="#f2c09c"] ;
492 -> 493 ;
494 [label="entropy = 0.0\nsamples = 1\nvalue = [0, 1]\nclass = 1", fillcolor="#399de5"] ;
493 -> 494 ;
495 [label="entropy = 0.0\nsamples = 2\nvalue = [2, 0]\nclass = 0", fillcolor="#e58139"] ;
493 -> 495 ;
496 [label="entropy = 0.0\nsamples = 1\nvalue = [0, 1]\nclass = 1", fillcolor="#399de5"] ;
492 -> 496 ;
497 [label="entropy = 0.0\nsamples = 13\nvalue = [13, 0]\nclass = 0", fillcolor="#e58139"] ;
491 -> 497 ;
498 [label="entropy = 0.0\nsamples = 1\nvalue = [0, 1]\nclass = 1", fillcolor="#399de5"] ;
490 -> 498 ;
499 [label="entropy = 0.0\nsamples = 17\nvalue = [17, 0]\nclass = 0", fillcolor="#e58139"] ;
489 -> 499 ;
500 [label="AddressChange_Claim <= 0.5\nentropy = 0.78\nsamples = 170\nvalue = [131, 39]\nclass = 0", fillcolor="#eda774"] ;
488 -> 500 ;
501 [label="entropy = 0.0\nsamples = 1\nvalue = [0, 1]\nclass = 1", fillcolor="#399de5"] ;
500 -> 501 ;
502 [label="AgeOfVehicle <= 3.5\nentropy = 0.77\nsamples = 169\nvalue = [131, 38]\nclass = 0", fillcolor="#eda672"] ;
500 -> 502 ;
503 [label="entropy = 0.0\nsamples = 6\nvalue = [6, 0]\nclass = 0", fillcolor="#e58139"] ;
502 -> 503 ;
504 [label="Age <= 78.0\nentropy = 0.78\nsamples = 163\nvalue = [125, 38]\nclass = 0", fillcolor="#eda775"] ;
502 -> 504 ;
505 [label="PastNumberOfClaims <= 1.5\nentropy = 0.78\nsamples = 162\nvalue = [125, 37]\nclass = 0", fillcolor="#eda674"] ;
504 -> 505 ;
506 [label="DayOfWeekClaimed <= 0.5\nentropy = 0.85\nsamples = 95\nvalue = [69, 26]\nclass = 0", fillcolor="#efb084"] ;
505 -> 506 ;
507 [label="DayOfWeek <= 4.5\nentropy = 1.0\nsamples = 12\nvalue = [6, 6]\nclass = 0", fillcolor="#ffffff"] ;
506 -> 507 ;
508 [label="MonthClaimed <= 2.5\nentropy = 0.81\nsamples = 8\nvalue = [6, 2]\nclass = 0", fillcolor="#eeab7b"] ;
507 -> 508 ;
509 [label="DriverRating <= 3.0\nentropy = 0.92\nsamples = 3\nvalue = [1, 2]\nclass = 1", fillcolor="#9ccef2"] ;
508 -> 509 ;
510 [label="entropy = 0.0\nsamples = 2\nvalue = [0, 2]\nclass = 1", fillcolor="#399de5"] ;
509 -> 510 ;
511 [label="entropy = 0.0\nsamples = 1\nvalue = [1, 0]\nclass = 0", fillcolor="#e58139"] ;
509 -> 511 ;
512 [label="entropy = 0.0\nsamples = 5\nvalue = [5, 0]\nclass = 0", fillcolor="#e58139"] ;
508 -> 512 ;
513 [label="entropy = 0.0\nsamples = 4\nvalue = [0, 4]\nclass = 1", fillcolor="#399de5"] ;
507 -> 513 ;
514 [label="PastNumberOfClaims <= 0.5\nentropy = 0.8\nsamples = 83\nvalue = [63, 20]\nclass = 0", fillcolor="#eda978"] ;
506 -> 514 ;
515 [label="DayOfWeek <= 2.5\nentropy = 0.35\nsamples = 30\nvalue = [28, 2]\nclass = 0", fillcolor="#e78a47"] ;
514 -> 515 ;
516 [label="WeekOfMonth <= 2.5\nentropy = 0.76\nsamples = 9\nvalue = [7, 2]\nclass = 0", fillcolor="#eca572"] ;
515 -> 516 ;
517 [label="entropy = 0.0\nsamples = 6\nvalue = [6, 0]\nclass = 0", fillcolor="#e58139"] ;
516 -> 517 ;
518 [label="AgeOfVehicle <= 5.5\nentropy = 0.92\nsamples = 3\nvalue = [1, 2]\nclass = 1", fillcolor="#9ccef2"] ;
516 -> 518 ;
519 [label="entropy = 0.0\nsamples = 2\nvalue = [0, 2]\nclass = 1", fillcolor="#399de5"] ;
518 -> 519 ;
520 [label="entropy = 0.0\nsamples = 1\nvalue = [1, 0]\nclass = 0", fillcolor="#e58139"] ;
518 -> 520 ;
521 [label="entropy = 0.0\nsamples = 21\nvalue = [21, 0]\nclass = 0", fillcolor="#e58139"] ;
515 -> 521 ;
522 [label="MonthClaimed <= 4.0\nentropy = 0.92\nsamples = 53\nvalue = [35, 18]\nclass = 0", fillcolor="#f2c29f"] ;
514 -> 522 ;
523 [label="entropy = 0.0\nsamples = 4\nvalue = [4, 0]\nclass = 0", fillcolor="#e58139"] ;
522 -> 523 ;
524 [label="Age <= 30.5\nentropy = 0.95\nsamples = 49\nvalue = [31, 18]\nclass = 0", fillcolor="#f4caac"] ;
522 -> 524 ;
525 [label="NumberOfSuppliments <= 1.5\nentropy = 0.95\nsamples = 8\nvalue = [3, 5]\nclass = 1", fillcolor="#b0d8f5"] ;
524 -> 525 ;
526 [label="entropy = 0.0\nsamples = 3\nvalue = [3, 0]\nclass = 0", fillcolor="#e58139"] ;
525 -> 526 ;
527 [label="entropy = 0.0\nsamples = 5\nvalue = [0, 5]\nclass = 1", fillcolor="#399de5"] ;
525 -> 527 ;
528 [label="WeekOfMonth <= 2.5\nentropy = 0.9\nsamples = 41\nvalue = [28, 13]\nclass = 0", fillcolor="#f1bc95"] ;
524 -> 528 ;
529 [label="Age <= 46.5\nentropy = 0.68\nsamples = 22\nvalue = [18, 4]\nclass = 0", fillcolor="#eb9d65"] ;
528 -> 529 ;
530 [label="entropy = 0.0\nsamples = 12\nvalue = [12, 0]\nclass = 0", fillcolor="#e58139"] ;
529 -> 530 ;
531 [label="Month <= 7.5\nentropy = 0.97\nsamples = 10\nvalue = [6, 4]\nclass = 0", fillcolor="#f6d5bd"] ;
529 -> 531 ;
532 [label="NumberOfSuppliments <= 1.5\nentropy = 0.99\nsamples = 7\nvalue = [3, 4]\nclass = 1", fillcolor="#cee6f8"] ;
531 -> 532 ;
533 [label="entropy = 0.0\nsamples = 3\nvalue = [0, 3]\nclass = 1", fillcolor="#399de5"] ;
532 -> 533 ;
534 [label="DayOfWeekClaimed <= 4.0\nentropy = 0.81\nsamples = 4\nvalue = [3, 1]\nclass = 0", fillcolor="#eeab7b"] ;
532 -> 534 ;
535 [label="entropy = 0.0\nsamples = 3\nvalue = [3, 0]\nclass = 0", fillcolor="#e58139"] ;
534 -> 535 ;
536 [label="entropy = 0.0\nsamples = 1\nvalue = [0, 1]\nclass = 1", fillcolor="#399de5"] ;
534 -> 536 ;
537 [label="entropy = 0.0\nsamples = 3\nvalue = [3, 0]\nclass = 0", fillcolor="#e58139"] ;
531 -> 537 ;
538 [label="Age <= 46.0\nentropy = 1.0\nsamples = 19\nvalue = [10, 9]\nclass = 0", fillcolor="#fcf2eb"] ;
528 -> 538 ;
539 [label="Month <= 7.5\nentropy = 0.96\nsamples = 13\nvalue = [5, 8]\nclass = 1", fillcolor="#b5daf5"] ;
538 -> 539 ;
540 [label="WeekOfMonthClaimed <= 3.5\nentropy = 0.99\nsamples = 7\nvalue = [4, 3]\nclass = 0", fillcolor="#f8e0ce"] ;
539 -> 540 ;
541 [label="entropy = 0.0\nsamples = 3\nvalue = [3, 0]\nclass = 0", fillcolor="#e58139"] ;
540 -> 541 ;
542 [label="Make <= 7.5\nentropy = 0.81\nsamples = 4\nvalue = [1, 3]\nclass = 1", fillcolor="#7bbeee"] ;
540 -> 542 ;
543 [label="entropy = 0.0\nsamples = 1\nvalue = [1, 0]\nclass = 0", fillcolor="#e58139"] ;
542 -> 543 ;
544 [label="entropy = 0.0\nsamples = 3\nvalue = [0, 3]\nclass = 1", fillcolor="#399de5"] ;
542 -> 544 ;
545 [label="Age <= 41.0\nentropy = 0.65\nsamples = 6\nvalue = [1, 5]\nclass = 1", fillcolor="#61b1ea"] ;
539 -> 545 ;
546 [label="entropy = 0.0\nsamples = 4\nvalue = [0, 4]\nclass = 1", fillcolor="#399de5"] ;
545 -> 546 ;
547 [label="WeekOfMonth <= 3.5\nentropy = 1.0\nsamples = 2\nvalue = [1, 1]\nclass = 0", fillcolor="#ffffff"] ;
545 -> 547 ;
548 [label="entropy = 0.0\nsamples = 1\nvalue = [0, 1]\nclass = 1", fillcolor="#399de5"] ;
547 -> 548 ;
549 [label="entropy = 0.0\nsamples = 1\nvalue = [1, 0]\nclass = 0", fillcolor="#e58139"] ;
547 -> 549 ;
550 [label="AgeOfVehicle <= 4.5\nentropy = 0.65\nsamples = 6\nvalue = [5, 1]\nclass = 0", fillcolor="#ea9a61"] ;
538 -> 550 ;
551 [label="entropy = 0.0\nsamples = 1\nvalue = [0, 1]\nclass = 1", fillcolor="#399de5"] ;
550 -> 551 ;
552 [label="entropy = 0.0\nsamples = 5\nvalue = [5, 0]\nclass = 0", fillcolor="#e58139"] ;
550 -> 552 ;
553 [label="Month <= 6.5\nentropy = 0.64\nsamples = 67\nvalue = [56, 11]\nclass = 0", fillcolor="#ea9a60"] ;
505 -> 553 ;
554 [label="entropy = 0.0\nsamples = 18\nvalue = [18, 0]\nclass = 0", fillcolor="#e58139"] ;
553 -> 554 ;
555 [label="VehiclePrice <= 3.0\nentropy = 0.77\nsamples = 49\nvalue = [38, 11]\nclass = 0", fillcolor="#eda572"] ;
553 -> 555 ;
556 [label="AgeOfVehicle <= 4.5\nentropy = 0.39\nsamples = 26\nvalue = [24, 2]\nclass = 0", fillcolor="#e78c49"] ;
555 -> 556 ;
557 [label="Month <= 7.5\nentropy = 0.76\nsamples = 9\nvalue = [7, 2]\nclass = 0", fillcolor="#eca572"] ;
556 -> 557 ;
558 [label="WeekOfMonth <= 3.0\nentropy = 0.92\nsamples = 3\nvalue = [1, 2]\nclass = 1", fillcolor="#9ccef2"] ;
557 -> 558 ;
559 [label="entropy = 0.0\nsamples = 2\nvalue = [0, 2]\nclass = 1", fillcolor="#399de5"] ;
558 -> 559 ;
560 [label="entropy = 0.0\nsamples = 1\nvalue = [1, 0]\nclass = 0", fillcolor="#e58139"] ;
558 -> 560 ;
561 [label="entropy = 0.0\nsamples = 6\nvalue = [6, 0]\nclass = 0", fillcolor="#e58139"] ;
557 -> 561 ;
562 [label="entropy = 0.0\nsamples = 17\nvalue = [17, 0]\nclass = 0", fillcolor="#e58139"] ;
556 -> 562 ;
563 [label="Month <= 8.5\nentropy = 0.97\nsamples = 23\nvalue = [14, 9]\nclass = 0", fillcolor="#f6d2b8"] ;
555 -> 563 ;
564 [label="DayOfWeekClaimed <= 4.5\nentropy = 0.88\nsamples = 20\nvalue = [14, 6]\nclass = 0", fillcolor="#f0b78e"] ;
563 -> 564 ;
565 [label="Age <= 34.5\nentropy = 0.99\nsamples = 14\nvalue = [8, 6]\nclass = 0", fillcolor="#f8e0ce"] ;
564 -> 565 ;
566 [label="entropy = 0.0\nsamples = 4\nvalue = [4, 0]\nclass = 0", fillcolor="#e58139"] ;
565 -> 566 ;
567 [label="DayOfWeek <= 2.0\nentropy = 0.97\nsamples = 10\nvalue = [4, 6]\nclass = 1", fillcolor="#bddef6"] ;
565 -> 567 ;
568 [label="entropy = 0.0\nsamples = 4\nvalue = [0, 4]\nclass = 1", fillcolor="#399de5"] ;
567 -> 568 ;
569 [label="NumberOfSuppliments <= 2.5\nentropy = 0.92\nsamples = 6\nvalue = [4, 2]\nclass = 0", fillcolor="#f2c09c"] ;
567 -> 569 ;
570 [label="NumberOfSuppliments <= 1.5\nentropy = 0.72\nsamples = 5\nvalue = [4, 1]\nclass = 0", fillcolor="#eca06a"] ;
569 -> 570 ;
571 [label="DayOfWeek <= 4.5\nentropy = 1.0\nsamples = 2\nvalue = [1, 1]\nclass = 0", fillcolor="#ffffff"] ;
570 -> 571 ;
572 [label="entropy = 0.0\nsamples = 1\nvalue = [1, 0]\nclass = 0", fillcolor="#e58139"] ;
571 -> 572 ;
573 [label="entropy = 0.0\nsamples = 1\nvalue = [0, 1]\nclass = 1", fillcolor="#399de5"] ;
571 -> 573 ;
574 [label="entropy = 0.0\nsamples = 3\nvalue = [3, 0]\nclass = 0", fillcolor="#e58139"] ;
570 -> 574 ;
575 [label="entropy = 0.0\nsamples = 1\nvalue = [0, 1]\nclass = 1", fillcolor="#399de5"] ;
569 -> 575 ;
576 [label="entropy = 0.0\nsamples = 6\nvalue = [6, 0]\nclass = 0", fillcolor="#e58139"] ;
564 -> 576 ;
577 [label="entropy = 0.0\nsamples = 3\nvalue = [0, 3]\nclass = 1", fillcolor="#399de5"] ;
563 -> 577 ;
578 [label="entropy = 0.0\nsamples = 1\nvalue = [0, 1]\nclass = 1", fillcolor="#399de5"] ;
504 -> 578 ;
579 [label="AddressChange_Claim <= 1.5\nentropy = 0.09\nsamples = 797\nvalue = [788, 9]\nclass = 0", fillcolor="#e5823b"] ;
1 -> 579 ;
580 [label="AgeOfPolicyHolder <= 5.5\nentropy = 0.95\nsamples = 24\nvalue = [15, 9]\nclass = 0", fillcolor="#f5cdb0"] ;
579 -> 580 ;
581 [label="AddressChange_Claim <= 0.5\nentropy = 0.94\nsamples = 14\nvalue = [5, 9]\nclass = 1", fillcolor="#a7d3f3"] ;
580 -> 581 ;
582 [label="entropy = 0.0\nsamples = 4\nvalue = [4, 0]\nclass = 0", fillcolor="#e58139"] ;
581 -> 582 ;
583 [label="MaritalStatus <= 1.5\nentropy = 0.47\nsamples = 10\nvalue = [1, 9]\nclass = 1", fillcolor="#4fa8e8"] ;
581 -> 583 ;
584 [label="entropy = 0.0\nsamples = 9\nvalue = [0, 9]\nclass = 1", fillcolor="#399de5"] ;
583 -> 584 ;
585 [label="entropy = 0.0\nsamples = 1\nvalue = [1, 0]\nclass = 0", fillcolor="#e58139"] ;
583 -> 585 ;
586 [label="entropy = 0.0\nsamples = 10\nvalue = [10, 0]\nclass = 0", fillcolor="#e58139"] ;
580 -> 586 ;
587 [label="entropy = 0.0\nsamples = 773\nvalue = [773, 0]\nclass = 0", fillcolor="#e58139"] ;
579 -> 587 ;
588 [label="Make <= 2.5\nentropy = 0.09\nsamples = 1099\nvalue = [1087, 12]\nclass = 0", fillcolor="#e5823b"] ;
0 -> 588 [labeldistance=2.5, labelangle=-45, headlabel="False"] ;
589 [label="Age <= 78.0\nentropy = 0.24\nsamples = 151\nvalue = [145, 6]\nclass = 0", fillcolor="#e68641"] ;
588 -> 589 ;
590 [label="Age <= 36.5\nentropy = 0.21\nsamples = 150\nvalue = [145, 5]\nclass = 0", fillcolor="#e68540"] ;
589 -> 590 ;
591 [label="entropy = 0.0\nsamples = 53\nvalue = [53, 0]\nclass = 0", fillcolor="#e58139"] ;
590 -> 591 ;
592 [label="Month <= 3.5\nentropy = 0.29\nsamples = 97\nvalue = [92, 5]\nclass = 0", fillcolor="#e68844"] ;
590 -> 592 ;
593 [label="entropy = 0.0\nsamples = 34\nvalue = [34, 0]\nclass = 0", fillcolor="#e58139"] ;
592 -> 593 ;
594 [label="MonthClaimed <= 4.5\nentropy = 0.4\nsamples = 63\nvalue = [58, 5]\nclass = 0", fillcolor="#e78c4a"] ;
592 -> 594 ;
595 [label="DriverRating <= 3.5\nentropy = 0.84\nsamples = 15\nvalue = [11, 4]\nclass = 0", fillcolor="#eeaf81"] ;
594 -> 595 ;
596 [label="WeekOfMonthClaimed <= 1.5\nentropy = 0.95\nsamples = 11\nvalue = [7, 4]\nclass = 0", fillcolor="#f4c9aa"] ;
595 -> 596 ;
597 [label="entropy = 0.0\nsamples = 3\nvalue = [3, 0]\nclass = 0", fillcolor="#e58139"] ;
596 -> 597 ;
598 [label="MaritalStatus <= 1.5\nentropy = 1.0\nsamples = 8\nvalue = [4, 4]\nclass = 0", fillcolor="#ffffff"] ;
596 -> 598 ;
599 [label="AgeOfPolicyHolder <= 7.0\nentropy = 0.72\nsamples = 5\nvalue = [1, 4]\nclass = 1", fillcolor="#6ab6ec"] ;
598 -> 599 ;
600 [label="entropy = 0.0\nsamples = 4\nvalue = [0, 4]\nclass = 1", fillcolor="#399de5"] ;
599 -> 600 ;
601 [label="entropy = 0.0\nsamples = 1\nvalue = [1, 0]\nclass = 0", fillcolor="#e58139"] ;
599 -> 601 ;
602 [label="entropy = 0.0\nsamples = 3\nvalue = [3, 0]\nclass = 0", fillcolor="#e58139"] ;
598 -> 602 ;
603 [label="entropy = 0.0\nsamples = 4\nvalue = [4, 0]\nclass = 0", fillcolor="#e58139"] ;
595 -> 603 ;
604 [label="Make <= 1.0\nentropy = 0.15\nsamples = 48\nvalue = [47, 1]\nclass = 0", fillcolor="#e6843d"] ;
594 -> 604 ;
605 [label="DayOfWeek <= 4.5\nentropy = 0.65\nsamples = 6\nvalue = [5, 1]\nclass = 0", fillcolor="#ea9a61"] ;
604 -> 605 ;
606 [label="entropy = 0.0\nsamples = 5\nvalue = [5, 0]\nclass = 0", fillcolor="#e58139"] ;
605 -> 606 ;
607 [label="entropy = 0.0\nsamples = 1\nvalue = [0, 1]\nclass = 1", fillcolor="#399de5"] ;
605 -> 607 ;
608 [label="entropy = 0.0\nsamples = 42\nvalue = [42, 0]\nclass = 0", fillcolor="#e58139"] ;
604 -> 608 ;
609 [label="entropy = 0.0\nsamples = 1\nvalue = [0, 1]\nclass = 1", fillcolor="#399de5"] ;
589 -> 609 ;
610 [label="DayOfWeekClaimed <= 3.5\nentropy = 0.06\nsamples = 948\nvalue = [942, 6]\nclass = 0", fillcolor="#e5823a"] ;
588 -> 610 ;
611 [label="entropy = 0.0\nsamples = 393\nvalue = [393, 0]\nclass = 0", fillcolor="#e58139"] ;
610 -> 611 ;
612 [label="Deductible <= 450.0\nentropy = 0.09\nsamples = 555\nvalue = [549, 6]\nclass = 0", fillcolor="#e5823b"] ;
610 -> 612 ;
613 [label="DayOfWeek <= 3.5\nentropy = 0.06\nsamples = 531\nvalue = [527, 4]\nclass = 0", fillcolor="#e5823b"] ;
612 -> 613 ;
614 [label="WeekOfMonth <= 3.5\nentropy = 0.12\nsamples = 236\nvalue = [232, 4]\nclass = 0", fillcolor="#e5833c"] ;
613 -> 614 ;
615 [label="NumberOfSuppliments <= 1.5\nentropy = 0.17\nsamples = 158\nvalue = [154, 4]\nclass = 0", fillcolor="#e6843e"] ;
614 -> 615 ;
616 [label="entropy = 0.0\nsamples = 46\nvalue = [46, 0]\nclass = 0", fillcolor="#e58139"] ;
615 -> 616 ;
617 [label="Age <= 32.5\nentropy = 0.22\nsamples = 112\nvalue = [108, 4]\nclass = 0", fillcolor="#e68640"] ;
615 -> 617 ;
618 [label="Month <= 6.5\nentropy = 0.39\nsamples = 39\nvalue = [36, 3]\nclass = 0", fillcolor="#e78c49"] ;
617 -> 618 ;
619 [label="Age <= 31.5\nentropy = 0.5\nsamples = 27\nvalue = [24, 3]\nclass = 0", fillcolor="#e89152"] ;
618 -> 619 ;
620 [label="WeekOfMonthClaimed <= 2.5\nentropy = 0.39\nsamples = 26\nvalue = [24, 2]\nclass = 0", fillcolor="#e78c49"] ;
619 -> 620 ;
621 [label="entropy = 0.0\nsamples = 12\nvalue = [12, 0]\nclass = 0", fillcolor="#e58139"] ;
620 -> 621 ;
622 [label="WeekOfMonth <= 1.5\nentropy = 0.59\nsamples = 14\nvalue = [12, 2]\nclass = 0", fillcolor="#e9965a"] ;
620 -> 622 ;
623 [label="entropy = 0.0\nsamples = 1\nvalue = [0, 1]\nclass = 1", fillcolor="#399de5"] ;
622 -> 623 ;
624 [label="DriverRating <= 3.5\nentropy = 0.39\nsamples = 13\nvalue = [12, 1]\nclass = 0", fillcolor="#e78c49"] ;
622 -> 624 ;
625 [label="entropy = 0.0\nsamples = 9\nvalue = [9, 0]\nclass = 0", fillcolor="#e58139"] ;
624 -> 625 ;
626 [label="AgeOfVehicle <= 6.0\nentropy = 0.81\nsamples = 4\nvalue = [3, 1]\nclass = 0", fillcolor="#eeab7b"] ;
624 -> 626 ;
627 [label="entropy = 0.0\nsamples = 3\nvalue = [3, 0]\nclass = 0", fillcolor="#e58139"] ;
626 -> 627 ;
628 [label="entropy = 0.0\nsamples = 1\nvalue = [0, 1]\nclass = 1", fillcolor="#399de5"] ;
626 -> 628 ;
629 [label="entropy = 0.0\nsamples = 1\nvalue = [0, 1]\nclass = 1", fillcolor="#399de5"] ;
619 -> 629 ;
630 [label="entropy = 0.0\nsamples = 12\nvalue = [12, 0]\nclass = 0", fillcolor="#e58139"] ;
618 -> 630 ;
631 [label="DayOfWeekClaimed <= 4.5\nentropy = 0.1\nsamples = 73\nvalue = [72, 1]\nclass = 0", fillcolor="#e5833c"] ;
617 -> 631 ;
632 [label="AgeOfVehicle <= 5.5\nentropy = 0.41\nsamples = 12\nvalue = [11, 1]\nclass = 0", fillcolor="#e78c4b"] ;
631 -> 632 ;
633 [label="entropy = 0.0\nsamples = 9\nvalue = [9, 0]\nclass = 0", fillcolor="#e58139"] ;
632 -> 633 ;
634 [label="WeekOfMonthClaimed <= 2.5\nentropy = 0.92\nsamples = 3\nvalue = [2, 1]\nclass = 0", fillcolor="#f2c09c"] ;
632 -> 634 ;
635 [label="entropy = 0.0\nsamples = 1\nvalue = [0, 1]\nclass = 1", fillcolor="#399de5"] ;
634 -> 635 ;
636 [label="entropy = 0.0\nsamples = 2\nvalue = [2, 0]\nclass = 0", fillcolor="#e58139"] ;
634 -> 636 ;
637 [label="entropy = 0.0\nsamples = 61\nvalue = [61, 0]\nclass = 0", fillcolor="#e58139"] ;
631 -> 637 ;
638 [label="entropy = 0.0\nsamples = 78\nvalue = [78, 0]\nclass = 0", fillcolor="#e58139"] ;
614 -> 638 ;
639 [label="entropy = 0.0\nsamples = 295\nvalue = [295, 0]\nclass = 0", fillcolor="#e58139"] ;
613 -> 639 ;
640 [label="NumberOfCars <= 0.5\nentropy = 0.41\nsamples = 24\nvalue = [22, 2]\nclass = 0", fillcolor="#e78c4b"] ;
612 -> 640 ;
641 [label="Month <= 1.5\nentropy = 0.26\nsamples = 23\nvalue = [22, 1]\nclass = 0", fillcolor="#e68742"] ;
640 -> 641 ;
642 [label="WeekOfMonth <= 2.5\nentropy = 0.92\nsamples = 3\nvalue = [2, 1]\nclass = 0", fillcolor="#f2c09c"] ;
641 -> 642 ;
643 [label="entropy = 0.0\nsamples = 1\nvalue = [1, 0]\nclass = 0", fillcolor="#e58139"] ;
642 -> 643 ;
644 [label="VehiclePrice <= 3.0\nentropy = 1.0\nsamples = 2\nvalue = [1, 1]\nclass = 0", fillcolor="#ffffff"] ;
642 -> 644 ;
645 [label="entropy = 0.0\nsamples = 1\nvalue = [0, 1]\nclass = 1", fillcolor="#399de5"] ;
644 -> 645 ;
646 [label="entropy = 0.0\nsamples = 1\nvalue = [1, 0]\nclass = 0", fillcolor="#e58139"] ;
644 -> 646 ;
647 [label="entropy = 0.0\nsamples = 20\nvalue = [20, 0]\nclass = 0", fillcolor="#e58139"] ;
641 -> 647 ;
648 [label="entropy = 0.0\nsamples = 1\nvalue = [0, 1]\nclass = 1", fillcolor="#399de5"] ;
640 -> 648 ;
}