digraph Tree {
node [shape=box, style="filled, rounded", color="black", fontname=helvetica] ;
edge [fontname=helvetica] ;
0 [label="Month <= 8.5\nentropy = 0.26\nsamples = 3500\nvalue = [3349, 151]\nclass = 0", fillcolor="#e68742"] ;
1 [label="MonthClaimed <= 2.5\nentropy = 0.13\nsamples = 2161\nvalue = [2121, 40]\nclass = 0", fillcolor="#e5833d"] ;
0 -> 1 [labeldistance=2.5, labelangle=45, headlabel="True"] ;
2 [label="MonthClaimed <= 1.5\nentropy = 0.23\nsamples = 938\nvalue = [902, 36]\nclass = 0", fillcolor="#e68641"] ;
1 -> 2 ;
3 [label="Month <= 0.5\nentropy = 0.09\nsamples = 584\nvalue = [577, 7]\nclass = 0", fillcolor="#e5833b"] ;
2 -> 3 ;
4 [label="Age <= 42.5\nentropy = 0.22\nsamples = 174\nvalue = [168, 6]\nclass = 0", fillcolor="#e68640"] ;
3 -> 4 ;
5 [label="entropy = 0.0\nsamples = 104\nvalue = [104, 0]\nclass = 0", fillcolor="#e58139"] ;
4 -> 5 ;
6 [label="Age <= 48.5\nentropy = 0.42\nsamples = 70\nvalue = [64, 6]\nclass = 0", fillcolor="#e78d4c"] ;
4 -> 6 ;
7 [label="Make <= 7.5\nentropy = 0.71\nsamples = 26\nvalue = [21, 5]\nclass = 0", fillcolor="#eb9f68"] ;
6 -> 7 ;
8 [label="entropy = 0.0\nsamples = 9\nvalue = [9, 0]\nclass = 0", fillcolor="#e58139"] ;
7 -> 8 ;
9 [label="PastNumberOfClaims <= 2.5\nentropy = 0.87\nsamples = 17\nvalue = [12, 5]\nclass = 0", fillcolor="#f0b58b"] ;
7 -> 9 ;
10 [label="DriverRating <= 2.5\nentropy = 0.62\nsamples = 13\nvalue = [11, 2]\nclass = 0", fillcolor="#ea985d"] ;
9 -> 10 ;
11 [label="Make <= 15.0\nentropy = 0.97\nsamples = 5\nvalue = [3, 2]\nclass = 0", fillcolor="#f6d5bd"] ;
10 -> 11 ;
12 [label="entropy = 0.0\nsamples = 2\nvalue = [0, 2]\nclass = 1", fillcolor="#399de5"] ;
11 -> 12 ;
13 [label="entropy = 0.0\nsamples = 3\nvalue = [3, 0]\nclass = 0", fillcolor="#e58139"] ;
11 -> 13 ;
14 [label="entropy = 0.0\nsamples = 8\nvalue = [8, 0]\nclass = 0", fillcolor="#e58139"] ;
10 -> 14 ;
15 [label="DayOfWeek <= 4.5\nentropy = 0.81\nsamples = 4\nvalue = [1, 3]\nclass = 1", fillcolor="#7bbeee"] ;
9 -> 15 ;
16 [label="entropy = 0.0\nsamples = 3\nvalue = [0, 3]\nclass = 1", fillcolor="#399de5"] ;
15 -> 16 ;
17 [label="entropy = 0.0\nsamples = 1\nvalue = [1, 0]\nclass = 0", fillcolor="#e58139"] ;
15 -> 17 ;
18 [label="AgeOfVehicle <= 4.5\nentropy = 0.16\nsamples = 44\nvalue = [43, 1]\nclass = 0", fillcolor="#e6843e"] ;
6 -> 18 ;
19 [label="DayOfWeek <= 3.5\nentropy = 0.81\nsamples = 4\nvalue = [3, 1]\nclass = 0", fillcolor="#eeab7b"] ;
18 -> 19 ;
20 [label="entropy = 0.0\nsamples = 3\nvalue = [3, 0]\nclass = 0", fillcolor="#e58139"] ;
19 -> 20 ;
21 [label="entropy = 0.0\nsamples = 1\nvalue = [0, 1]\nclass = 1", fillcolor="#399de5"] ;
19 -> 21 ;
22 [label="entropy = 0.0\nsamples = 40\nvalue = [40, 0]\nclass = 0", fillcolor="#e58139"] ;
18 -> 22 ;
23 [label="AddressChange_Claim <= 1.5\nentropy = 0.02\nsamples = 410\nvalue = [409, 1]\nclass = 0", fillcolor="#e58139"] ;
3 -> 23 ;
24 [label="NumberOfCars <= 1.0\nentropy = 0.5\nsamples = 9\nvalue = [8, 1]\nclass = 0", fillcolor="#e89152"] ;
23 -> 24 ;
25 [label="entropy = 0.0\nsamples = 8\nvalue = [8, 0]\nclass = 0", fillcolor="#e58139"] ;
24 -> 25 ;
26 [label="entropy = 0.0\nsamples = 1\nvalue = [0, 1]\nclass = 1", fillcolor="#399de5"] ;
24 -> 26 ;
27 [label="entropy = 0.0\nsamples = 401\nvalue = [401, 0]\nclass = 0", fillcolor="#e58139"] ;
23 -> 27 ;
28 [label="VehiclePrice <= 0.5\nentropy = 0.41\nsamples = 354\nvalue = [325, 29]\nclass = 0", fillcolor="#e78c4b"] ;
2 -> 28 ;
29 [label="Deductible <= 350.0\nentropy = 0.25\nsamples = 191\nvalue = [183, 8]\nclass = 0", fillcolor="#e68742"] ;
28 -> 29 ;
30 [label="entropy = 0.0\nsamples = 1\nvalue = [0, 1]\nclass = 1", fillcolor="#399de5"] ;
29 -> 30 ;
31 [label="Fault <= 0.5\nentropy = 0.23\nsamples = 190\nvalue = [183, 7]\nclass = 0", fillcolor="#e68641"] ;
29 -> 31 ;
32 [label="PastNumberOfClaims <= 0.5\nentropy = 0.29\nsamples = 135\nvalue = [128, 7]\nclass = 0", fillcolor="#e68844"] ;
31 -> 32 ;
33 [label="entropy = 0.0\nsamples = 33\nvalue = [33, 0]\nclass = 0", fillcolor="#e58139"] ;
32 -> 33 ;
34 [label="Age <= 22.5\nentropy = 0.36\nsamples = 102\nvalue = [95, 7]\nclass = 0", fillcolor="#e78a48"] ;
32 -> 34 ;
35 [label="PastNumberOfClaims <= 1.5\nentropy = 0.92\nsamples = 6\nvalue = [4, 2]\nclass = 0", fillcolor="#f2c09c"] ;
34 -> 35 ;
36 [label="MaritalStatus <= 1.5\nentropy = 0.92\nsamples = 3\nvalue = [1, 2]\nclass = 1", fillcolor="#9ccef2"] ;
35 -> 36 ;
37 [label="entropy = 0.0\nsamples = 1\nvalue = [1, 0]\nclass = 0", fillcolor="#e58139"] ;
36 -> 37 ;
38 [label="entropy = 0.0\nsamples = 2\nvalue = [0, 2]\nclass = 1", fillcolor="#399de5"] ;
36 -> 38 ;
39 [label="entropy = 0.0\nsamples = 3\nvalue = [3, 0]\nclass = 0", fillcolor="#e58139"] ;
35 -> 39 ;
40 [label="Age <= 32.5\nentropy = 0.3\nsamples = 96\nvalue = [91, 5]\nclass = 0", fillcolor="#e68844"] ;
34 -> 40 ;
41 [label="entropy = 0.0\nsamples = 31\nvalue = [31, 0]\nclass = 0", fillcolor="#e58139"] ;
40 -> 41 ;
42 [label="Age <= 47.5\nentropy = 0.39\nsamples = 65\nvalue = [60, 5]\nclass = 0", fillcolor="#e78c49"] ;
40 -> 42 ;
43 [label="MaritalStatus <= 1.5\nentropy = 0.52\nsamples = 43\nvalue = [38, 5]\nclass = 0", fillcolor="#e89253"] ;
42 -> 43 ;
44 [label="Sex <= 0.5\nentropy = 0.66\nsamples = 29\nvalue = [24, 5]\nclass = 0", fillcolor="#ea9b62"] ;
43 -> 44 ;
45 [label="AgeOfVehicle <= 4.5\nentropy = 0.92\nsamples = 3\nvalue = [1, 2]\nclass = 1", fillcolor="#9ccef2"] ;
44 -> 45 ;
46 [label="entropy = 0.0\nsamples = 1\nvalue = [1, 0]\nclass = 0", fillcolor="#e58139"] ;
45 -> 46 ;
47 [label="entropy = 0.0\nsamples = 2\nvalue = [0, 2]\nclass = 1", fillcolor="#399de5"] ;
45 -> 47 ;
48 [label="NumberOfSuppliments <= 2.5\nentropy = 0.52\nsamples = 26\nvalue = [23, 3]\nclass = 0", fillcolor="#e89153"] ;
44 -> 48 ;
49 [label="entropy = 0.0\nsamples = 15\nvalue = [15, 0]\nclass = 0", fillcolor="#e58139"] ;
48 -> 49 ;
50 [label="PastNumberOfClaims <= 2.5\nentropy = 0.85\nsamples = 11\nvalue = [8, 3]\nclass = 0", fillcolor="#efb083"] ;
48 -> 50 ;
51 [label="DayOfWeekClaimed <= 5.5\nentropy = 0.5\nsamples = 9\nvalue = [8, 1]\nclass = 0", fillcolor="#e89152"] ;
50 -> 51 ;
52 [label="entropy = 0.0\nsamples = 8\nvalue = [8, 0]\nclass = 0", fillcolor="#e58139"] ;
51 -> 52 ;
53 [label="entropy = 0.0\nsamples = 1\nvalue = [0, 1]\nclass = 1", fillcolor="#399de5"] ;
51 -> 53 ;
54 [label="entropy = 0.0\nsamples = 2\nvalue = [0, 2]\nclass = 1", fillcolor="#399de5"] ;
50 -> 54 ;
55 [label="entropy = 0.0\nsamples = 14\nvalue = [14, 0]\nclass = 0", fillcolor="#e58139"] ;
43 -> 55 ;
56 [label="entropy = 0.0\nsamples = 22\nvalue = [22, 0]\nclass = 0", fillcolor="#e58139"] ;
42 -> 56 ;
57 [label="entropy = 0.0\nsamples = 55\nvalue = [55, 0]\nclass = 0", fillcolor="#e58139"] ;
31 -> 57 ;
58 [label="DriverRating <= 3.5\nentropy = 0.55\nsamples = 163\nvalue = [142, 21]\nclass = 0", fillcolor="#e99456"] ;
28 -> 58 ;
59 [label="DayOfWeek <= 0.5\nentropy = 0.64\nsamples = 116\nvalue = [97, 19]\nclass = 0", fillcolor="#ea9a60"] ;
58 -> 59 ;
60 [label="entropy = 0.0\nsamples = 20\nvalue = [20, 0]\nclass = 0", fillcolor="#e58139"] ;
59 -> 60 ;
61 [label="BasePolicy <= 1.5\nentropy = 0.72\nsamples = 96\nvalue = [77, 19]\nclass = 0", fillcolor="#eba06a"] ;
59 -> 61 ;
62 [label="PoliceReportFiled <= 0.5\nentropy = 0.81\nsamples = 72\nvalue = [54, 18]\nclass = 0", fillcolor="#eeab7b"] ;
61 -> 62 ;
63 [label="WeekOfMonthClaimed <= 1.5\nentropy = 0.76\nsamples = 69\nvalue = [54, 15]\nclass = 0", fillcolor="#eca470"] ;
62 -> 63 ;
64 [label="entropy = 0.0\nsamples = 11\nvalue = [11, 0]\nclass = 0", fillcolor="#e58139"] ;
63 -> 64 ;
65 [label="Fault <= 0.5\nentropy = 0.82\nsamples = 58\nvalue = [43, 15]\nclass = 0", fillcolor="#eead7e"] ;
63 -> 65 ;
66 [label="WeekOfMonth <= 3.5\nentropy = 0.89\nsamples = 45\nvalue = [31, 14]\nclass = 0", fillcolor="#f1ba92"] ;
65 -> 66 ;
67 [label="Age <= 21.5\nentropy = 0.95\nsamples = 38\nvalue = [24, 14]\nclass = 0", fillcolor="#f4caac"] ;
66 -> 67 ;
68 [label="entropy = 0.0\nsamples = 3\nvalue = [3, 0]\nclass = 0", fillcolor="#e58139"] ;
67 -> 68 ;
69 [label="WeekOfMonthClaimed <= 4.5\nentropy = 0.97\nsamples = 35\nvalue = [21, 14]\nclass = 0", fillcolor="#f6d5bd"] ;
67 -> 69 ;
70 [label="DayOfWeek <= 1.5\nentropy = 0.95\nsamples = 33\nvalue = [21, 12]\nclass = 0", fillcolor="#f4c9aa"] ;
69 -> 70 ;
71 [label="Age <= 28.0\nentropy = 0.54\nsamples = 8\nvalue = [7, 1]\nclass = 0", fillcolor="#e99355"] ;
70 -> 71 ;
72 [label="entropy = 0.0\nsamples = 1\nvalue = [0, 1]\nclass = 1", fillcolor="#399de5"] ;
71 -> 72 ;
73 [label="entropy = 0.0\nsamples = 7\nvalue = [7, 0]\nclass = 0", fillcolor="#e58139"] ;
71 -> 73 ;
74 [label="Age <= 27.5\nentropy = 0.99\nsamples = 25\nvalue = [14, 11]\nclass = 0", fillcolor="#f9e4d5"] ;
70 -> 74 ;
75 [label="entropy = 0.0\nsamples = 2\nvalue = [2, 0]\nclass = 0", fillcolor="#e58139"] ;
74 -> 75 ;
76 [label="AgeOfVehicle <= 4.5\nentropy = 1.0\nsamples = 23\nvalue = [12, 11]\nclass = 0", fillcolor="#fdf5ef"] ;
74 -> 76 ;
77 [label="WeekOfMonth <= 2.5\nentropy = 0.72\nsamples = 5\nvalue = [1, 4]\nclass = 1", fillcolor="#6ab6ec"] ;
76 -> 77 ;
78 [label="entropy = 0.0\nsamples = 4\nvalue = [0, 4]\nclass = 1", fillcolor="#399de5"] ;
77 -> 78 ;
79 [label="entropy = 0.0\nsamples = 1\nvalue = [1, 0]\nclass = 0", fillcolor="#e58139"] ;
77 -> 79 ;
80 [label="VehicleCategory <= 1.5\nentropy = 0.96\nsamples = 18\nvalue = [11, 7]\nclass = 0", fillcolor="#f6d1b7"] ;
76 -> 80 ;
81 [label="Age <= 41.5\nentropy = 1.0\nsamples = 15\nvalue = [8, 7]\nclass = 0", fillcolor="#fcefe6"] ;
80 -> 81 ;
82 [label="NumberOfSuppliments <= 0.5\nentropy = 0.65\nsamples = 6\nvalue = [5, 1]\nclass = 0", fillcolor="#ea9a61"] ;
81 -> 82 ;
83 [label="entropy = 0.0\nsamples = 1\nvalue = [0, 1]\nclass = 1", fillcolor="#399de5"] ;
82 -> 83 ;
84 [label="entropy = 0.0\nsamples = 5\nvalue = [5, 0]\nclass = 0", fillcolor="#e58139"] ;
82 -> 84 ;
85 [label="Age <= 73.0\nentropy = 0.92\nsamples = 9\nvalue = [3, 6]\nclass = 1", fillcolor="#9ccef2"] ;
81 -> 85 ;
86 [label="Make <= 17.5\nentropy = 0.81\nsamples = 8\nvalue = [2, 6]\nclass = 1", fillcolor="#7bbeee"] ;
85 -> 86 ;
87 [label="DayOfWeek <= 4.5\nentropy = 0.59\nsamples = 7\nvalue = [1, 6]\nclass = 1", fillcolor="#5aade9"] ;
86 -> 87 ;
88 [label="entropy = 0.0\nsamples = 4\nvalue = [0, 4]\nclass = 1", fillcolor="#399de5"] ;
87 -> 88 ;
89 [label="DayOfWeek <= 5.5\nentropy = 0.92\nsamples = 3\nvalue = [1, 2]\nclass = 1", fillcolor="#9ccef2"] ;
87 -> 89 ;
90 [label="entropy = 0.0\nsamples = 1\nvalue = [1, 0]\nclass = 0", fillcolor="#e58139"] ;
89 -> 90 ;
91 [label="entropy = 0.0\nsamples = 2\nvalue = [0, 2]\nclass = 1", fillcolor="#399de5"] ;
89 -> 91 ;
92 [label="entropy = 0.0\nsamples = 1\nvalue = [1, 0]\nclass = 0", fillcolor="#e58139"] ;
86 -> 92 ;
93 [label="entropy = 0.0\nsamples = 1\nvalue = [1, 0]\nclass = 0", fillcolor="#e58139"] ;
85 -> 93 ;
94 [label="entropy = 0.0\nsamples = 3\nvalue = [3, 0]\nclass = 0", fillcolor="#e58139"] ;
80 -> 94 ;
95 [label="entropy = 0.0\nsamples = 2\nvalue = [0, 2]\nclass = 1", fillcolor="#399de5"] ;
69 -> 95 ;
96 [label="entropy = 0.0\nsamples = 7\nvalue = [7, 0]\nclass = 0", fillcolor="#e58139"] ;
66 -> 96 ;
97 [label="NumberOfSuppliments <= 0.5\nentropy = 0.39\nsamples = 13\nvalue = [12, 1]\nclass = 0", fillcolor="#e78c49"] ;
65 -> 97 ;
98 [label="entropy = 0.0\nsamples = 1\nvalue = [0, 1]\nclass = 1", fillcolor="#399de5"] ;
97 -> 98 ;
99 [label="entropy = 0.0\nsamples = 12\nvalue = [12, 0]\nclass = 0", fillcolor="#e58139"] ;
97 -> 99 ;
100 [label="entropy = 0.0\nsamples = 3\nvalue = [0, 3]\nclass = 1", fillcolor="#399de5"] ;
62 -> 100 ;
101 [label="WeekOfMonthClaimed <= 1.5\nentropy = 0.25\nsamples = 24\nvalue = [23, 1]\nclass = 0", fillcolor="#e68642"] ;
61 -> 101 ;
102 [label="entropy = 0.0\nsamples = 1\nvalue = [0, 1]\nclass = 1", fillcolor="#399de5"] ;
101 -> 102 ;
103 [label="entropy = 0.0\nsamples = 23\nvalue = [23, 0]\nclass = 0", fillcolor="#e58139"] ;
101 -> 103 ;
104 [label="PastNumberOfClaims <= 1.5\nentropy = 0.25\nsamples = 47\nvalue = [45, 2]\nclass = 0", fillcolor="#e68742"] ;
58 -> 104 ;
105 [label="entropy = 0.0\nsamples = 29\nvalue = [29, 0]\nclass = 0", fillcolor="#e58139"] ;
104 -> 105 ;
106 [label="DayOfWeekClaimed <= 3.0\nentropy = 0.5\nsamples = 18\nvalue = [16, 2]\nclass = 0", fillcolor="#e89152"] ;
104 -> 106 ;
107 [label="VehiclePrice <= 2.5\nentropy = 0.81\nsamples = 8\nvalue = [6, 2]\nclass = 0", fillcolor="#eeab7b"] ;
106 -> 107 ;
108 [label="DayOfWeekClaimed <= 0.5\nentropy = 0.92\nsamples = 3\nvalue = [1, 2]\nclass = 1", fillcolor="#9ccef2"] ;
107 -> 108 ;
109 [label="entropy = 0.0\nsamples = 1\nvalue = [1, 0]\nclass = 0", fillcolor="#e58139"] ;
108 -> 109 ;
110 [label="entropy = 0.0\nsamples = 2\nvalue = [0, 2]\nclass = 1", fillcolor="#399de5"] ;
108 -> 110 ;
111 [label="entropy = 0.0\nsamples = 5\nvalue = [5, 0]\nclass = 0", fillcolor="#e58139"] ;
107 -> 111 ;
112 [label="entropy = 0.0\nsamples = 10\nvalue = [10, 0]\nclass = 0", fillcolor="#e58139"] ;
106 -> 112 ;
113 [label="AddressChange_Claim <= 1.5\nentropy = 0.03\nsamples = 1223\nvalue = [1219, 4]\nclass = 0", fillcolor="#e5813a"] ;
1 -> 113 ;
114 [label="Fault <= 0.5\nentropy = 0.38\nsamples = 40\nvalue = [37, 3]\nclass = 0", fillcolor="#e78b49"] ;
113 -> 114 ;
115 [label="entropy = 0.0\nsamples = 28\nvalue = [28, 0]\nclass = 0", fillcolor="#e58139"] ;
114 -> 115 ;
116 [label="DayOfWeekClaimed <= 2.5\nentropy = 0.81\nsamples = 12\nvalue = [9, 3]\nclass = 0", fillcolor="#eeab7b"] ;
114 -> 116 ;
117 [label="MaritalStatus <= 1.5\nentropy = 0.97\nsamples = 5\nvalue = [2, 3]\nclass = 1", fillcolor="#bddef6"] ;
116 -> 117 ;
118 [label="entropy = 0.0\nsamples = 3\nvalue = [0, 3]\nclass = 1", fillcolor="#399de5"] ;
117 -> 118 ;
119 [label="entropy = 0.0\nsamples = 2\nvalue = [2, 0]\nclass = 0", fillcolor="#e58139"] ;
117 -> 119 ;
120 [label="entropy = 0.0\nsamples = 7\nvalue = [7, 0]\nclass = 0", fillcolor="#e58139"] ;
116 -> 120 ;
121 [label="AgeOfVehicle <= 3.5\nentropy = 0.01\nsamples = 1183\nvalue = [1182, 1]\nclass = 0", fillcolor="#e58139"] ;
113 -> 121 ;
122 [label="Month <= 6.5\nentropy = 0.09\nsamples = 84\nvalue = [83, 1]\nclass = 0", fillcolor="#e5833b"] ;
121 -> 122 ;
123 [label="entropy = 0.0\nsamples = 66\nvalue = [66, 0]\nclass = 0", fillcolor="#e58139"] ;
122 -> 123 ;
124 [label="Year <= 1995.5\nentropy = 0.31\nsamples = 18\nvalue = [17, 1]\nclass = 0", fillcolor="#e78845"] ;
122 -> 124 ;
125 [label="Make <= 11.5\nentropy = 1.0\nsamples = 2\nvalue = [1, 1]\nclass = 0", fillcolor="#ffffff"] ;
124 -> 125 ;
126 [label="entropy = 0.0\nsamples = 1\nvalue = [0, 1]\nclass = 1", fillcolor="#399de5"] ;
125 -> 126 ;
127 [label="entropy = 0.0\nsamples = 1\nvalue = [1, 0]\nclass = 0", fillcolor="#e58139"] ;
125 -> 127 ;
128 [label="entropy = 0.0\nsamples = 16\nvalue = [16, 0]\nclass = 0", fillcolor="#e58139"] ;
124 -> 128 ;
129 [label="entropy = 0.0\nsamples = 1099\nvalue = [1099, 0]\nclass = 0", fillcolor="#e58139"] ;
121 -> 129 ;
130 [label="BasePolicy <= 1.5\nentropy = 0.41\nsamples = 1339\nvalue = [1228, 111]\nclass = 0", fillcolor="#e78c4b"] ;
0 -> 130 [labeldistance=2.5, labelangle=-45, headlabel="False"] ;
131 [label="Fault <= 0.5\nentropy = 0.52\nsamples = 921\nvalue = [814, 107]\nclass = 0", fillcolor="#e89253"] ;
130 -> 131 ;
132 [label="BasePolicy <= 0.5\nentropy = 0.66\nsamples = 610\nvalue = [506, 104]\nclass = 0", fillcolor="#ea9b62"] ;
131 -> 132 ;
133 [label="Age <= 30.5\nentropy = 0.8\nsamples = 233\nvalue = [176, 57]\nclass = 0", fillcolor="#edaa79"] ;
132 -> 133 ;
134 [label="Age <= 27.5\nentropy = 0.97\nsamples = 53\nvalue = [32, 21]\nclass = 0", fillcolor="#f6d4bb"] ;
133 -> 134 ;
135 [label="PastNumberOfClaims <= 2.0\nentropy = 0.76\nsamples = 23\nvalue = [18, 5]\nclass = 0", fillcolor="#eca470"] ;
134 -> 135 ;
136 [label="entropy = 0.0\nsamples = 14\nvalue = [14, 0]\nclass = 0", fillcolor="#e58139"] ;
135 -> 136 ;
137 [label="MonthClaimed <= 6.5\nentropy = 0.99\nsamples = 9\nvalue = [4, 5]\nclass = 1", fillcolor="#d7ebfa"] ;
135 -> 137 ;
138 [label="entropy = 0.0\nsamples = 4\nvalue = [4, 0]\nclass = 0", fillcolor="#e58139"] ;
137 -> 138 ;
139 [label="entropy = 0.0\nsamples = 5\nvalue = [0, 5]\nclass = 1", fillcolor="#399de5"] ;
137 -> 139 ;
140 [label="AccidentArea <= 0.5\nentropy = 1.0\nsamples = 30\nvalue = [14, 16]\nclass = 1", fillcolor="#e6f3fc"] ;
134 -> 140 ;
141 [label="entropy = 0.0\nsamples = 4\nvalue = [0, 4]\nclass = 1", fillcolor="#399de5"] ;
140 -> 141 ;
142 [label="MonthClaimed <= 9.5\nentropy = 1.0\nsamples = 26\nvalue = [14, 12]\nclass = 0", fillcolor="#fbede3"] ;
140 -> 142 ;
143 [label="DayOfWeekClaimed <= 5.0\nentropy = 0.81\nsamples = 8\nvalue = [2, 6]\nclass = 1", fillcolor="#7bbeee"] ;
142 -> 143 ;
144 [label="entropy = 0.0\nsamples = 5\nvalue = [0, 5]\nclass = 1", fillcolor="#399de5"] ;
143 -> 144 ;
145 [label="AgeOfVehicle <= 3.0\nentropy = 0.92\nsamples = 3\nvalue = [2, 1]\nclass = 0", fillcolor="#f2c09c"] ;
143 -> 145 ;
146 [label="entropy = 0.0\nsamples = 1\nvalue = [0, 1]\nclass = 1", fillcolor="#399de5"] ;
145 -> 146 ;
147 [label="entropy = 0.0\nsamples = 2\nvalue = [2, 0]\nclass = 0", fillcolor="#e58139"] ;
145 -> 147 ;
148 [label="PastNumberOfClaims <= 2.5\nentropy = 0.92\nsamples = 18\nvalue = [12, 6]\nclass = 0", fillcolor="#f2c09c"] ;
142 -> 148 ;
149 [label="DayOfWeek <= 0.5\nentropy = 0.68\nsamples = 11\nvalue = [9, 2]\nclass = 0", fillcolor="#eb9d65"] ;
148 -> 149 ;
150 [label="entropy = 0.0\nsamples = 1\nvalue = [0, 1]\nclass = 1", fillcolor="#399de5"] ;
149 -> 150 ;
151 [label="NumberOfSuppliments <= 0.5\nentropy = 0.47\nsamples = 10\nvalue = [9, 1]\nclass = 0", fillcolor="#e88f4f"] ;
149 -> 151 ;
152 [label="DriverRating <= 2.5\nentropy = 1.0\nsamples = 2\nvalue = [1, 1]\nclass = 0", fillcolor="#ffffff"] ;
151 -> 152 ;
153 [label="entropy = 0.0\nsamples = 1\nvalue = [1, 0]\nclass = 0", fillcolor="#e58139"] ;
152 -> 153 ;
154 [label="entropy = 0.0\nsamples = 1\nvalue = [0, 1]\nclass = 1", fillcolor="#399de5"] ;
152 -> 154 ;
155 [label="entropy = 0.0\nsamples = 8\nvalue = [8, 0]\nclass = 0", fillcolor="#e58139"] ;
151 -> 155 ;
156 [label="DayOfWeek <= 0.5\nentropy = 0.99\nsamples = 7\nvalue = [3, 4]\nclass = 1", fillcolor="#cee6f8"] ;
148 -> 156 ;
157 [label="entropy = 0.0\nsamples = 3\nvalue = [3, 0]\nclass = 0", fillcolor="#e58139"] ;
156 -> 157 ;
158 [label="entropy = 0.0\nsamples = 4\nvalue = [0, 4]\nclass = 1", fillcolor="#399de5"] ;
156 -> 158 ;
159 [label="Month <= 9.5\nentropy = 0.72\nsamples = 180\nvalue = [144, 36]\nclass = 0", fillcolor="#eca06a"] ;
133 -> 159 ;
160 [label="WeekOfMonthClaimed <= 2.5\nentropy = 0.38\nsamples = 54\nvalue = [50, 4]\nclass = 0", fillcolor="#e78b49"] ;
159 -> 160 ;
161 [label="WeekOfMonth <= 4.5\nentropy = 0.65\nsamples = 24\nvalue = [20, 4]\nclass = 0", fillcolor="#ea9a61"] ;
160 -> 161 ;
162 [label="DayOfWeek <= 4.5\nentropy = 0.45\nsamples = 21\nvalue = [19, 2]\nclass = 0", fillcolor="#e88e4e"] ;
161 -> 162 ;
163 [label="entropy = 0.0\nsamples = 15\nvalue = [15, 0]\nclass = 0", fillcolor="#e58139"] ;
162 -> 163 ;
164 [label="WeekOfMonth <= 1.5\nentropy = 0.92\nsamples = 6\nvalue = [4, 2]\nclass = 0", fillcolor="#f2c09c"] ;
162 -> 164 ;
165 [label="entropy = 0.0\nsamples = 1\nvalue = [0, 1]\nclass = 1", fillcolor="#399de5"] ;
164 -> 165 ;
166 [label="Make <= 15.0\nentropy = 0.72\nsamples = 5\nvalue = [4, 1]\nclass = 0", fillcolor="#eca06a"] ;
164 -> 166 ;
167 [label="entropy = 0.0\nsamples = 4\nvalue = [4, 0]\nclass = 0", fillcolor="#e58139"] ;
166 -> 167 ;
168 [label="entropy = 0.0\nsamples = 1\nvalue = [0, 1]\nclass = 1", fillcolor="#399de5"] ;
166 -> 168 ;
169 [label="DriverRating <= 2.0\nentropy = 0.92\nsamples = 3\nvalue = [1, 2]\nclass = 1", fillcolor="#9ccef2"] ;
161 -> 169 ;
170 [label="entropy = 0.0\nsamples = 1\nvalue = [1, 0]\nclass = 0", fillcolor="#e58139"] ;
169 -> 170 ;
171 [label="entropy = 0.0\nsamples = 2\nvalue = [0, 2]\nclass = 1", fillcolor="#399de5"] ;
169 -> 171 ;
172 [label="entropy = 0.0\nsamples = 30\nvalue = [30, 0]\nclass = 0", fillcolor="#e58139"] ;
160 -> 172 ;
173 [label="Age <= 39.5\nentropy = 0.82\nsamples = 126\nvalue = [94, 32]\nclass = 0", fillcolor="#eeac7c"] ;
159 -> 173 ;
174 [label="PastNumberOfClaims <= 0.5\nentropy = 0.57\nsamples = 44\nvalue = [38, 6]\nclass = 0", fillcolor="#e99558"] ;
173 -> 174 ;
175 [label="MaritalStatus <= 1.5\nentropy = 0.94\nsamples = 17\nvalue = [11, 6]\nclass = 0", fillcolor="#f3c6a5"] ;
174 -> 175 ;
176 [label="WeekOfMonth <= 2.5\nentropy = 0.5\nsamples = 9\nvalue = [8, 1]\nclass = 0", fillcolor="#e89152"] ;
175 -> 176 ;
177 [label="entropy = 0.0\nsamples = 1\nvalue = [0, 1]\nclass = 1", fillcolor="#399de5"] ;
176 -> 177 ;
178 [label="entropy = 0.0\nsamples = 8\nvalue = [8, 0]\nclass = 0", fillcolor="#e58139"] ;
176 -> 178 ;
179 [label="Make <= 9.5\nentropy = 0.95\nsamples = 8\nvalue = [3, 5]\nclass = 1", fillcolor="#b0d8f5"] ;
175 -> 179 ;
180 [label="entropy = 0.0\nsamples = 2\nvalue = [2, 0]\nclass = 0", fillcolor="#e58139"] ;
179 -> 180 ;
181 [label="Month <= 10.5\nentropy = 0.65\nsamples = 6\nvalue = [1, 5]\nclass = 1", fillcolor="#61b1ea"] ;
179 -> 181 ;
182 [label="entropy = 0.0\nsamples = 1\nvalue = [1, 0]\nclass = 0", fillcolor="#e58139"] ;
181 -> 182 ;
183 [label="entropy = 0.0\nsamples = 5\nvalue = [0, 5]\nclass = 1", fillcolor="#399de5"] ;
181 -> 183 ;
184 [label="entropy = 0.0\nsamples = 27\nvalue = [27, 0]\nclass = 0", fillcolor="#e58139"] ;
174 -> 184 ;
185 [label="AgeOfVehicle <= 4.5\nentropy = 0.9\nsamples = 82\nvalue = [56, 26]\nclass = 0", fillcolor="#f1bc95"] ;
173 -> 185 ;
186 [label="AgeOfVehicle <= 2.5\nentropy = 0.37\nsamples = 14\nvalue = [13, 1]\nclass = 0", fillcolor="#e78b48"] ;
185 -> 186 ;
187 [label="entropy = 0.0\nsamples = 1\nvalue = [0, 1]\nclass = 1", fillcolor="#399de5"] ;
186 -> 187 ;
188 [label="entropy = 0.0\nsamples = 13\nvalue = [13, 0]\nclass = 0", fillcolor="#e58139"] ;
186 -> 188 ;
189 [label="Month <= 10.5\nentropy = 0.95\nsamples = 68\nvalue = [43, 25]\nclass = 0", fillcolor="#f4caac"] ;
185 -> 189 ;
190 [label="DayOfWeek <= 5.5\nentropy = 1.0\nsamples = 27\nvalue = [13, 14]\nclass = 1", fillcolor="#f1f8fd"] ;
189 -> 190 ;
191 [label="VehiclePrice <= 0.5\nentropy = 0.97\nsamples = 23\nvalue = [9, 14]\nclass = 1", fillcolor="#b8dcf6"] ;
190 -> 191 ;
192 [label="Age <= 44.5\nentropy = 0.5\nsamples = 9\nvalue = [1, 8]\nclass = 1", fillcolor="#52a9e8"] ;
191 -> 192 ;
193 [label="entropy = 0.0\nsamples = 1\nvalue = [1, 0]\nclass = 0", fillcolor="#e58139"] ;
192 -> 193 ;
194 [label="entropy = 0.0\nsamples = 8\nvalue = [0, 8]\nclass = 1", fillcolor="#399de5"] ;
192 -> 194 ;
195 [label="Make <= 11.5\nentropy = 0.99\nsamples = 14\nvalue = [8, 6]\nclass = 0", fillcolor="#f8e0ce"] ;
191 -> 195 ;
196 [label="DriverRating <= 1.5\nentropy = 0.86\nsamples = 7\nvalue = [2, 5]\nclass = 1", fillcolor="#88c4ef"] ;
195 -> 196 ;
197 [label="AgeOfVehicle <= 5.5\nentropy = 0.92\nsamples = 3\nvalue = [2, 1]\nclass = 0", fillcolor="#f2c09c"] ;
196 -> 197 ;
198 [label="entropy = 0.0\nsamples = 1\nvalue = [0, 1]\nclass = 1", fillcolor="#399de5"] ;
197 -> 198 ;
199 [label="entropy = 0.0\nsamples = 2\nvalue = [2, 0]\nclass = 0", fillcolor="#e58139"] ;
197 -> 199 ;
200 [label="entropy = 0.0\nsamples = 4\nvalue = [0, 4]\nclass = 1", fillcolor="#399de5"] ;
196 -> 200 ;
201 [label="DayOfWeekClaimed <= 5.0\nentropy = 0.59\nsamples = 7\nvalue = [6, 1]\nclass = 0", fillcolor="#e9965a"] ;
195 -> 201 ;
202 [label="entropy = 0.0\nsamples = 5\nvalue = [5, 0]\nclass = 0", fillcolor="#e58139"] ;
201 -> 202 ;
203 [label="Make <= 15.0\nentropy = 1.0\nsamples = 2\nvalue = [1, 1]\nclass = 0", fillcolor="#ffffff"] ;
201 -> 203 ;
204 [label="entropy = 0.0\nsamples = 1\nvalue = [0, 1]\nclass = 1", fillcolor="#399de5"] ;
203 -> 204 ;
205 [label="entropy = 0.0\nsamples = 1\nvalue = [1, 0]\nclass = 0", fillcolor="#e58139"] ;
203 -> 205 ;
206 [label="entropy = 0.0\nsamples = 4\nvalue = [4, 0]\nclass = 0", fillcolor="#e58139"] ;
190 -> 206 ;
207 [label="Make <= 12.0\nentropy = 0.84\nsamples = 41\nvalue = [30, 11]\nclass = 0", fillcolor="#efaf82"] ;
189 -> 207 ;
208 [label="AgeOfVehicle <= 5.5\nentropy = 0.98\nsamples = 24\nvalue = [14, 10]\nclass = 0", fillcolor="#f8dbc6"] ;
207 -> 208 ;
209 [label="Make <= 10.0\nentropy = 0.68\nsamples = 11\nvalue = [9, 2]\nclass = 0", fillcolor="#eb9d65"] ;
208 -> 209 ;
210 [label="AgeOfPolicyHolder <= 7.0\nentropy = 0.47\nsamples = 10\nvalue = [9, 1]\nclass = 0", fillcolor="#e88f4f"] ;
209 -> 210 ;
211 [label="entropy = 0.0\nsamples = 9\nvalue = [9, 0]\nclass = 0", fillcolor="#e58139"] ;
210 -> 211 ;
212 [label="entropy = 0.0\nsamples = 1\nvalue = [0, 1]\nclass = 1", fillcolor="#399de5"] ;
210 -> 212 ;
213 [label="entropy = 0.0\nsamples = 1\nvalue = [0, 1]\nclass = 1", fillcolor="#399de5"] ;
209 -> 213 ;
214 [label="Age <= 51.0\nentropy = 0.96\nsamples = 13\nvalue = [5, 8]\nclass = 1", fillcolor="#b5daf5"] ;
208 -> 214 ;
215 [label="entropy = 0.0\nsamples = 4\nvalue = [0, 4]\nclass = 1", fillcolor="#399de5"] ;
214 -> 215 ;
216 [label="DayOfWeek <= 4.5\nentropy = 0.99\nsamples = 9\nvalue = [5, 4]\nclass = 0", fillcolor="#fae6d7"] ;
214 -> 216 ;
217 [label="WeekOfMonthClaimed <= 3.5\nentropy = 0.65\nsamples = 6\nvalue = [5, 1]\nclass = 0", fillcolor="#ea9a61"] ;
216 -> 217 ;
218 [label="entropy = 0.0\nsamples = 4\nvalue = [4, 0]\nclass = 0", fillcolor="#e58139"] ;
217 -> 218 ;
219 [label="DayOfWeek <= 2.0\nentropy = 1.0\nsamples = 2\nvalue = [1, 1]\nclass = 0", fillcolor="#ffffff"] ;
217 -> 219 ;
220 [label="entropy = 0.0\nsamples = 1\nvalue = [0, 1]\nclass = 1", fillcolor="#399de5"] ;
219 -> 220 ;
221 [label="entropy = 0.0\nsamples = 1\nvalue = [1, 0]\nclass = 0", fillcolor="#e58139"] ;
219 -> 221 ;
222 [label="entropy = 0.0\nsamples = 3\nvalue = [0, 3]\nclass = 1", fillcolor="#399de5"] ;
216 -> 222 ;
223 [label="Age <= 41.5\nentropy = 0.32\nsamples = 17\nvalue = [16, 1]\nclass = 0", fillcolor="#e78945"] ;
207 -> 223 ;
224 [label="entropy = 0.0\nsamples = 1\nvalue = [0, 1]\nclass = 1", fillcolor="#399de5"] ;
223 -> 224 ;
225 [label="entropy = 0.0\nsamples = 16\nvalue = [16, 0]\nclass = 0", fillcolor="#e58139"] ;
223 -> 225 ;
226 [label="AgeOfVehicle <= 5.5\nentropy = 0.54\nsamples = 377\nvalue = [330, 47]\nclass = 0", fillcolor="#e99355"] ;
132 -> 226 ;
227 [label="Age <= 18.5\nentropy = 0.6\nsamples = 291\nvalue = [248, 43]\nclass = 0", fillcolor="#ea975b"] ;
226 -> 227 ;
228 [label="Month <= 10.0\nentropy = 0.97\nsamples = 5\nvalue = [2, 3]\nclass = 1", fillcolor="#bddef6"] ;
227 -> 228 ;
229 [label="entropy = 0.0\nsamples = 2\nvalue = [2, 0]\nclass = 0", fillcolor="#e58139"] ;
228 -> 229 ;
230 [label="entropy = 0.0\nsamples = 3\nvalue = [0, 3]\nclass = 1", fillcolor="#399de5"] ;
228 -> 230 ;
231 [label="WeekOfMonth <= 4.5\nentropy = 0.58\nsamples = 286\nvalue = [246, 40]\nclass = 0", fillcolor="#e99559"] ;
227 -> 231 ;
232 [label="DayOfWeek <= 4.5\nentropy = 0.54\nsamples = 259\nvalue = [227, 32]\nclass = 0", fillcolor="#e99355"] ;
231 -> 232 ;
233 [label="Deductible <= 450.0\nentropy = 0.61\nsamples = 185\nvalue = [157, 28]\nclass = 0", fillcolor="#ea975c"] ;
232 -> 233 ;
234 [label="AddressChange_Claim <= 2.5\nentropy = 0.58\nsamples = 175\nvalue = [151, 24]\nclass = 0", fillcolor="#e99558"] ;
233 -> 234 ;
235 [label="entropy = 0.0\nsamples = 15\nvalue = [15, 0]\nclass = 0", fillcolor="#e58139"] ;
234 -> 235 ;
236 [label="DayOfWeekClaimed <= 0.5\nentropy = 0.61\nsamples = 160\nvalue = [136, 24]\nclass = 0", fillcolor="#ea975c"] ;
234 -> 236 ;
237 [label="Age <= 50.5\nentropy = 0.83\nsamples = 23\nvalue = [17, 6]\nclass = 0", fillcolor="#eead7f"] ;
236 -> 237 ;
238 [label="VehiclePrice <= 0.5\nentropy = 0.7\nsamples = 21\nvalue = [17, 4]\nclass = 0", fillcolor="#eb9f68"] ;
237 -> 238 ;
239 [label="PastNumberOfClaims <= 1.5\nentropy = 0.86\nsamples = 14\nvalue = [10, 4]\nclass = 0", fillcolor="#efb388"] ;
238 -> 239 ;
240 [label="AgentType <= 0.5\nentropy = 0.5\nsamples = 9\nvalue = [8, 1]\nclass = 0", fillcolor="#e89152"] ;
239 -> 240 ;
241 [label="entropy = 0.0\nsamples = 8\nvalue = [8, 0]\nclass = 0", fillcolor="#e58139"] ;
240 -> 241 ;
242 [label="entropy = 0.0\nsamples = 1\nvalue = [0, 1]\nclass = 1", fillcolor="#399de5"] ;
240 -> 242 ;
243 [label="WeekOfMonthClaimed <= 1.5\nentropy = 0.97\nsamples = 5\nvalue = [2, 3]\nclass = 1", fillcolor="#bddef6"] ;
239 -> 243 ;
244 [label="entropy = 0.0\nsamples = 2\nvalue = [2, 0]\nclass = 0", fillcolor="#e58139"] ;
243 -> 244 ;
245 [label="entropy = 0.0\nsamples = 3\nvalue = [0, 3]\nclass = 1", fillcolor="#399de5"] ;
243 -> 245 ;
246 [label="entropy = 0.0\nsamples = 7\nvalue = [7, 0]\nclass = 0", fillcolor="#e58139"] ;
238 -> 246 ;
247 [label="entropy = 0.0\nsamples = 2\nvalue = [0, 2]\nclass = 1", fillcolor="#399de5"] ;
237 -> 247 ;
248 [label="Age <= 41.5\nentropy = 0.56\nsamples = 137\nvalue = [119, 18]\nclass = 0", fillcolor="#e99457"] ;
236 -> 248 ;
249 [label="MonthClaimed <= 9.5\nentropy = 0.62\nsamples = 117\nvalue = [99, 18]\nclass = 0", fillcolor="#ea985d"] ;
248 -> 249 ;
250 [label="VehiclePrice <= 0.5\nentropy = 0.35\nsamples = 46\nvalue = [43, 3]\nclass = 0", fillcolor="#e78a47"] ;
249 -> 250 ;
251 [label="entropy = 0.0\nsamples = 27\nvalue = [27, 0]\nclass = 0", fillcolor="#e58139"] ;
250 -> 251 ;
252 [label="DriverRating <= 2.5\nentropy = 0.63\nsamples = 19\nvalue = [16, 3]\nclass = 0", fillcolor="#ea995e"] ;
250 -> 252 ;
253 [label="entropy = 0.0\nsamples = 12\nvalue = [12, 0]\nclass = 0", fillcolor="#e58139"] ;
252 -> 253 ;
254 [label="MaritalStatus <= 1.5\nentropy = 0.99\nsamples = 7\nvalue = [4, 3]\nclass = 0", fillcolor="#f8e0ce"] ;
252 -> 254 ;
255 [label="entropy = 0.0\nsamples = 4\nvalue = [4, 0]\nclass = 0", fillcolor="#e58139"] ;
254 -> 255 ;
256 [label="entropy = 0.0\nsamples = 3\nvalue = [0, 3]\nclass = 1", fillcolor="#399de5"] ;
254 -> 256 ;
257 [label="WeekOfMonthClaimed <= 3.5\nentropy = 0.74\nsamples = 71\nvalue = [56, 15]\nclass = 0", fillcolor="#eca36e"] ;
249 -> 257 ;
258 [label="Month <= 10.5\nentropy = 0.57\nsamples = 44\nvalue = [38, 6]\nclass = 0", fillcolor="#e99558"] ;
257 -> 258 ;
259 [label="WeekOfMonth <= 2.5\nentropy = 0.76\nsamples = 23\nvalue = [18, 5]\nclass = 0", fillcolor="#eca470"] ;
258 -> 259 ;
260 [label="Age <= 30.5\nentropy = 0.87\nsamples = 17\nvalue = [12, 5]\nclass = 0", fillcolor="#f0b58b"] ;
259 -> 260 ;
261 [label="NumberOfSuppliments <= 2.5\nentropy = 0.97\nsamples = 5\nvalue = [2, 3]\nclass = 1", fillcolor="#bddef6"] ;
260 -> 261 ;
262 [label="DriverRating <= 3.5\nentropy = 0.92\nsamples = 3\nvalue = [2, 1]\nclass = 0", fillcolor="#f2c09c"] ;
261 -> 262 ;
263 [label="entropy = 0.0\nsamples = 2\nvalue = [2, 0]\nclass = 0", fillcolor="#e58139"] ;
262 -> 263 ;
264 [label="entropy = 0.0\nsamples = 1\nvalue = [0, 1]\nclass = 1", fillcolor="#399de5"] ;
262 -> 264 ;
265 [label="entropy = 0.0\nsamples = 2\nvalue = [0, 2]\nclass = 1", fillcolor="#399de5"] ;
261 -> 265 ;
266 [label="NumberOfSuppliments <= 1.0\nentropy = 0.65\nsamples = 12\nvalue = [10, 2]\nclass = 0", fillcolor="#ea9a61"] ;
260 -> 266 ;
267 [label="DayOfWeek <= 1.5\nentropy = 1.0\nsamples = 4\nvalue = [2, 2]\nclass = 0", fillcolor="#ffffff"] ;
266 -> 267 ;
268 [label="entropy = 0.0\nsamples = 2\nvalue = [2, 0]\nclass = 0", fillcolor="#e58139"] ;
267 -> 268 ;
269 [label="entropy = 0.0\nsamples = 2\nvalue = [0, 2]\nclass = 1", fillcolor="#399de5"] ;
267 -> 269 ;
270 [label="entropy = 0.0\nsamples = 8\nvalue = [8, 0]\nclass = 0", fillcolor="#e58139"] ;
266 -> 270 ;
271 [label="entropy = 0.0\nsamples = 6\nvalue = [6, 0]\nclass = 0", fillcolor="#e58139"] ;
259 -> 271 ;
272 [label="Age <= 21.5\nentropy = 0.28\nsamples = 21\nvalue = [20, 1]\nclass = 0", fillcolor="#e68743"] ;
258 -> 272 ;
273 [label="WeekOfMonthClaimed <= 2.5\nentropy = 1.0\nsamples = 2\nvalue = [1, 1]\nclass = 0", fillcolor="#ffffff"] ;
272 -> 273 ;
274 [label="entropy = 0.0\nsamples = 1\nvalue = [0, 1]\nclass = 1", fillcolor="#399de5"] ;
273 -> 274 ;
275 [label="entropy = 0.0\nsamples = 1\nvalue = [1, 0]\nclass = 0", fillcolor="#e58139"] ;
273 -> 275 ;
276 [label="entropy = 0.0\nsamples = 19\nvalue = [19, 0]\nclass = 0", fillcolor="#e58139"] ;
272 -> 276 ;
277 [label="Age <= 30.5\nentropy = 0.92\nsamples = 27\nvalue = [18, 9]\nclass = 0", fillcolor="#f2c09c"] ;
257 -> 277 ;
278 [label="VehiclePrice <= 3.0\nentropy = 0.39\nsamples = 13\nvalue = [12, 1]\nclass = 0", fillcolor="#e78c49"] ;
277 -> 278 ;
279 [label="entropy = 0.0\nsamples = 11\nvalue = [11, 0]\nclass = 0", fillcolor="#e58139"] ;
278 -> 279 ;
280 [label="DayOfWeek <= 1.5\nentropy = 1.0\nsamples = 2\nvalue = [1, 1]\nclass = 0", fillcolor="#ffffff"] ;
278 -> 280 ;
281 [label="entropy = 0.0\nsamples = 1\nvalue = [1, 0]\nclass = 0", fillcolor="#e58139"] ;
280 -> 281 ;
282 [label="entropy = 0.0\nsamples = 1\nvalue = [0, 1]\nclass = 1", fillcolor="#399de5"] ;
280 -> 282 ;
283 [label="Sex <= 0.5\nentropy = 0.99\nsamples = 14\nvalue = [6, 8]\nclass = 1", fillcolor="#cee6f8"] ;
277 -> 283 ;
284 [label="entropy = 0.0\nsamples = 3\nvalue = [0, 3]\nclass = 1", fillcolor="#399de5"] ;
283 -> 284 ;
285 [label="DriverRating <= 1.5\nentropy = 0.99\nsamples = 11\nvalue = [6, 5]\nclass = 0", fillcolor="#fbeade"] ;
283 -> 285 ;
286 [label="entropy = 0.0\nsamples = 2\nvalue = [0, 2]\nclass = 1", fillcolor="#399de5"] ;
285 -> 286 ;
287 [label="NumberOfSuppliments <= 2.5\nentropy = 0.92\nsamples = 9\nvalue = [6, 3]\nclass = 0", fillcolor="#f2c09c"] ;
285 -> 287 ;
288 [label="entropy = 0.0\nsamples = 4\nvalue = [4, 0]\nclass = 0", fillcolor="#e58139"] ;
287 -> 288 ;
289 [label="Age <= 34.5\nentropy = 0.97\nsamples = 5\nvalue = [2, 3]\nclass = 1", fillcolor="#bddef6"] ;
287 -> 289 ;
290 [label="DriverRating <= 3.5\nentropy = 0.92\nsamples = 3\nvalue = [2, 1]\nclass = 0", fillcolor="#f2c09c"] ;
289 -> 290 ;
291 [label="entropy = 0.0\nsamples = 2\nvalue = [2, 0]\nclass = 0", fillcolor="#e58139"] ;
290 -> 291 ;
292 [label="entropy = 0.0\nsamples = 1\nvalue = [0, 1]\nclass = 1", fillcolor="#399de5"] ;
290 -> 292 ;
293 [label="entropy = 0.0\nsamples = 2\nvalue = [0, 2]\nclass = 1", fillcolor="#399de5"] ;
289 -> 293 ;
294 [label="entropy = 0.0\nsamples = 20\nvalue = [20, 0]\nclass = 0", fillcolor="#e58139"] ;
248 -> 294 ;
295 [label="NumberOfSuppliments <= 1.5\nentropy = 0.97\nsamples = 10\nvalue = [6, 4]\nclass = 0", fillcolor="#f6d5bd"] ;
233 -> 295 ;
296 [label="entropy = 0.0\nsamples = 2\nvalue = [0, 2]\nclass = 1", fillcolor="#399de5"] ;
295 -> 296 ;
297 [label="WeekOfMonth <= 1.5\nentropy = 0.81\nsamples = 8\nvalue = [6, 2]\nclass = 0", fillcolor="#eeab7b"] ;
295 -> 297 ;
298 [label="DriverRating <= 1.5\nentropy = 0.92\nsamples = 3\nvalue = [1, 2]\nclass = 1", fillcolor="#9ccef2"] ;
297 -> 298 ;
299 [label="entropy = 0.0\nsamples = 1\nvalue = [1, 0]\nclass = 0", fillcolor="#e58139"] ;
298 -> 299 ;
300 [label="entropy = 0.0\nsamples = 2\nvalue = [0, 2]\nclass = 1", fillcolor="#399de5"] ;
298 -> 300 ;
301 [label="entropy = 0.0\nsamples = 5\nvalue = [5, 0]\nclass = 0", fillcolor="#e58139"] ;
297 -> 301 ;
302 [label="Age <= 34.5\nentropy = 0.3\nsamples = 74\nvalue = [70, 4]\nclass = 0", fillcolor="#e68844"] ;
232 -> 302 ;
303 [label="NumberOfCars <= 0.5\nentropy = 0.48\nsamples = 39\nvalue = [35, 4]\nclass = 0", fillcolor="#e88f50"] ;
302 -> 303 ;
304 [label="WeekOfMonth <= 3.5\nentropy = 0.31\nsamples = 36\nvalue = [34, 2]\nclass = 0", fillcolor="#e78845"] ;
303 -> 304 ;
305 [label="entropy = 0.0\nsamples = 28\nvalue = [28, 0]\nclass = 0", fillcolor="#e58139"] ;
304 -> 305 ;
306 [label="Month <= 10.5\nentropy = 0.81\nsamples = 8\nvalue = [6, 2]\nclass = 0", fillcolor="#eeab7b"] ;
304 -> 306 ;
307 [label="MaritalStatus <= 1.5\nentropy = 1.0\nsamples = 4\nvalue = [2, 2]\nclass = 0", fillcolor="#ffffff"] ;
306 -> 307 ;
308 [label="entropy = 0.0\nsamples = 2\nvalue = [0, 2]\nclass = 1", fillcolor="#399de5"] ;
307 -> 308 ;
309 [label="entropy = 0.0\nsamples = 2\nvalue = [2, 0]\nclass = 0", fillcolor="#e58139"] ;
307 -> 309 ;
310 [label="entropy = 0.0\nsamples = 4\nvalue = [4, 0]\nclass = 0", fillcolor="#e58139"] ;
306 -> 310 ;
311 [label="NumberOfSuppliments <= 1.5\nentropy = 0.92\nsamples = 3\nvalue = [1, 2]\nclass = 1", fillcolor="#9ccef2"] ;
303 -> 311 ;
312 [label="entropy = 0.0\nsamples = 2\nvalue = [0, 2]\nclass = 1", fillcolor="#399de5"] ;
311 -> 312 ;
313 [label="entropy = 0.0\nsamples = 1\nvalue = [1, 0]\nclass = 0", fillcolor="#e58139"] ;
311 -> 313 ;
314 [label="entropy = 0.0\nsamples = 35\nvalue = [35, 0]\nclass = 0", fillcolor="#e58139"] ;
302 -> 314 ;
315 [label="PastNumberOfClaims <= 2.5\nentropy = 0.88\nsamples = 27\nvalue = [19, 8]\nclass = 0", fillcolor="#f0b68c"] ;
231 -> 315 ;
316 [label="Month <= 10.5\nentropy = 0.98\nsamples = 19\nvalue = [11, 8]\nclass = 0", fillcolor="#f8ddc9"] ;
315 -> 316 ;
317 [label="Age <= 57.5\nentropy = 0.86\nsamples = 14\nvalue = [10, 4]\nclass = 0", fillcolor="#efb388"] ;
316 -> 317 ;
318 [label="DayOfWeek <= 4.5\nentropy = 0.78\nsamples = 13\nvalue = [10, 3]\nclass = 0", fillcolor="#eda774"] ;
317 -> 318 ;
319 [label="AccidentArea <= 0.5\nentropy = 0.47\nsamples = 10\nvalue = [9, 1]\nclass = 0", fillcolor="#e88f4f"] ;
318 -> 319 ;
320 [label="MonthClaimed <= 5.5\nentropy = 1.0\nsamples = 2\nvalue = [1, 1]\nclass = 0", fillcolor="#ffffff"] ;
319 -> 320 ;
321 [label="entropy = 0.0\nsamples = 1\nvalue = [1, 0]\nclass = 0", fillcolor="#e58139"] ;
320 -> 321 ;
322 [label="entropy = 0.0\nsamples = 1\nvalue = [0, 1]\nclass = 1", fillcolor="#399de5"] ;
320 -> 322 ;
323 [label="entropy = 0.0\nsamples = 8\nvalue = [8, 0]\nclass = 0", fillcolor="#e58139"] ;
319 -> 323 ;
324 [label="Make <= 15.0\nentropy = 0.92\nsamples = 3\nvalue = [1, 2]\nclass = 1", fillcolor="#9ccef2"] ;
318 -> 324 ;
325 [label="entropy = 0.0\nsamples = 2\nvalue = [0, 2]\nclass = 1", fillcolor="#399de5"] ;
324 -> 325 ;
326 [label="entropy = 0.0\nsamples = 1\nvalue = [1, 0]\nclass = 0", fillcolor="#e58139"] ;
324 -> 326 ;
327 [label="entropy = 0.0\nsamples = 1\nvalue = [0, 1]\nclass = 1", fillcolor="#399de5"] ;
317 -> 327 ;
328 [label="DayOfWeekClaimed <= 0.5\nentropy = 0.72\nsamples = 5\nvalue = [1, 4]\nclass = 1", fillcolor="#6ab6ec"] ;
316 -> 328 ;
329 [label="entropy = 0.0\nsamples = 1\nvalue = [1, 0]\nclass = 0", fillcolor="#e58139"] ;
328 -> 329 ;
330 [label="entropy = 0.0\nsamples = 4\nvalue = [0, 4]\nclass = 1", fillcolor="#399de5"] ;
328 -> 330 ;
331 [label="entropy = 0.0\nsamples = 8\nvalue = [8, 0]\nclass = 0", fillcolor="#e58139"] ;
315 -> 331 ;
332 [label="Age <= 50.5\nentropy = 0.27\nsamples = 86\nvalue = [82, 4]\nclass = 0", fillcolor="#e68743"] ;
226 -> 332 ;
333 [label="AgeOfPolicyHolder <= 5.5\nentropy = 0.55\nsamples = 31\nvalue = [27, 4]\nclass = 0", fillcolor="#e99456"] ;
332 -> 333 ;
334 [label="entropy = 0.0\nsamples = 15\nvalue = [15, 0]\nclass = 0", fillcolor="#e58139"] ;
333 -> 334 ;
335 [label="WeekOfMonthClaimed <= 2.5\nentropy = 0.81\nsamples = 16\nvalue = [12, 4]\nclass = 0", fillcolor="#eeab7b"] ;
333 -> 335 ;
336 [label="entropy = 0.0\nsamples = 9\nvalue = [9, 0]\nclass = 0", fillcolor="#e58139"] ;
335 -> 336 ;
337 [label="PastNumberOfClaims <= 1.5\nentropy = 0.99\nsamples = 7\nvalue = [3, 4]\nclass = 1", fillcolor="#cee6f8"] ;
335 -> 337 ;
338 [label="Age <= 46.5\nentropy = 0.81\nsamples = 4\nvalue = [3, 1]\nclass = 0", fillcolor="#eeab7b"] ;
337 -> 338 ;
339 [label="entropy = 0.0\nsamples = 1\nvalue = [0, 1]\nclass = 1", fillcolor="#399de5"] ;
338 -> 339 ;
340 [label="entropy = 0.0\nsamples = 3\nvalue = [3, 0]\nclass = 0", fillcolor="#e58139"] ;
338 -> 340 ;
341 [label="entropy = 0.0\nsamples = 3\nvalue = [0, 3]\nclass = 1", fillcolor="#399de5"] ;
337 -> 341 ;
342 [label="entropy = 0.0\nsamples = 55\nvalue = [55, 0]\nclass = 0", fillcolor="#e58139"] ;
332 -> 342 ;
343 [label="AddressChange_Claim <= 1.5\nentropy = 0.08\nsamples = 311\nvalue = [308, 3]\nclass = 0", fillcolor="#e5823b"] ;
131 -> 343 ;
344 [label="Month <= 9.5\nentropy = 0.88\nsamples = 10\nvalue = [7, 3]\nclass = 0", fillcolor="#f0b78e"] ;
343 -> 344 ;
345 [label="Age <= 34.5\nentropy = 0.97\nsamples = 5\nvalue = [2, 3]\nclass = 1", fillcolor="#bddef6"] ;
344 -> 345 ;
346 [label="entropy = 0.0\nsamples = 2\nvalue = [0, 2]\nclass = 1", fillcolor="#399de5"] ;
345 -> 346 ;
347 [label="Deductible <= 450.0\nentropy = 0.92\nsamples = 3\nvalue = [2, 1]\nclass = 0", fillcolor="#f2c09c"] ;
345 -> 347 ;
348 [label="entropy = 0.0\nsamples = 1\nvalue = [1, 0]\nclass = 0", fillcolor="#e58139"] ;
347 -> 348 ;
349 [label="WeekOfMonth <= 1.5\nentropy = 1.0\nsamples = 2\nvalue = [1, 1]\nclass = 0", fillcolor="#ffffff"] ;
347 -> 349 ;
350 [label="entropy = 0.0\nsamples = 1\nvalue = [1, 0]\nclass = 0", fillcolor="#e58139"] ;
349 -> 350 ;
351 [label="entropy = 0.0\nsamples = 1\nvalue = [0, 1]\nclass = 1", fillcolor="#399de5"] ;
349 -> 351 ;
352 [label="entropy = 0.0\nsamples = 5\nvalue = [5, 0]\nclass = 0", fillcolor="#e58139"] ;
344 -> 352 ;
353 [label="entropy = 0.0\nsamples = 301\nvalue = [301, 0]\nclass = 0", fillcolor="#e58139"] ;
343 -> 353 ;
354 [label="Make <= 16.5\nentropy = 0.08\nsamples = 418\nvalue = [414, 4]\nclass = 0", fillcolor="#e5823b"] ;
130 -> 354 ;
355 [label="entropy = 0.0\nsamples = 316\nvalue = [316, 0]\nclass = 0", fillcolor="#e58139"] ;
354 -> 355 ;
356 [label="PastNumberOfClaims <= 2.5\nentropy = 0.24\nsamples = 102\nvalue = [98, 4]\nclass = 0", fillcolor="#e68641"] ;
354 -> 356 ;
357 [label="AgeOfVehicle <= 2.5\nentropy = 0.1\nsamples = 80\nvalue = [79, 1]\nclass = 0", fillcolor="#e5833c"] ;
356 -> 357 ;
358 [label="Month <= 10.5\nentropy = 1.0\nsamples = 2\nvalue = [1, 1]\nclass = 0", fillcolor="#ffffff"] ;
357 -> 358 ;
359 [label="entropy = 0.0\nsamples = 1\nvalue = [0, 1]\nclass = 1", fillcolor="#399de5"] ;
358 -> 359 ;
360 [label="entropy = 0.0\nsamples = 1\nvalue = [1, 0]\nclass = 0", fillcolor="#e58139"] ;
358 -> 360 ;
361 [label="entropy = 0.0\nsamples = 78\nvalue = [78, 0]\nclass = 0", fillcolor="#e58139"] ;
357 -> 361 ;
362 [label="NumberOfCars <= 0.5\nentropy = 0.57\nsamples = 22\nvalue = [19, 3]\nclass = 0", fillcolor="#e99558"] ;
356 -> 362 ;
363 [label="DayOfWeekClaimed <= 4.5\nentropy = 0.45\nsamples = 21\nvalue = [19, 2]\nclass = 0", fillcolor="#e88e4e"] ;
362 -> 363 ;
364 [label="entropy = 0.0\nsamples = 11\nvalue = [11, 0]\nclass = 0", fillcolor="#e58139"] ;
363 -> 364 ;
365 [label="DayOfWeek <= 3.5\nentropy = 0.72\nsamples = 10\nvalue = [8, 2]\nclass = 0", fillcolor="#eca06a"] ;
363 -> 365 ;
366 [label="Age <= 52.5\nentropy = 0.97\nsamples = 5\nvalue = [3, 2]\nclass = 0", fillcolor="#f6d5bd"] ;
365 -> 366 ;
367 [label="DayOfWeek <= 0.5\nentropy = 0.92\nsamples = 3\nvalue = [1, 2]\nclass = 1", fillcolor="#9ccef2"] ;
366 -> 367 ;
368 [label="entropy = 0.0\nsamples = 1\nvalue = [1, 0]\nclass = 0", fillcolor="#e58139"] ;
367 -> 368 ;
369 [label="entropy = 0.0\nsamples = 2\nvalue = [0, 2]\nclass = 1", fillcolor="#399de5"] ;
367 -> 369 ;
370 [label="entropy = 0.0\nsamples = 2\nvalue = [2, 0]\nclass = 0", fillcolor="#e58139"] ;
366 -> 370 ;
371 [label="entropy = 0.0\nsamples = 5\nvalue = [5, 0]\nclass = 0", fillcolor="#e58139"] ;
365 -> 371 ;
372 [label="entropy = 0.0\nsamples = 1\nvalue = [0, 1]\nclass = 1", fillcolor="#399de5"] ;
362 -> 372 ;
}